/* Organism #62 Fitness: -9.000000 Time: 0 */
genomestart 62
trait 1 0.000000 0.317155 0.722848 0.000000 0.917953 1.000000 1.000000 1.000000 
node 1 1 1 1
node 2 1 1 1
node 3 1 1 1
node 4 1 1 1
node 5 1 1 1
node 6 1 1 1
node 7 1 1 1
node 8 1 1 1
node 9 1 1 1
node 10 1 1 1
node 11 1 1 1
node 12 1 1 1
node 13 1 1 1
node 14 1 1 1
node 15 1 1 1
node 16 1 1 1
node 17 1 1 1
node 18 1 1 1
node 19 1 1 1
node 20 1 1 1
node 21 1 1 1
node 22 1 1 1
node 23 1 1 1
node 24 1 1 1
node 25 1 1 1
node 26 1 1 1
node 27 1 1 1
node 28 1 1 1
node 29 1 1 1
node 30 1 1 1
node 31 1 1 1
node 32 1 1 1
node 33 1 1 1
node 34 1 1 1
node 35 1 1 1
node 36 1 1 1
node 37 1 1 1
node 38 1 1 1
node 39 1 1 1
node 40 1 1 1
node 41 1 1 3
node 42 1 0 2
node 43 1 0 2
node 44 1 0 2
node 45 1 0 2
gene 1 1 42 -1.75887 0 1 -1.75887 1
gene 1 1 43 -0.949461 0 2 -0.949461 1
gene 1 1 44 -0.380723 0 3 -0.380723 1
gene 1 1 45 -0.747794 0 4 -0.747794 1
gene 1 2 42 0.334285 0 5 0.334285 1
gene 1 2 43 0.359763 0 6 0.359763 1
gene 1 2 44 -0.918745 0 7 -0.918745 1
gene 1 2 45 3.45935 0 8 3.45935 1
gene 1 3 42 2.03189 0 9 2.03189 1
gene 1 3 43 0.280912 0 10 0.280912 1
gene 1 3 44 -2.13217 0 11 -2.13217 1
gene 1 3 45 4.55302 0 12 4.55302 1
gene 1 4 42 3.28998 0 13 3.28998 1
gene 1 4 43 -0.634524 0 14 -0.634524 1
gene 1 4 44 4.37853 0 15 4.37853 1
gene 1 4 45 -4.04772 0 16 -4.04772 1
gene 1 5 42 1.01059 0 17 1.01059 1
gene 1 5 43 0.735936 0 18 0.735936 1
gene 1 5 44 -0.486251 0 19 -0.486251 1
gene 1 5 45 -4.82907 0 20 -4.82907 1
gene 1 6 42 -0.254384 0 21 -0.254384 1
gene 1 6 43 -0.847776 0 22 -0.847776 1
gene 1 6 44 0.00114261 0 23 0.00114261 1
gene 1 6 45 0.553261 0 24 0.553261 1
gene 1 7 42 1.05428 0 25 1.05428 1
gene 1 7 43 3.81014 0 26 3.81014 1
gene 1 7 44 -0.487724 0 27 -0.487724 1
gene 1 7 45 -3.02259 0 28 -3.02259 1
gene 1 8 42 -1.67024 0 29 -1.67024 1
gene 1 8 43 -2.25394 0 30 -2.25394 1
gene 1 8 44 -0.476078 0 31 -0.476078 1
gene 1 8 45 3.01704 0 32 3.01704 1
gene 1 9 42 0.827889 0 33 0.827889 1
gene 1 9 43 -0.380215 0 34 -0.380215 1
gene 1 9 44 0.369423 0 35 0.369423 1
gene 1 9 45 0.587903 0 36 0.587903 1
gene 1 10 42 1.9826 0 37 1.9826 1
gene 1 10 43 -2.02619 0 38 -2.02619 1
gene 1 10 44 -0.941306 0 39 -0.941306 1
gene 1 10 45 3.65398 0 40 3.65398 1
gene 1 11 42 -0.0704668 0 41 -0.0704668 1
gene 1 11 43 0.869034 0 42 0.869034 1
gene 1 11 44 3.25035 0 43 3.25035 1
gene 1 11 45 0.0503961 0 44 0.0503961 1
gene 1 12 42 0.363233 0 45 0.363233 1
gene 1 12 43 -0.865021 0 46 -0.865021 1
gene 1 12 44 0.30702 0 47 0.30702 1
gene 1 12 45 -2.12932 0 48 -2.12932 1
gene 1 13 42 -3.77246 0 49 -3.77246 1
gene 1 13 43 3.1958 0 50 3.1958 1
gene 1 13 44 -3.29775 0 51 -3.29775 1
gene 1 13 45 2.81606 0 52 2.81606 1
gene 1 14 42 -0.881844 0 53 -0.881844 1
gene 1 14 43 -4.0959 0 54 -4.0959 1
gene 1 14 44 0.0471556 0 55 0.0471556 1
gene 1 14 45 -0.239333 0 56 -0.239333 1
gene 1 15 42 -3.16081 0 57 -3.16081 1
gene 1 15 43 -0.540756 0 58 -0.540756 1
gene 1 15 44 3.2611 0 59 3.2611 1
gene 1 15 45 -0.995524 0 60 -0.995524 1
gene 1 16 42 1.42735 0 61 1.42735 1
gene 1 16 43 -2.53684 0 62 -2.53684 1
gene 1 16 44 0.253529 0 63 0.253529 1
gene 1 16 45 0.177456 0 64 0.177456 1
gene 1 17 42 0.736194 0 65 0.736194 1
gene 1 17 43 -0.885802 0 66 -0.885802 1
gene 1 17 44 -0.847085 0 67 -0.847085 1
gene 1 17 45 -4.05663 0 68 -4.05663 1
gene 1 18 42 1.1181 0 69 1.1181 1
gene 1 18 43 4.38876 0 70 4.38876 1
gene 1 18 44 0.128591 0 71 0.128591 1
gene 1 18 45 3.15994 0 72 3.15994 1
gene 1 19 42 3.12402 0 73 3.12402 1
gene 1 19 43 -0.140072 0 74 -0.140072 1
gene 1 19 44 -0.985312 0 75 -0.985312 1
gene 1 19 45 -3.59721 0 76 -3.59721 1
gene 1 20 42 5 0 77 5 1
gene 1 20 43 0.0519132 0 78 0.0519132 1
gene 1 20 44 0.790394 0 79 0.790394 1
gene 1 20 45 -2.09544 0 80 -2.09544 1
gene 1 21 42 -3.04322 0 81 -3.04322 1
gene 1 21 43 -1.93403 0 82 -1.93403 1
gene 1 21 44 0.547056 0 83 0.547056 1
gene 1 21 45 -1.59367 0 84 -1.59367 1
gene 1 22 42 1.33684 0 85 1.33684 1
gene 1 22 43 0.614002 0 86 0.614002 1
gene 1 22 44 0.929988 0 87 0.929988 1
gene 1 22 45 1.41408 0 88 1.41408 1
gene 1 23 42 -1.83307 0 89 -1.83307 1
gene 1 23 43 0.406345 0 90 0.406345 1
gene 1 23 44 1.04662 0 91 1.04662 1
gene 1 23 45 -1.78564 0 92 -1.78564 1
gene 1 24 42 -2.22377 0 93 -2.22377 1
gene 1 24 43 1.61163 0 94 1.61163 1
gene 1 24 44 0.293986 0 95 0.293986 1
gene 1 24 45 0.795776 0 96 0.795776 1
gene 1 25 42 -1.37624 0 97 -1.37624 1
gene 1 25 43 -3.53165 0 98 -3.53165 1
gene 1 25 44 5 0 99 5 1
gene 1 25 45 0.341078 0 100 0.341078 1
gene 1 26 42 1.61538 0 101 1.61538 1
gene 1 26 43 4.18333 0 102 4.18333 1
gene 1 26 44 1.80429 0 103 1.80429 1
gene 1 26 45 -0.581001 0 104 -0.581001 1
gene 1 27 42 -1.75716 0 105 -1.75716 1
gene 1 27 43 0.677199 0 106 0.677199 1
gene 1 27 44 -1.41627 0 107 -1.41627 1
gene 1 27 45 0.0344499 0 108 0.0344499 1
gene 1 28 42 1.69485 0 109 1.69485 1
gene 1 28 43 -4.56111 0 110 -4.56111 1
gene 1 28 44 2.21703 0 111 2.21703 1
gene 1 28 45 1.15335 0 112 1.15335 1
gene 1 29 42 3.70719 0 113 3.70719 1
gene 1 29 43 -0.399121 0 114 -0.399121 1
gene 1 29 44 0.199777 0 115 0.199777 1
gene 1 29 45 -0.446925 0 116 -0.446925 1
gene 1 30 42 -1.27026 0 117 -1.27026 1
gene 1 30 43 -1.56175 0 118 -1.56175 1
gene 1 30 44 0.161108 0 119 0.161108 1
gene 1 30 45 0.891506 0 120 0.891506 1
gene 1 31 42 0.956243 0 121 0.956243 1
gene 1 31 43 1.86001 0 122 1.86001 1
gene 1 31 44 0.966634 0 123 0.966634 1
gene 1 31 45 -0.709706 0 124 -0.709706 1
gene 1 32 42 0.392719 0 125 0.392719 1
gene 1 32 43 -1.42765 0 126 -1.42765 1
gene 1 32 44 4.49598 0 127 4.49598 1
gene 1 32 45 5 0 128 5 1
gene 1 33 42 1.7393 0 129 1.7393 1
gene 1 33 43 1.431 0 130 1.431 1
gene 1 33 44 -0.600329 0 131 -0.600329 1
gene 1 33 45 -0.762316 0 132 -0.762316 1
gene 1 34 42 -1.48567 0 133 -1.48567 1
gene 1 34 43 0.289575 0 134 0.289575 1
gene 1 34 44 -0.689023 0 135 -0.689023 1
gene 1 34 45 -0.00621571 0 136 -0.00621571 1
gene 1 35 42 -0.0758302 0 137 -0.0758302 1
gene 1 35 43 0.041895 0 138 0.041895 1
gene 1 35 44 -0.161361 0 139 -0.161361 1
gene 1 35 45 2.27062 0 140 2.27062 1
gene 1 36 42 0.492886 0 141 0.492886 1
gene 1 36 43 0.348005 0 142 0.348005 1
gene 1 36 44 0.205333 0 143 0.205333 1
gene 1 36 45 -1.08331 0 144 -1.08331 1
gene 1 37 42 -0.383936 0 145 -0.383936 1
gene 1 37 43 -0.874891 0 146 -0.874891 1
gene 1 37 44 0.275408 0 147 0.275408 1
gene 1 37 45 -0.991155 0 148 -0.991155 1
gene 1 38 42 -0.328325 0 149 -0.328325 1
gene 1 38 43 -0.448026 0 150 -0.448026 1
gene 1 38 44 -0.202232 0 151 -0.202232 1
gene 1 38 45 0.0464516 0 152 0.0464516 1
gene 1 39 42 -0.408848 0 153 -0.408848 1
gene 1 39 43 -0.912125 0 154 -0.912125 1
gene 1 39 44 -0.638606 0 155 -0.638606 1
gene 1 39 45 0.220363 0 156 0.220363 1
gene 1 40 42 -0.571903 0 157 -0.571903 1
gene 1 40 43 -0.213905 0 158 -0.213905 1
gene 1 40 44 0.806147 0 159 0.806147 1
gene 1 40 45 -0.692852 0 160 -0.692852 1
gene 1 41 42 -0.65299 0 161 -0.65299 1
gene 1 41 43 0.558786 0 162 0.558786 1
gene 1 41 44 -0.117246 0 163 -0.117246 1
gene 1 41 45 -0.118916 0 164 -0.118916 1
genomeend 62


