/* Organism #23 Fitness: -144.690000 Time: 0 */
genomestart 23
trait 1 0.000000 0.000000 0.253174 0.326944 0.000000 0.000000 0.193895 1.000000 
node 1 1 1 1
node 2 1 1 1
node 3 1 1 1
node 4 1 1 1
node 5 1 1 1
node 6 1 1 1
node 7 1 1 1
node 8 1 1 1
node 9 1 1 1
node 10 1 1 1
node 11 1 1 1
node 12 1 1 1
node 13 1 1 1
node 14 1 1 1
node 15 1 1 1
node 16 1 1 1
node 17 1 1 1
node 18 1 1 1
node 19 1 1 1
node 20 1 1 1
node 21 1 1 1
node 22 1 1 1
node 23 1 1 1
node 24 1 1 1
node 25 1 1 1
node 26 1 1 1
node 27 1 1 1
node 28 1 1 1
node 29 1 1 1
node 30 1 1 1
node 31 1 1 1
node 32 1 1 1
node 33 1 1 1
node 34 1 1 1
node 35 1 1 1
node 36 1 1 1
node 37 1 1 1
node 38 1 1 1
node 39 1 1 1
node 40 1 1 1
node 41 1 1 3
node 42 1 0 2
node 43 1 0 2
node 44 1 0 2
node 45 1 0 2
gene 1 1 42 -4.11659 0 1 -4.11659 1
gene 1 1 43 -5 0 2 -5 1
gene 1 1 44 2.25622 0 3 2.25622 1
gene 1 1 45 1.79496 0 4 1.79496 1
gene 1 2 42 -4.7382 0 5 -4.7382 1
gene 1 2 43 0.767325 0 6 0.767325 1
gene 1 2 44 -1.8911 0 7 -1.8911 1
gene 1 2 45 -1.88853 0 8 -1.88853 1
gene 1 3 42 -4.20954 0 9 -4.20954 1
gene 1 3 43 1.64271 0 10 1.64271 1
gene 1 3 44 -2.08559 0 11 -2.08559 1
gene 1 3 45 -0.661179 0 12 -0.661179 1
gene 1 4 42 0.756618 0 13 0.756618 1
gene 1 4 43 -1.17121 0 14 -1.17121 1
gene 1 4 44 0.481888 0 15 0.481888 1
gene 1 4 45 -4.3661 0 16 -4.3661 1
gene 1 5 42 -3.88491 0 17 -3.88491 1
gene 1 5 43 2.63087 0 18 2.63087 1
gene 1 5 44 -1.1552 0 19 -1.1552 1
gene 1 5 45 0.500171 0 20 0.500171 1
gene 1 6 42 -1.62 0 21 -1.62 1
gene 1 6 43 0.611914 0 22 0.611914 1
gene 1 6 44 0.00757582 0 23 0.00757582 1
gene 1 6 45 0.480575 0 24 0.480575 1
gene 1 7 42 -1.27435 0 25 -1.27435 1
gene 1 7 43 1.45043 0 26 1.45043 1
gene 1 7 44 4.7813 0 27 4.7813 1
gene 1 7 45 -2.16985 0 28 -2.16985 1
gene 1 8 42 -4.63466 0 29 -4.63466 1
gene 1 8 43 4.97887 0 30 4.97887 1
gene 1 8 44 1.35203 0 31 1.35203 1
gene 1 8 45 -1.49123 0 32 -1.49123 1
gene 1 9 42 4.29632 0 33 4.29632 1
gene 1 9 43 2.34383 0 34 2.34383 1
gene 1 9 44 2.3979 0 35 2.3979 1
gene 1 9 45 0.281517 0 36 0.281517 1
gene 1 10 42 -0.888162 0 37 -0.888162 1
gene 1 10 43 3.44633 0 38 3.44633 1
gene 1 10 44 -2.29552 0 39 -2.29552 1
gene 1 10 45 2.3286 0 40 2.3286 1
gene 1 11 42 -1.75507 0 41 -1.75507 1
gene 1 11 43 5 0 42 5 1
gene 1 11 44 0.690721 0 43 0.690721 1
gene 1 11 45 1.7139 0 44 1.7139 1
gene 1 12 42 -0.446521 0 45 -0.446521 1
gene 1 12 43 3.82851 0 46 3.82851 1
gene 1 12 44 0.696648 0 47 0.696648 1
gene 1 12 45 -4.35974 0 48 -4.35974 1
gene 1 13 42 2.8001 0 49 2.8001 1
gene 1 13 43 -0.241853 0 50 -0.241853 1
gene 1 13 44 -1.33763 0 51 -1.33763 1
gene 1 13 45 0.964418 0 52 0.964418 1
gene 1 14 42 -2.55967 0 53 -2.55967 1
gene 1 14 43 -0.504517 0 54 -0.504517 1
gene 1 14 44 -0.34212 0 55 -0.34212 1
gene 1 14 45 -2.65486 0 56 -2.65486 1
gene 1 15 42 -5 0 57 -5 1
gene 1 15 43 -1.56686 0 58 -1.56686 1
gene 1 15 44 2.17628 0 59 2.17628 1
gene 1 15 45 1.53224 0 60 1.53224 1
gene 1 16 42 1.41725 0 61 1.41725 1
gene 1 16 43 0.605233 0 62 0.605233 1
gene 1 16 44 -5 0 63 -5 1
gene 1 16 45 -0.823473 0 64 -0.823473 1
gene 1 17 42 2.73592 0 65 2.73592 1
gene 1 17 43 0.94796 0 66 0.94796 1
gene 1 17 44 2.43279 0 67 2.43279 1
gene 1 17 45 -4.30766 0 68 -4.30766 1
gene 1 18 42 0.764933 0 69 0.764933 1
gene 1 18 43 0.342135 0 70 0.342135 1
gene 1 18 44 -5 0 71 -5 1
gene 1 18 45 1.06609 0 72 1.06609 1
gene 1 19 42 -3.24106 0 73 -3.24106 1
gene 1 19 43 -5 0 74 -5 1
gene 1 19 44 1.07659 0 75 1.07659 1
gene 1 19 45 4.63708 0 76 4.63708 1
gene 1 20 42 -2.5537 0 77 -2.5537 1
gene 1 20 43 1.17833 0 78 1.17833 1
gene 1 20 44 2.27121 0 79 2.27121 1
gene 1 20 45 1.43033 0 80 1.43033 1
gene 1 21 42 -3.79515 0 81 -3.79515 1
gene 1 21 43 3.74704 0 82 3.74704 1
gene 1 21 44 -3.85337 0 83 -3.85337 1
gene 1 21 45 -2.52059 0 84 -2.52059 1
gene 1 22 42 -2.26702 0 85 -2.26702 1
gene 1 22 43 4.49899 0 86 4.49899 1
gene 1 22 44 0.210088 0 87 0.210088 1
gene 1 22 45 -0.348596 0 88 -0.348596 1
gene 1 23 42 4.53369 0 89 4.53369 1
gene 1 23 43 -2.36444 0 90 -2.36444 1
gene 1 23 44 3.02709 0 91 3.02709 1
gene 1 23 45 -1.73612 0 92 -1.73612 1
gene 1 24 42 -1.88694 0 93 -1.88694 1
gene 1 24 43 5 0 94 5 1
gene 1 24 44 -3.74903 0 95 -3.74903 1
gene 1 24 45 -1.3836 0 96 -1.3836 1
gene 1 25 42 4.75014 0 97 4.75014 1
gene 1 25 43 3.15167 0 98 3.15167 1
gene 1 25 44 -1.79555 0 99 -1.79555 1
gene 1 25 45 0.358385 0 100 0.358385 1
gene 1 26 42 2.07082 0 101 2.07082 1
gene 1 26 43 -1.25459 0 102 -1.25459 1
gene 1 26 44 -3.25143 0 103 -3.25143 1
gene 1 26 45 5 0 104 5 1
gene 1 27 42 -2.83818 0 105 -2.83818 1
gene 1 27 43 4.39604 0 106 4.39604 1
gene 1 27 44 -1.04284 0 107 -1.04284 1
gene 1 27 45 -1.87765 0 108 -1.87765 1
gene 1 28 42 -5 0 109 -5 1
gene 1 28 43 -0.15526 0 110 -0.15526 1
gene 1 28 44 2.76703 0 111 2.76703 1
gene 1 28 45 -0.379335 0 112 -0.379335 1
gene 1 29 42 4.31715 0 113 4.31715 1
gene 1 29 43 -3.56335 0 114 -3.56335 1
gene 1 29 44 3.20906 0 115 3.20906 1
gene 1 29 45 0.799803 0 116 0.799803 1
gene 1 30 42 -0.38487 0 117 -0.38487 1
gene 1 30 43 0.248844 0 118 0.248844 1
gene 1 30 44 -2.52268 0 119 -2.52268 1
gene 1 30 45 2.477 0 120 2.477 1
gene 1 31 42 5 0 121 5 1
gene 1 31 43 -0.470436 0 122 -0.470436 1
gene 1 31 44 -2.18237 0 123 -2.18237 1
gene 1 31 45 -4.78903 0 124 -4.78903 1
gene 1 32 42 1.48504 0 125 1.48504 1
gene 1 32 43 -0.125835 0 126 -0.125835 1
gene 1 32 44 -2.84415 0 127 -2.84415 1
gene 1 32 45 3.59149 0 128 3.59149 1
gene 1 33 42 -1.35091 0 129 -1.35091 1
gene 1 33 43 1.07198 0 130 1.07198 1
gene 1 33 44 -0.565906 0 131 -0.565906 1
gene 1 33 45 4.08049 0 132 4.08049 1
gene 1 34 42 -0.193811 0 133 -0.193811 1
gene 1 34 43 1.08186 0 134 1.08186 1
gene 1 34 44 -0.777832 0 135 -0.777832 1
gene 1 34 45 -0.332981 0 136 -0.332981 1
gene 1 35 42 0.417223 0 137 0.417223 1
gene 1 35 43 -0.971403 0 138 -0.971403 1
gene 1 35 44 1.6891 0 139 1.6891 1
gene 1 35 45 -0.151915 0 140 -0.151915 1
gene 1 36 42 -0.0695456 0 141 -0.0695456 1
gene 1 36 43 0.505848 0 142 0.505848 1
gene 1 36 44 2.1719 0 143 2.1719 1
gene 1 36 45 -0.725736 0 144 -0.725736 1
gene 1 37 42 0.658885 0 145 0.658885 1
gene 1 37 43 -0.790999 0 146 -0.790999 1
gene 1 37 44 -0.39956 0 147 -0.39956 1
gene 1 37 45 0.738178 0 148 0.738178 1
gene 1 38 42 0.172144 0 149 0.172144 1
gene 1 38 43 0.55969 0 150 0.55969 1
gene 1 38 44 0.491163 0 151 0.491163 1
gene 1 38 45 -1.23655 0 152 -1.23655 1
gene 1 39 42 -0.247389 0 153 -0.247389 1
gene 1 39 43 0.688698 0 154 0.688698 1
gene 1 39 44 -0.59939 0 155 -0.59939 1
gene 1 39 45 -0.112754 0 156 -0.112754 1
gene 1 40 42 0.889599 0 157 0.889599 1
gene 1 40 43 1.03722 0 158 1.03722 1
gene 1 40 44 1.29109 0 159 1.29109 1
gene 1 40 45 0.448091 0 160 0.448091 1
gene 1 41 42 -0.988569 0 161 -0.988569 1
gene 1 41 43 0.836082 0 162 0.836082 1
gene 1 41 44 -0.838537 0 163 -0.838537 1
gene 1 41 45 0.298072 0 164 0.298072 1
genomeend 23


