/* Organism #78 Fitness: -115.820000 Time: 0 */
genomestart 78
trait 1 0.739344 0.550313 0.400914 0.000000 0.000000 0.000000 0.399635 0.231322 
node 1 1 1 1
node 2 1 1 1
node 3 1 1 1
node 4 1 1 1
node 5 1 1 1
node 6 1 1 1
node 7 1 1 1
node 8 1 1 1
node 9 1 1 1
node 10 1 1 1
node 11 1 1 1
node 12 1 1 1
node 13 1 1 1
node 14 1 1 1
node 15 1 1 1
node 16 1 1 1
node 17 1 1 1
node 18 1 1 1
node 19 1 1 1
node 20 1 1 1
node 21 1 1 1
node 22 1 1 1
node 23 1 1 1
node 24 1 1 1
node 25 1 1 1
node 26 1 1 1
node 27 1 1 1
node 28 1 1 1
node 29 1 1 1
node 30 1 1 1
node 31 1 1 1
node 32 1 1 1
node 33 1 1 1
node 34 1 1 1
node 35 1 1 1
node 36 1 1 1
node 37 1 1 1
node 38 1 1 1
node 39 1 1 1
node 40 1 1 1
node 41 1 1 3
node 42 1 0 2
node 43 1 0 2
node 44 1 0 2
node 45 1 0 2
gene 1 1 42 -0.0472556 0 1 -0.0472556 1
gene 1 1 43 -0.702222 0 2 -0.702222 1
gene 1 1 44 -0.676125 0 3 -0.676125 1
gene 1 1 45 -1.68745 0 4 -1.68745 1
gene 1 2 42 -0.527597 0 5 -0.527597 1
gene 1 2 43 -0.246287 0 6 -0.246287 1
gene 1 2 44 0.477633 0 7 0.477633 1
gene 1 2 45 -2.30488 0 8 -2.30488 1
gene 1 3 42 0.160987 0 9 0.160987 1
gene 1 3 43 -1.15021 0 10 -1.15021 1
gene 1 3 44 2.98317 0 11 2.98317 1
gene 1 3 45 0.704837 0 12 0.704837 1
gene 1 4 42 0.00950605 0 13 0.00950605 1
gene 1 4 43 0.141405 0 14 0.141405 1
gene 1 4 44 -0.450538 0 15 -0.450538 1
gene 1 4 45 0.0150898 0 16 0.0150898 1
gene 1 5 42 0.176514 0 17 0.176514 1
gene 1 5 43 0.953288 0 18 0.953288 1
gene 1 5 44 0.230094 0 19 0.230094 1
gene 1 5 45 -1.10538 0 20 -1.10538 1
gene 1 6 42 1.4436 0 21 1.4436 1
gene 1 6 43 -0.645124 0 22 -0.645124 1
gene 1 6 44 4.40551 0 23 4.40551 1
gene 1 6 45 0.039158 0 24 0.039158 1
gene 1 7 42 -0.530225 0 25 -0.530225 1
gene 1 7 43 3.75267 0 26 3.75267 1
gene 1 7 44 1.20075 0 27 1.20075 1
gene 1 7 45 -0.206702 0 28 -0.206702 1
gene 1 8 42 -5 0 29 -5 1
gene 1 8 43 -1.3668 0 30 -1.3668 1
gene 1 8 44 0.0844272 0 31 0.0844272 1
gene 1 8 45 -1.34975 0 32 -1.34975 1
gene 1 9 42 4.88261 0 33 4.88261 1
gene 1 9 43 1.25574 0 34 1.25574 1
gene 1 9 44 2.32143 0 35 2.32143 1
gene 1 9 45 1.46184 0 36 1.46184 1
gene 1 10 42 -0.506407 0 37 -0.506407 1
gene 1 10 43 -3.78847 0 38 -3.78847 1
gene 1 10 44 1.55753 0 39 1.55753 1
gene 1 10 45 -1.65422 0 40 -1.65422 1
gene 1 11 42 -0.78525 0 41 -0.78525 1
gene 1 11 43 -0.380915 0 42 -0.380915 1
gene 1 11 44 -0.695878 0 43 -0.695878 1
gene 1 11 45 -0.907107 0 44 -0.907107 1
gene 1 12 42 -0.355134 0 45 -0.355134 1
gene 1 12 43 -0.389512 0 46 -0.389512 1
gene 1 12 44 1.28842 0 47 1.28842 1
gene 1 12 45 -0.0831213 0 48 -0.0831213 1
gene 1 13 42 0.815848 0 49 0.815848 1
gene 1 13 43 0.203639 0 50 0.203639 1
gene 1 13 44 -0.646927 0 51 -0.646927 1
gene 1 13 45 0.0787853 0 52 0.0787853 1
gene 1 14 42 -0.835215 0 53 -0.835215 1
gene 1 14 43 -0.022776 0 54 -0.022776 1
gene 1 14 44 1.5567 0 55 1.5567 1
gene 1 14 45 0.342575 0 56 0.342575 1
gene 1 15 42 -0.188234 0 57 -0.188234 1
gene 1 15 43 -0.651936 0 58 -0.651936 1
gene 1 15 44 -0.704465 0 59 -0.704465 1
gene 1 15 45 4.41431 0 60 4.41431 1
gene 1 16 42 -0.753633 0 61 -0.753633 1
gene 1 16 43 -2.8578 0 62 -2.8578 1
gene 1 16 44 0.377263 0 63 0.377263 1
gene 1 16 45 -1.29453 0 64 -1.29453 1
gene 1 17 42 0.846018 0 65 0.846018 1
gene 1 17 43 1.10893 0 66 1.10893 1
gene 1 17 44 -0.49051 0 67 -0.49051 1
gene 1 17 45 0.276698 0 68 0.276698 1
gene 1 18 42 -0.0321298 0 69 -0.0321298 1
gene 1 18 43 4.12709 0 70 4.12709 1
gene 1 18 44 0.357982 0 71 0.357982 1
gene 1 18 45 -0.0193492 0 72 -0.0193492 1
gene 1 19 42 -3.42732 0 73 -3.42732 1
gene 1 19 43 -5 0 74 -5 1
gene 1 19 44 -0.575088 0 75 -0.575088 1
gene 1 19 45 -0.780402 0 76 -0.780402 1
gene 1 20 42 4.19728 0 77 4.19728 1
gene 1 20 43 -1.86888 0 78 -1.86888 1
gene 1 20 44 0.36746 0 79 0.36746 1
gene 1 20 45 -1.70757 0 80 -1.70757 1
gene 1 21 42 -1.50224 0 81 -1.50224 1
gene 1 21 43 -0.562314 0 82 -0.562314 1
gene 1 21 44 -0.990203 0 83 -0.990203 1
gene 1 21 45 1.86575 0 84 1.86575 1
gene 1 22 42 0.153628 0 85 0.153628 1
gene 1 22 43 -0.298616 0 86 -0.298616 1
gene 1 22 44 -0.565957 0 87 -0.565957 1
gene 1 22 45 2.85009 0 88 2.85009 1
gene 1 23 42 -0.211612 0 89 -0.211612 1
gene 1 23 43 -0.815841 0 90 -0.815841 1
gene 1 23 44 1.00541 0 91 1.00541 1
gene 1 23 45 -0.953356 0 92 -0.953356 1
gene 1 24 42 -0.975406 0 93 -0.975406 1
gene 1 24 43 0.594835 0 94 0.594835 1
gene 1 24 44 -0.436606 0 95 -0.436606 1
gene 1 24 45 0.0979846 0 96 0.0979846 1
gene 1 25 42 -1.26318 0 97 -1.26318 1
gene 1 25 43 -1.11942 0 98 -1.11942 1
gene 1 25 44 1.03948 0 99 1.03948 1
gene 1 25 45 -1.49384 0 100 -1.49384 1
gene 1 26 42 -0.814764 0 101 -0.814764 1
gene 1 26 43 0.0735791 0 102 0.0735791 1
gene 1 26 44 4.45611 0 103 4.45611 1
gene 1 26 45 -5 0 104 -5 1
gene 1 27 42 -5 0 105 -5 1
gene 1 27 43 -3.45084 0 106 -3.45084 1
gene 1 27 44 0.737492 0 107 0.737492 1
gene 1 27 45 -2.01833 0 108 -2.01833 1
gene 1 28 42 2.75144 0 109 2.75144 1
gene 1 28 43 0.35508 0 110 0.35508 1
gene 1 28 44 -2.05447 0 111 -2.05447 1
gene 1 28 45 4.68293 0 112 4.68293 1
gene 1 29 42 -0.466322 0 113 -0.466322 1
gene 1 29 43 4.28024 0 114 4.28024 1
gene 1 29 44 0.930179 0 115 0.930179 1
gene 1 29 45 3.58183 0 116 3.58183 1
gene 1 30 42 -4.17484 0 117 -4.17484 1
gene 1 30 43 -0.701596 0 118 -0.701596 1
gene 1 30 44 -0.843481 0 119 -0.843481 1
gene 1 30 45 1.12919 0 120 1.12919 1
gene 1 31 42 -2.48121 0 121 -2.48121 1
gene 1 31 43 -0.309169 0 122 -0.309169 1
gene 1 31 44 -1.8857 0 123 -1.8857 1
gene 1 31 45 1.03649 0 124 1.03649 1
gene 1 32 42 1.04643 0 125 1.04643 1
gene 1 32 43 -3.1492 0 126 -3.1492 1
gene 1 32 44 -0.767703 0 127 -0.767703 1
gene 1 32 45 1.90343 0 128 1.90343 1
gene 1 33 42 -3.34819 0 129 -3.34819 1
gene 1 33 43 -2.28048 0 130 -2.28048 1
gene 1 33 44 2.26232 0 131 2.26232 1
gene 1 33 45 0.326129 0 132 0.326129 1
gene 1 34 42 -2.15162 0 133 -2.15162 1
gene 1 34 43 -0.434317 0 134 -0.434317 1
gene 1 34 44 -1.51576 0 135 -1.51576 1
gene 1 34 45 1.54029 0 136 1.54029 1
gene 1 35 42 0.102255 0 137 0.102255 1
gene 1 35 43 -1.39474 0 138 -1.39474 1
gene 1 35 44 -0.214358 0 139 -0.214358 1
gene 1 35 45 -1.08071 0 140 -1.08071 1
gene 1 36 42 1.24679 0 141 1.24679 1
gene 1 36 43 0.523813 0 142 0.523813 1
gene 1 36 44 0.262523 0 143 0.262523 1
gene 1 36 45 -0.376174 0 144 -0.376174 1
gene 1 37 42 -0.513861 0 145 -0.513861 1
gene 1 37 43 -1.35529 0 146 -1.35529 1
gene 1 37 44 1.49568 0 147 1.49568 1
gene 1 37 45 0.323252 0 148 0.323252 1
gene 1 38 42 -0.431708 0 149 -0.431708 1
gene 1 38 43 -0.599854 0 150 -0.599854 1
gene 1 38 44 0.440867 0 151 0.440867 1
gene 1 38 45 0.0379884 0 152 0.0379884 1
gene 1 39 42 1.01585 0 153 1.01585 1
gene 1 39 43 -1.65876 0 154 -1.65876 1
gene 1 39 44 -0.0878498 0 155 -0.0878498 1
gene 1 39 45 -2.40949 0 156 -2.40949 1
gene 1 40 42 0.277189 0 157 0.277189 1
gene 1 40 43 1.32987 0 158 1.32987 1
gene 1 40 44 0.0284973 0 159 0.0284973 1
gene 1 40 45 0.893532 0 160 0.893532 1
gene 1 41 42 0.0525136 0 161 0.0525136 1
gene 1 41 43 0.128469 0 162 0.128469 1
gene 1 41 44 1.89161 0 163 1.89161 1
gene 1 41 45 -1.86059 0 164 -1.86059 1
genomeend 78


