/* Organism #46 Fitness: -9.000000 Time: 0 */
genomestart 46
trait 1 1.000000 0.527083 0.398921 0.000962 0.707689 0.000000 0.567325 0.375728 
node 1 1 1 1
node 2 1 1 1
node 3 1 1 1
node 4 1 1 1
node 5 1 1 1
node 6 1 1 1
node 7 1 1 1
node 8 1 1 1
node 9 1 1 1
node 10 1 1 1
node 11 1 1 1
node 12 1 1 1
node 13 1 1 1
node 14 1 1 1
node 15 1 1 1
node 16 1 1 1
node 17 1 1 1
node 18 1 1 1
node 19 1 1 1
node 20 1 1 1
node 21 1 1 1
node 22 1 1 1
node 23 1 1 1
node 24 1 1 1
node 25 1 1 1
node 26 1 1 1
node 27 1 1 1
node 28 1 1 1
node 29 1 1 1
node 30 1 1 1
node 31 1 1 1
node 32 1 1 1
node 33 1 1 1
node 34 1 1 1
node 35 1 1 1
node 36 1 1 1
node 37 1 1 1
node 38 1 1 1
node 39 1 1 1
node 40 1 1 1
node 41 1 1 3
node 42 1 0 2
node 43 1 0 2
node 44 1 0 2
node 45 1 0 2
gene 1 1 42 1.36054 0 1 1.36054 1
gene 1 1 43 0.456586 0 2 0.456586 1
gene 1 1 44 0.270281 0 3 0.270281 1
gene 1 1 45 1.22872 0 4 1.22872 1
gene 1 2 42 -0.472864 0 5 -0.472864 1
gene 1 2 43 2.06736 0 6 2.06736 1
gene 1 2 44 -3.42768 0 7 -3.42768 1
gene 1 2 45 -0.247877 0 8 -0.247877 1
gene 1 3 42 -0.344309 0 9 -0.344309 1
gene 1 3 43 -1.23314 0 10 -1.23314 1
gene 1 3 44 0.128547 0 11 0.128547 1
gene 1 3 45 -0.736368 0 12 -0.736368 1
gene 1 4 42 -0.120985 0 13 -0.120985 1
gene 1 4 43 -3.02293 0 14 -3.02293 1
gene 1 4 44 -3.76231 0 15 -3.76231 1
gene 1 4 45 -1.70237 0 16 -1.70237 1
gene 1 5 42 1.44328 0 17 1.44328 1
gene 1 5 43 2.6401 0 18 2.6401 1
gene 1 5 44 -0.725954 0 19 -0.725954 1
gene 1 5 45 2.08414 0 20 2.08414 1
gene 1 6 42 1.32281 0 21 1.32281 1
gene 1 6 43 0.807653 0 22 0.807653 1
gene 1 6 44 3.90298 0 23 3.90298 1
gene 1 6 45 -0.506964 0 24 -0.506964 1
gene 1 7 42 5 0 25 5 1
gene 1 7 43 -1.05261 0 26 -1.05261 1
gene 1 7 44 -2.25949 0 27 -2.25949 1
gene 1 7 45 5 0 28 5 1
gene 1 8 42 0.735606 0 29 0.735606 1
gene 1 8 43 -1.67963 0 30 -1.67963 1
gene 1 8 44 0.61502 0 31 0.61502 1
gene 1 8 45 3.31459 0 32 3.31459 1
gene 1 9 42 -0.227479 0 33 -0.227479 1
gene 1 9 43 0.857906 0 34 0.857906 1
gene 1 9 44 2.97938 0 35 2.97938 1
gene 1 9 45 -0.311928 0 36 -0.311928 1
gene 1 10 42 4.55528 0 37 4.55528 1
gene 1 10 43 -1.47455 0 38 -1.47455 1
gene 1 10 44 0.566991 0 39 0.566991 1
gene 1 10 45 -2.38862 0 40 -2.38862 1
gene 1 11 42 0.0364014 0 41 0.0364014 1
gene 1 11 43 0.446145 0 42 0.446145 1
gene 1 11 44 0.944349 0 43 0.944349 1
gene 1 11 45 1.72082 0 44 1.72082 1
gene 1 12 42 3.49156 0 45 3.49156 1
gene 1 12 43 -4.19502 0 46 -4.19502 1
gene 1 12 44 -4.26594 0 47 -4.26594 1
gene 1 12 45 -2.65381 0 48 -2.65381 1
gene 1 13 42 0.759935 0 49 0.759935 1
gene 1 13 43 -1.07104 0 50 -1.07104 1
gene 1 13 44 -3.66981 0 51 -3.66981 1
gene 1 13 45 0.834553 0 52 0.834553 1
gene 1 14 42 -1.38258 0 53 -1.38258 1
gene 1 14 43 -2.10548 0 54 -2.10548 1
gene 1 14 44 -0.437437 0 55 -0.437437 1
gene 1 14 45 4.83201 0 56 4.83201 1
gene 1 15 42 1.777 0 57 1.777 1
gene 1 15 43 1.42266 0 58 1.42266 1
gene 1 15 44 1.21867 0 59 1.21867 1
gene 1 15 45 -0.266912 0 60 -0.266912 1
gene 1 16 42 -2.32261 0 61 -2.32261 1
gene 1 16 43 2.9829 0 62 2.9829 1
gene 1 16 44 3.23224 0 63 3.23224 1
gene 1 16 45 -3.26246 0 64 -3.26246 1
gene 1 17 42 0.158217 0 65 0.158217 1
gene 1 17 43 -1.91779 0 66 -1.91779 1
gene 1 17 44 2.83992 0 67 2.83992 1
gene 1 17 45 1.46866 0 68 1.46866 1
gene 1 18 42 0.313451 0 69 0.313451 1
gene 1 18 43 0.151439 0 70 0.151439 1
gene 1 18 44 -4.33424 0 71 -4.33424 1
gene 1 18 45 -2.91488 0 72 -2.91488 1
gene 1 19 42 -0.558264 0 73 -0.558264 1
gene 1 19 43 -3.43378 0 74 -3.43378 1
gene 1 19 44 -5 0 75 -5 1
gene 1 19 45 4.01315 0 76 4.01315 1
gene 1 20 42 1.0346 0 77 1.0346 1
gene 1 20 43 -3.69984 0 78 -3.69984 1
gene 1 20 44 -0.37737 0 79 -0.37737 1
gene 1 20 45 0.662281 0 80 0.662281 1
gene 1 21 42 -3.07795 0 81 -3.07795 1
gene 1 21 43 -0.281153 0 82 -0.281153 1
gene 1 21 44 -0.80777 0 83 -0.80777 1
gene 1 21 45 4.45808 0 84 4.45808 1
gene 1 22 42 0.883593 0 85 0.883593 1
gene 1 22 43 -0.0638092 0 86 -0.0638092 1
gene 1 22 44 1.14814 0 87 1.14814 1
gene 1 22 45 -1.78871 0 88 -1.78871 1
gene 1 23 42 0.131504 0 89 0.131504 1
gene 1 23 43 3.01137 0 90 3.01137 1
gene 1 23 44 2.91653 0 91 2.91653 1
gene 1 23 45 0.267529 0 92 0.267529 1
gene 1 24 42 2.61892 0 93 2.61892 1
gene 1 24 43 -1.80243 0 94 -1.80243 1
gene 1 24 44 1.52134 0 95 1.52134 1
gene 1 24 45 0.578768 0 96 0.578768 1
gene 1 25 42 0.766319 0 97 0.766319 1
gene 1 25 43 2.24809 0 98 2.24809 1
gene 1 25 44 1.53565 0 99 1.53565 1
gene 1 25 45 -4.72426 0 100 -4.72426 1
gene 1 26 42 -0.790496 0 101 -0.790496 1
gene 1 26 43 -1.45917 0 102 -1.45917 1
gene 1 26 44 -2.05835 0 103 -2.05835 1
gene 1 26 45 4.33173 0 104 4.33173 1
gene 1 27 42 2.87424 0 105 2.87424 1
gene 1 27 43 -0.0545498 0 106 -0.0545498 1
gene 1 27 44 -1.08366 0 107 -1.08366 1
gene 1 27 45 0.202705 0 108 0.202705 1
gene 1 28 42 2.44162 0 109 2.44162 1
gene 1 28 43 -0.238883 0 110 -0.238883 1
gene 1 28 44 0.273849 0 111 0.273849 1
gene 1 28 45 1.107 0 112 1.107 1
gene 1 29 42 2.06567 0 113 2.06567 1
gene 1 29 43 -5 0 114 -5 1
gene 1 29 44 -0.0466498 0 115 -0.0466498 1
gene 1 29 45 4.52293 0 116 4.52293 1
gene 1 30 42 0.951083 0 117 0.951083 1
gene 1 30 43 -1.16167 0 118 -1.16167 1
gene 1 30 44 -1.57426 0 119 -1.57426 1
gene 1 30 45 -0.991057 0 120 -0.991057 1
gene 1 31 42 0.705291 0 121 0.705291 1
gene 1 31 43 -0.218097 0 122 -0.218097 1
gene 1 31 44 0.621261 0 123 0.621261 1
gene 1 31 45 -3.68322 0 124 -3.68322 1
gene 1 32 42 0.175699 0 125 0.175699 1
gene 1 32 43 3.6012 0 126 3.6012 1
gene 1 32 44 4.76066 0 127 4.76066 1
gene 1 32 45 -0.74179 0 128 -0.74179 1
gene 1 33 42 -0.935521 0 129 -0.935521 1
gene 1 33 43 -0.549425 0 130 -0.549425 1
gene 1 33 44 0.669372 0 131 0.669372 1
gene 1 33 45 0.166096 0 132 0.166096 1
gene 1 34 42 -0.89669 0 133 -0.89669 1
gene 1 34 43 0.576163 0 134 0.576163 1
gene 1 34 44 0.227474 0 135 0.227474 1
gene 1 34 45 0.542648 0 136 0.542648 1
gene 1 35 42 0.846449 0 137 0.846449 1
gene 1 35 43 0.391374 0 138 0.391374 1
gene 1 35 44 -4.26885 0 139 -4.26885 1
gene 1 35 45 0.990221 0 140 0.990221 1
gene 1 36 42 -0.831478 0 141 -0.831478 1
gene 1 36 43 0.263013 0 142 0.263013 1
gene 1 36 44 -0.581281 0 143 -0.581281 1
gene 1 36 45 -2.78955 0 144 -2.78955 1
gene 1 37 42 0.203034 0 145 0.203034 1
gene 1 37 43 1.01655 0 146 1.01655 1
gene 1 37 44 0.0889286 0 147 0.0889286 1
gene 1 37 45 -0.742584 0 148 -0.742584 1
gene 1 38 42 0.636821 0 149 0.636821 1
gene 1 38 43 0.542954 0 150 0.542954 1
gene 1 38 44 3.05045 0 151 3.05045 1
gene 1 38 45 -1.19753 0 152 -1.19753 1
gene 1 39 42 1.0997 0 153 1.0997 1
gene 1 39 43 1.98002 0 154 1.98002 1
gene 1 39 44 -0.72844 0 155 -0.72844 1
gene 1 39 45 1.76076 0 156 1.76076 1
gene 1 40 42 0.511847 0 157 0.511847 1
gene 1 40 43 1.73842 0 158 1.73842 1
gene 1 40 44 -0.865317 0 159 -0.865317 1
gene 1 40 45 0.569174 0 160 0.569174 1
gene 1 41 42 -2.42079 0 161 -2.42079 1
gene 1 41 43 -0.229774 0 162 -0.229774 1
gene 1 41 44 -0.373312 0 163 -0.373312 1
gene 1 41 45 0.355475 0 164 0.355475 1
genomeend 46


