/* Organism #64 Fitness: -19.550000 Time: 0 */
genomestart 64
trait 1 0.593987 1.000000 0.452028 0.000000 0.000000 1.000000 0.564152 0.640252 
node 1 1 1 1
node 2 1 1 1
node 3 1 1 1
node 4 1 1 1
node 5 1 1 1
node 6 1 1 1
node 7 1 1 1
node 8 1 1 1
node 9 1 1 1
node 10 1 1 1
node 11 1 1 1
node 12 1 1 1
node 13 1 1 1
node 14 1 1 1
node 15 1 1 1
node 16 1 1 1
node 17 1 1 1
node 18 1 1 1
node 19 1 1 1
node 20 1 1 1
node 21 1 1 1
node 22 1 1 1
node 23 1 1 1
node 24 1 1 1
node 25 1 1 1
node 26 1 1 1
node 27 1 1 1
node 28 1 1 1
node 29 1 1 1
node 30 1 1 1
node 31 1 1 1
node 32 1 1 1
node 33 1 1 1
node 34 1 1 1
node 35 1 1 1
node 36 1 1 1
node 37 1 1 1
node 38 1 1 1
node 39 1 1 1
node 40 1 1 1
node 41 1 1 3
node 42 1 0 2
node 43 1 0 2
node 44 1 0 2
node 45 1 0 2
gene 1 1 42 -2.86877 0 1 -2.86877 1
gene 1 1 43 2.4816 0 2 2.4816 1
gene 1 1 44 -1.49148 0 3 -1.49148 1
gene 1 1 45 -0.889067 0 4 -0.889067 1
gene 1 2 42 -2.28275 0 5 -2.28275 1
gene 1 2 43 2.23389 0 6 2.23389 1
gene 1 2 44 5 0 7 5 1
gene 1 2 45 0.173826 0 8 0.173826 1
gene 1 3 42 -0.973815 0 9 -0.973815 1
gene 1 3 43 -2.23964 0 10 -2.23964 1
gene 1 3 44 -3.1682 0 11 -3.1682 1
gene 1 3 45 -1.49822 0 12 -1.49822 1
gene 1 4 42 -1.09522 0 13 -1.09522 1
gene 1 4 43 -2.84503 0 14 -2.84503 1
gene 1 4 44 0.534225 0 15 0.534225 1
gene 1 4 45 -2.10526 0 16 -2.10526 1
gene 1 5 42 3.05682 0 17 3.05682 1
gene 1 5 43 1.25228 0 18 1.25228 1
gene 1 5 44 -0.81129 0 19 -0.81129 1
gene 1 5 45 0.0718009 0 20 0.0718009 1
gene 1 6 42 -2.36733 0 21 -2.36733 1
gene 1 6 43 -4.10668 0 22 -4.10668 1
gene 1 6 44 0.922862 0 23 0.922862 1
gene 1 6 45 -2.09181 0 24 -2.09181 1
gene 1 7 42 -0.891944 0 25 -0.891944 1
gene 1 7 43 0.354528 0 26 0.354528 1
gene 1 7 44 -5 0 27 -5 1
gene 1 7 45 0.740097 0 28 0.740097 1
gene 1 8 42 0.663525 0 29 0.663525 1
gene 1 8 43 2.46877 0 30 2.46877 1
gene 1 8 44 1.5663 0 31 1.5663 1
gene 1 8 45 2.46115 0 32 2.46115 1
gene 1 9 42 -2.23623 0 33 -2.23623 1
gene 1 9 43 2.4541 0 34 2.4541 1
gene 1 9 44 3.63427 0 35 3.63427 1
gene 1 9 45 0.834083 0 36 0.834083 1
gene 1 10 42 -1.99533 0 37 -1.99533 1
gene 1 10 43 2.62858 0 38 2.62858 1
gene 1 10 44 -3.05155 0 39 -3.05155 1
gene 1 10 45 3.55412 0 40 3.55412 1
gene 1 11 42 0.879889 0 41 0.879889 1
gene 1 11 43 -2.47882 0 42 -2.47882 1
gene 1 11 44 -4.69309 0 43 -4.69309 1
gene 1 11 45 4.5322 0 44 4.5322 1
gene 1 12 42 2.46635 0 45 2.46635 1
gene 1 12 43 -1.42533 0 46 -1.42533 1
gene 1 12 44 -0.334539 0 47 -0.334539 1
gene 1 12 45 0.49285 0 48 0.49285 1
gene 1 13 42 2.15307 0 49 2.15307 1
gene 1 13 43 1.49625 0 50 1.49625 1
gene 1 13 44 3.79597 0 51 3.79597 1
gene 1 13 45 -0.133814 0 52 -0.133814 1
gene 1 14 42 1.15861 0 53 1.15861 1
gene 1 14 43 1.40315 0 54 1.40315 1
gene 1 14 44 -4.89319 0 55 -4.89319 1
gene 1 14 45 -3.6615 0 56 -3.6615 1
gene 1 15 42 0.671119 0 57 0.671119 1
gene 1 15 43 -3.15323 0 58 -3.15323 1
gene 1 15 44 2.75271 0 59 2.75271 1
gene 1 15 45 -0.208703 0 60 -0.208703 1
gene 1 16 42 -0.12314 0 61 -0.12314 1
gene 1 16 43 5 0 62 5 1
gene 1 16 44 0.0749235 0 63 0.0749235 1
gene 1 16 45 2.54286 0 64 2.54286 1
gene 1 17 42 3.42562 0 65 3.42562 1
gene 1 17 43 3.52112 0 66 3.52112 1
gene 1 17 44 3.2444 0 67 3.2444 1
gene 1 17 45 0.617487 0 68 0.617487 1
gene 1 18 42 2.45646 0 69 2.45646 1
gene 1 18 43 -2.78792 0 70 -2.78792 1
gene 1 18 44 2.76682 0 71 2.76682 1
gene 1 18 45 5 0 72 5 1
gene 1 19 42 -4.65956 0 73 -4.65956 1
gene 1 19 43 1.69755 0 74 1.69755 1
gene 1 19 44 0.369889 0 75 0.369889 1
gene 1 19 45 -2.00542 0 76 -2.00542 1
gene 1 20 42 -2.33593 0 77 -2.33593 1
gene 1 20 43 2.91163 0 78 2.91163 1
gene 1 20 44 5 0 79 5 1
gene 1 20 45 -0.856459 0 80 -0.856459 1
gene 1 21 42 -0.702345 0 81 -0.702345 1
gene 1 21 43 0.347819 0 82 0.347819 1
gene 1 21 44 -4.04472 0 83 -4.04472 1
gene 1 21 45 -0.0167666 0 84 -0.0167666 1
gene 1 22 42 0.517219 0 85 0.517219 1
gene 1 22 43 -1.39379 0 86 -1.39379 1
gene 1 22 44 -0.434091 0 87 -0.434091 1
gene 1 22 45 -3.84698 0 88 -3.84698 1
gene 1 23 42 -3.73371 0 89 -3.73371 1
gene 1 23 43 -1.76011 0 90 -1.76011 1
gene 1 23 44 -0.315129 0 91 -0.315129 1
gene 1 23 45 0.799256 0 92 0.799256 1
gene 1 24 42 -0.586795 0 93 -0.586795 1
gene 1 24 43 -0.222258 0 94 -0.222258 1
gene 1 24 44 -0.329679 0 95 -0.329679 1
gene 1 24 45 4.49377 0 96 4.49377 1
gene 1 25 42 -0.0270469 0 97 -0.0270469 1
gene 1 25 43 -4.26087 0 98 -4.26087 1
gene 1 25 44 3.36035 0 99 3.36035 1
gene 1 25 45 1.5292 0 100 1.5292 1
gene 1 26 42 -2.69833 0 101 -2.69833 1
gene 1 26 43 -0.944796 0 102 -0.944796 1
gene 1 26 44 1.1041 0 103 1.1041 1
gene 1 26 45 0.483902 0 104 0.483902 1
gene 1 27 42 -5 0 105 -5 1
gene 1 27 43 5 0 106 5 1
gene 1 27 44 -5 0 107 -5 1
gene 1 27 45 -1.2388 0 108 -1.2388 1
gene 1 28 42 4.90058 0 109 4.90058 1
gene 1 28 43 3.67164 0 110 3.67164 1
gene 1 28 44 -0.574538 0 111 -0.574538 1
gene 1 28 45 -5 0 112 -5 1
gene 1 29 42 0.756284 0 113 0.756284 1
gene 1 29 43 -0.838412 0 114 -0.838412 1
gene 1 29 44 2.08851 0 115 2.08851 1
gene 1 29 45 0.241582 0 116 0.241582 1
gene 1 30 42 2.78864 0 117 2.78864 1
gene 1 30 43 2.76986 0 118 2.76986 1
gene 1 30 44 -0.508822 0 119 -0.508822 1
gene 1 30 45 3.95887 0 120 3.95887 1
gene 1 31 42 0.958612 0 121 0.958612 1
gene 1 31 43 0.898076 0 122 0.898076 1
gene 1 31 44 -1.27789 0 123 -1.27789 1
gene 1 31 45 -1.01721 0 124 -1.01721 1
gene 1 32 42 0.614826 0 125 0.614826 1
gene 1 32 43 -0.478083 0 126 -0.478083 1
gene 1 32 44 -2.00954 0 127 -2.00954 1
gene 1 32 45 2.42018 0 128 2.42018 1
gene 1 33 42 2.104 0 129 2.104 1
gene 1 33 43 0.544428 0 130 0.544428 1
gene 1 33 44 1.12117 0 131 1.12117 1
gene 1 33 45 -0.453937 0 132 -0.453937 1
gene 1 34 42 0.222622 0 133 0.222622 1
gene 1 34 43 0.170593 0 134 0.170593 1
gene 1 34 44 -0.901651 0 135 -0.901651 1
gene 1 34 45 1.71101 0 136 1.71101 1
gene 1 35 42 0.267826 0 137 0.267826 1
gene 1 35 43 -0.293073 0 138 -0.293073 1
gene 1 35 44 -1.24392 0 139 -1.24392 1
gene 1 35 45 1.13394 0 140 1.13394 1
gene 1 36 42 0.877615 0 141 0.877615 1
gene 1 36 43 -1.69967 0 142 -1.69967 1
gene 1 36 44 1.04646 0 143 1.04646 1
gene 1 36 45 -0.859149 0 144 -0.859149 1
gene 1 37 42 1.37269 0 145 1.37269 1
gene 1 37 43 -0.266002 0 146 -0.266002 1
gene 1 37 44 0.985756 0 147 0.985756 1
gene 1 37 45 0.230904 0 148 0.230904 1
gene 1 38 42 -0.736891 0 149 -0.736891 1
gene 1 38 43 -1.35833 0 150 -1.35833 1
gene 1 38 44 -1.69677 0 151 -1.69677 1
gene 1 38 45 -0.439213 0 152 -0.439213 1
gene 1 39 42 -0.070862 0 153 -0.070862 1
gene 1 39 43 -0.310148 0 154 -0.310148 1
gene 1 39 44 -0.615437 0 155 -0.615437 1
gene 1 39 45 0.373051 0 156 0.373051 1
gene 1 40 42 -0.932481 0 157 -0.932481 1
gene 1 40 43 -0.552897 0 158 -0.552897 1
gene 1 40 44 2.26306 0 159 2.26306 1
gene 1 40 45 -0.625659 0 160 -0.625659 1
gene 1 41 42 -0.223506 0 161 -0.223506 1
gene 1 41 43 1.23642 0 162 1.23642 1
gene 1 41 44 0.251494 0 163 0.251494 1
gene 1 41 45 -0.770717 0 164 -0.770717 1
genomeend 64


