/* Organism #74 Fitness: -129.330000 Time: 0 */
genomestart 74
trait 1 0.730696 0.000000 0.000000 0.000000 0.634524 1.000000 1.000000 0.000000 
node 1 1 1 1
node 2 1 1 1
node 3 1 1 1
node 4 1 1 1
node 5 1 1 1
node 6 1 1 1
node 7 1 1 1
node 8 1 1 1
node 9 1 1 1
node 10 1 1 1
node 11 1 1 1
node 12 1 1 1
node 13 1 1 1
node 14 1 1 1
node 15 1 1 1
node 16 1 1 1
node 17 1 1 1
node 18 1 1 1
node 19 1 1 1
node 20 1 1 1
node 21 1 1 1
node 22 1 1 1
node 23 1 1 1
node 24 1 1 1
node 25 1 1 1
node 26 1 1 1
node 27 1 1 1
node 28 1 1 1
node 29 1 1 1
node 30 1 1 1
node 31 1 1 1
node 32 1 1 1
node 33 1 1 1
node 34 1 1 1
node 35 1 1 1
node 36 1 1 1
node 37 1 1 1
node 38 1 1 1
node 39 1 1 1
node 40 1 1 1
node 41 1 1 3
node 42 1 0 2
node 43 1 0 2
node 44 1 0 2
node 45 1 0 2
gene 1 1 42 4.03885 0 1 4.03885 1
gene 1 1 43 -2.34322 0 2 -2.34322 1
gene 1 1 44 0.385388 0 3 0.385388 1
gene 1 1 45 -1.4691 0 4 -1.4691 1
gene 1 2 42 -2.68979 0 5 -2.68979 1
gene 1 2 43 -1.40472 0 6 -1.40472 1
gene 1 2 44 0.839604 0 7 0.839604 1
gene 1 2 45 4.73116 0 8 4.73116 1
gene 1 3 42 -0.307003 0 9 -0.307003 1
gene 1 3 43 -1.63039 0 10 -1.63039 1
gene 1 3 44 -0.292393 0 11 -0.292393 1
gene 1 3 45 4.13106 0 12 4.13106 1
gene 1 4 42 2.08335 0 13 2.08335 1
gene 1 4 43 -0.889861 0 14 -0.889861 1
gene 1 4 44 0.61768 0 15 0.61768 1
gene 1 4 45 3.18153 0 16 3.18153 1
gene 1 5 42 1.16313 0 17 1.16313 1
gene 1 5 43 2.31459 0 18 2.31459 1
gene 1 5 44 -4.25429 0 19 -4.25429 1
gene 1 5 45 1.94955 0 20 1.94955 1
gene 1 6 42 4.05491 0 21 4.05491 1
gene 1 6 43 1.04808 0 22 1.04808 1
gene 1 6 44 -0.632413 0 23 -0.632413 1
gene 1 6 45 -0.84764 0 24 -0.84764 1
gene 1 7 42 -2.19735 0 25 -2.19735 1
gene 1 7 43 -1.22898 0 26 -1.22898 1
gene 1 7 44 2.60699 0 27 2.60699 1
gene 1 7 45 4.43738 0 28 4.43738 1
gene 1 8 42 -0.18097 0 29 -0.18097 1
gene 1 8 43 0.726329 0 30 0.726329 1
gene 1 8 44 3.7736 0 31 3.7736 1
gene 1 8 45 5 0 32 5 1
gene 1 9 42 2.30004 0 33 2.30004 1
gene 1 9 43 1.23512 0 34 1.23512 1
gene 1 9 44 -1.03495 0 35 -1.03495 1
gene 1 9 45 4.48437 0 36 4.48437 1
gene 1 10 42 -1.28768 0 37 -1.28768 1
gene 1 10 43 0.290748 0 38 0.290748 1
gene 1 10 44 -1.19399 0 39 -1.19399 1
gene 1 10 45 3.32355 0 40 3.32355 1
gene 1 11 42 -2.10162 0 41 -2.10162 1
gene 1 11 43 -0.0195767 0 42 -0.0195767 1
gene 1 11 44 -1.52309 0 43 -1.52309 1
gene 1 11 45 2.57552 0 44 2.57552 1
gene 1 12 42 -0.340731 0 45 -0.340731 1
gene 1 12 43 -2.02955 0 46 -2.02955 1
gene 1 12 44 -0.000817725 0 47 -0.000817725 1
gene 1 12 45 1.79063 0 48 1.79063 1
gene 1 13 42 1.68746 0 49 1.68746 1
gene 1 13 43 1.84091 0 50 1.84091 1
gene 1 13 44 -1.57831 0 51 -1.57831 1
gene 1 13 45 1.89586 0 52 1.89586 1
gene 1 14 42 0.901632 0 53 0.901632 1
gene 1 14 43 1.02953 0 54 1.02953 1
gene 1 14 44 -0.859622 0 55 -0.859622 1
gene 1 14 45 1.13809 0 56 1.13809 1
gene 1 15 42 1.60986 0 57 1.60986 1
gene 1 15 43 -0.0657153 0 58 -0.0657153 1
gene 1 15 44 -1.96429 0 59 -1.96429 1
gene 1 15 45 -3.00443 0 60 -3.00443 1
gene 1 16 42 3.79849 0 61 3.79849 1
gene 1 16 43 -1.46552 0 62 -1.46552 1
gene 1 16 44 0.105329 0 63 0.105329 1
gene 1 16 45 0.558183 0 64 0.558183 1
gene 1 17 42 1.51922 0 65 1.51922 1
gene 1 17 43 -3.38524 0 66 -3.38524 1
gene 1 17 44 4.03374 0 67 4.03374 1
gene 1 17 45 -3.31723 0 68 -3.31723 1
gene 1 18 42 -0.763869 0 69 -0.763869 1
gene 1 18 43 0.250015 0 70 0.250015 1
gene 1 18 44 -0.430384 0 71 -0.430384 1
gene 1 18 45 4.75715 0 72 4.75715 1
gene 1 19 42 -0.863557 0 73 -0.863557 1
gene 1 19 43 4.6355 0 74 4.6355 1
gene 1 19 44 -2.98947 0 75 -2.98947 1
gene 1 19 45 -1.8883 0 76 -1.8883 1
gene 1 20 42 2.80182 0 77 2.80182 1
gene 1 20 43 -1.63404 0 78 -1.63404 1
gene 1 20 44 -1.57506 0 79 -1.57506 1
gene 1 20 45 5 0 80 5 1
gene 1 21 42 1.02321 0 81 1.02321 1
gene 1 21 43 2.4224 0 82 2.4224 1
gene 1 21 44 0.264774 0 83 0.264774 1
gene 1 21 45 -3.32672 0 84 -3.32672 1
gene 1 22 42 -1.83574 0 85 -1.83574 1
gene 1 22 43 -3.66588 0 86 -3.66588 1
gene 1 22 44 2.81288 0 87 2.81288 1
gene 1 22 45 0.402247 0 88 0.402247 1
gene 1 23 42 5 0 89 5 1
gene 1 23 43 0.557903 0 90 0.557903 1
gene 1 23 44 -4.9206 0 91 -4.9206 1
gene 1 23 45 3.98966 0 92 3.98966 1
gene 1 24 42 1.16633 0 93 1.16633 1
gene 1 24 43 0.00584851 0 94 0.00584851 1
gene 1 24 44 -1.51164 0 95 -1.51164 1
gene 1 24 45 2.12115 0 96 2.12115 1
gene 1 25 42 5 0 97 5 1
gene 1 25 43 0.701249 0 98 0.701249 1
gene 1 25 44 -4.39344 0 99 -4.39344 1
gene 1 25 45 0.180083 0 100 0.180083 1
gene 1 26 42 0.467296 0 101 0.467296 1
gene 1 26 43 -3.84404 0 102 -3.84404 1
gene 1 26 44 -0.514516 0 103 -0.514516 1
gene 1 26 45 -0.315697 0 104 -0.315697 1
gene 1 27 42 -2.35079 0 105 -2.35079 1
gene 1 27 43 5 0 106 5 1
gene 1 27 44 1.34463 0 107 1.34463 1
gene 1 27 45 -0.769346 0 108 -0.769346 1
gene 1 28 42 4.66123 0 109 4.66123 1
gene 1 28 43 -0.780056 0 110 -0.780056 1
gene 1 28 44 -0.793599 0 111 -0.793599 1
gene 1 28 45 2.81704 0 112 2.81704 1
gene 1 29 42 0.710759 0 113 0.710759 1
gene 1 29 43 3.25272 0 114 3.25272 1
gene 1 29 44 -5 0 115 -5 1
gene 1 29 45 -3.04649 0 116 -3.04649 1
gene 1 30 42 -2.06993 0 117 -2.06993 1
gene 1 30 43 -0.591324 0 118 -0.591324 1
gene 1 30 44 -4.38958 0 119 -4.38958 1
gene 1 30 45 1.03484 0 120 1.03484 1
gene 1 31 42 3.25416 0 121 3.25416 1
gene 1 31 43 -0.167334 0 122 -0.167334 1
gene 1 31 44 0.648684 0 123 0.648684 1
gene 1 31 45 1.45055 0 124 1.45055 1
gene 1 32 42 -5 0 125 -5 1
gene 1 32 43 -0.627975 0 126 -0.627975 1
gene 1 32 44 -0.71377 0 127 -0.71377 1
gene 1 32 45 3.33209 0 128 3.33209 1
gene 1 33 42 1.90435 0 129 1.90435 1
gene 1 33 43 -1.61226 0 130 -1.61226 1
gene 1 33 44 1.68366 0 131 1.68366 1
gene 1 33 45 1.97172 0 132 1.97172 1
gene 1 34 42 -1.96154 0 133 -1.96154 1
gene 1 34 43 1.04414 0 134 1.04414 1
gene 1 34 44 0.972667 0 135 0.972667 1
gene 1 34 45 1.15745 0 136 1.15745 1
gene 1 35 42 0.577754 0 137 0.577754 1
gene 1 35 43 1.48282 0 138 1.48282 1
gene 1 35 44 -0.44589 0 139 -0.44589 1
gene 1 35 45 -0.0871218 0 140 -0.0871218 1
gene 1 36 42 -0.467034 0 141 -0.467034 1
gene 1 36 43 -0.568409 0 142 -0.568409 1
gene 1 36 44 0.881932 0 143 0.881932 1
gene 1 36 45 -0.357338 0 144 -0.357338 1
gene 1 37 42 -0.574516 0 145 -0.574516 1
gene 1 37 43 -0.782782 0 146 -0.782782 1
gene 1 37 44 -0.4972 0 147 -0.4972 1
gene 1 37 45 0.437138 0 148 0.437138 1
gene 1 38 42 0.445392 0 149 0.445392 1
gene 1 38 43 -0.661113 0 150 -0.661113 1
gene 1 38 44 0.823685 0 151 0.823685 1
gene 1 38 45 -4.00779 0 152 -4.00779 1
gene 1 39 42 0.8516 0 153 0.8516 1
gene 1 39 43 1.15541 0 154 1.15541 1
gene 1 39 44 0.902062 0 155 0.902062 1
gene 1 39 45 1.27161 0 156 1.27161 1
gene 1 40 42 1.7331 0 157 1.7331 1
gene 1 40 43 3.08229 0 158 3.08229 1
gene 1 40 44 0.424291 0 159 0.424291 1
gene 1 40 45 -1.51543 0 160 -1.51543 1
gene 1 41 42 -1.60836 0 161 -1.60836 1
gene 1 41 43 0.0985758 0 162 0.0985758 1
gene 1 41 44 -2.44594 0 163 -2.44594 1
gene 1 41 45 -0.940617 0 164 -0.940617 1
genomeend 74


