/* Organism #33 Fitness: -9.000000 Time: 0 */
genomestart 33
trait 1 0.136136 0.413432 0.000000 0.000000 0.644669 0.000000 1.000000 1.000000 
node 1 1 1 1
node 2 1 1 1
node 3 1 1 1
node 4 1 1 1
node 5 1 1 1
node 6 1 1 1
node 7 1 1 1
node 8 1 1 1
node 9 1 1 1
node 10 1 1 1
node 11 1 1 1
node 12 1 1 1
node 13 1 1 1
node 14 1 1 1
node 15 1 1 1
node 16 1 1 1
node 17 1 1 1
node 18 1 1 1
node 19 1 1 1
node 20 1 1 1
node 21 1 1 1
node 22 1 1 1
node 23 1 1 1
node 24 1 1 1
node 25 1 1 1
node 26 1 1 1
node 27 1 1 1
node 28 1 1 1
node 29 1 1 1
node 30 1 1 1
node 31 1 1 1
node 32 1 1 1
node 33 1 1 1
node 34 1 1 1
node 35 1 1 1
node 36 1 1 1
node 37 1 1 1
node 38 1 1 1
node 39 1 1 1
node 40 1 1 1
node 41 1 1 3
node 42 1 0 2
node 43 1 0 2
node 44 1 0 2
node 45 1 0 2
gene 1 1 42 0.381203 0 1 0.381203 1
gene 1 1 43 1.14188 0 2 1.14188 1
gene 1 1 44 -2.48749 0 3 -2.48749 1
gene 1 1 45 -0.588155 0 4 -0.588155 1
gene 1 2 42 -3.23083 0 5 -3.23083 1
gene 1 2 43 -5 0 6 -5 1
gene 1 2 44 -1.70761 0 7 -1.70761 1
gene 1 2 45 0.835853 0 8 0.835853 1
gene 1 3 42 2.84536 0 9 2.84536 1
gene 1 3 43 -0.0474324 0 10 -0.0474324 1
gene 1 3 44 3.29813 0 11 3.29813 1
gene 1 3 45 -0.651355 0 12 -0.651355 1
gene 1 4 42 -0.619334 0 13 -0.619334 1
gene 1 4 43 -1.28571 0 14 -1.28571 1
gene 1 4 44 2.75819 0 15 2.75819 1
gene 1 4 45 0.230435 0 16 0.230435 1
gene 1 5 42 0.815383 0 17 0.815383 1
gene 1 5 43 -2.28488 0 18 -2.28488 1
gene 1 5 44 -0.579272 0 19 -0.579272 1
gene 1 5 45 -0.775319 0 20 -0.775319 1
gene 1 6 42 1.12268 0 21 1.12268 1
gene 1 6 43 0.60244 0 22 0.60244 1
gene 1 6 44 0.451186 0 23 0.451186 1
gene 1 6 45 -1.27598 0 24 -1.27598 1
gene 1 7 42 -3.22275 0 25 -3.22275 1
gene 1 7 43 -4.71354 0 26 -4.71354 1
gene 1 7 44 -0.992954 0 27 -0.992954 1
gene 1 7 45 -5 0 28 -5 1
gene 1 8 42 0.0115693 0 29 0.0115693 1
gene 1 8 43 1.25172 0 30 1.25172 1
gene 1 8 44 1.98706 0 31 1.98706 1
gene 1 8 45 -1.18762 0 32 -1.18762 1
gene 1 9 42 0.611482 0 33 0.611482 1
gene 1 9 43 -1.00658 0 34 -1.00658 1
gene 1 9 44 0.624522 0 35 0.624522 1
gene 1 9 45 0.399556 0 36 0.399556 1
gene 1 10 42 0.172165 0 37 0.172165 1
gene 1 10 43 -0.960387 0 38 -0.960387 1
gene 1 10 44 -0.445099 0 39 -0.445099 1
gene 1 10 45 2.34607 0 40 2.34607 1
gene 1 11 42 -3.00981 0 41 -3.00981 1
gene 1 11 43 2.15191 0 42 2.15191 1
gene 1 11 44 2.03924 0 43 2.03924 1
gene 1 11 45 -3.74189 0 44 -3.74189 1
gene 1 12 42 1.77929 0 45 1.77929 1
gene 1 12 43 0.257377 0 46 0.257377 1
gene 1 12 44 -4.71007 0 47 -4.71007 1
gene 1 12 45 -4.70847 0 48 -4.70847 1
gene 1 13 42 -0.601 0 49 -0.601 1
gene 1 13 43 0.378914 0 50 0.378914 1
gene 1 13 44 3.79615 0 51 3.79615 1
gene 1 13 45 -4.03045 0 52 -4.03045 1
gene 1 14 42 -0.187516 0 53 -0.187516 1
gene 1 14 43 -2.27549 0 54 -2.27549 1
gene 1 14 44 0.278607 0 55 0.278607 1
gene 1 14 45 -4.49307 0 56 -4.49307 1
gene 1 15 42 2.89819 0 57 2.89819 1
gene 1 15 43 0.638746 0 58 0.638746 1
gene 1 15 44 0.955134 0 59 0.955134 1
gene 1 15 45 -0.0874247 0 60 -0.0874247 1
gene 1 16 42 -0.0361457 0 61 -0.0361457 1
gene 1 16 43 2.93198 0 62 2.93198 1
gene 1 16 44 -0.818999 0 63 -0.818999 1
gene 1 16 45 -3.74511 0 64 -3.74511 1
gene 1 17 42 -4.5674 0 65 -4.5674 1
gene 1 17 43 4.38927 0 66 4.38927 1
gene 1 17 44 1.71526 0 67 1.71526 1
gene 1 17 45 -0.937593 0 68 -0.937593 1
gene 1 18 42 -3.16244 0 69 -3.16244 1
gene 1 18 43 0.809948 0 70 0.809948 1
gene 1 18 44 0.875866 0 71 0.875866 1
gene 1 18 45 1.99639 0 72 1.99639 1
gene 1 19 42 -0.791301 0 73 -0.791301 1
gene 1 19 43 -1.03476 0 74 -1.03476 1
gene 1 19 44 -3.37717 0 75 -3.37717 1
gene 1 19 45 -0.239059 0 76 -0.239059 1
gene 1 20 42 3.29407 0 77 3.29407 1
gene 1 20 43 -5 0 78 -5 1
gene 1 20 44 -1.45009 0 79 -1.45009 1
gene 1 20 45 -4.46592 0 80 -4.46592 1
gene 1 21 42 -3.42204 0 81 -3.42204 1
gene 1 21 43 -0.893401 0 82 -0.893401 1
gene 1 21 44 0.88648 0 83 0.88648 1
gene 1 21 45 0.231247 0 84 0.231247 1
gene 1 22 42 -0.060927 0 85 -0.060927 1
gene 1 22 43 0.900152 0 86 0.900152 1
gene 1 22 44 0.643211 0 87 0.643211 1
gene 1 22 45 4.14913 0 88 4.14913 1
gene 1 23 42 4.06096 0 89 4.06096 1
gene 1 23 43 3.54156 0 90 3.54156 1
gene 1 23 44 -1.34815 0 91 -1.34815 1
gene 1 23 45 1.86924 0 92 1.86924 1
gene 1 24 42 -1.4152 0 93 -1.4152 1
gene 1 24 43 5 0 94 5 1
gene 1 24 44 -4.37012 0 95 -4.37012 1
gene 1 24 45 -0.149538 0 96 -0.149538 1
gene 1 25 42 0.127278 0 97 0.127278 1
gene 1 25 43 0.546667 0 98 0.546667 1
gene 1 25 44 0.345301 0 99 0.345301 1
gene 1 25 45 -1.57869 0 100 -1.57869 1
gene 1 26 42 -5 0 101 -5 1
gene 1 26 43 1.8455 0 102 1.8455 1
gene 1 26 44 0.453608 0 103 0.453608 1
gene 1 26 45 -3.12069 0 104 -3.12069 1
gene 1 27 42 -0.259082 0 105 -0.259082 1
gene 1 27 43 1.84804 0 106 1.84804 1
gene 1 27 44 -3.29493 0 107 -3.29493 1
gene 1 27 45 -1.67705 0 108 -1.67705 1
gene 1 28 42 -0.714059 0 109 -0.714059 1
gene 1 28 43 0.372914 0 110 0.372914 1
gene 1 28 44 0.539628 0 111 0.539628 1
gene 1 28 45 -2.08458 0 112 -2.08458 1
gene 1 29 42 0.0273714 0 113 0.0273714 1
gene 1 29 43 0.154314 0 114 0.154314 1
gene 1 29 44 -0.831842 0 115 -0.831842 1
gene 1 29 45 3.85375 0 116 3.85375 1
gene 1 30 42 0.304817 0 117 0.304817 1
gene 1 30 43 -0.599085 0 118 -0.599085 1
gene 1 30 44 1.94122 0 119 1.94122 1
gene 1 30 45 0.121781 0 120 0.121781 1
gene 1 31 42 4.06576 0 121 4.06576 1
gene 1 31 43 1.15378 0 122 1.15378 1
gene 1 31 44 -2.71872 0 123 -2.71872 1
gene 1 31 45 -0.27105 0 124 -0.27105 1
gene 1 32 42 0.668625 0 125 0.668625 1
gene 1 32 43 0.725975 0 126 0.725975 1
gene 1 32 44 2.00421 0 127 2.00421 1
gene 1 32 45 -0.893798 0 128 -0.893798 1
gene 1 33 42 -1.65267 0 129 -1.65267 1
gene 1 33 43 4.65233 0 130 4.65233 1
gene 1 33 44 -4.38386 0 131 -4.38386 1
gene 1 33 45 2.39476 0 132 2.39476 1
gene 1 34 42 -0.432443 0 133 -0.432443 1
gene 1 34 43 0.71602 0 134 0.71602 1
gene 1 34 44 0.734289 0 135 0.734289 1
gene 1 34 45 -0.545309 0 136 -0.545309 1
gene 1 35 42 1.21068 0 137 1.21068 1
gene 1 35 43 -1.20694 0 138 -1.20694 1
gene 1 35 44 -3.06305 0 139 -3.06305 1
gene 1 35 45 0.0648877 0 140 0.0648877 1
gene 1 36 42 -1.45117 0 141 -1.45117 1
gene 1 36 43 -0.511183 0 142 -0.511183 1
gene 1 36 44 -1.54155 0 143 -1.54155 1
gene 1 36 45 1.05199 0 144 1.05199 1
gene 1 37 42 0.0188556 0 145 0.0188556 1
gene 1 37 43 -1.28767 0 146 -1.28767 1
gene 1 37 44 0.59887 0 147 0.59887 1
gene 1 37 45 -0.459792 0 148 -0.459792 1
gene 1 38 42 -2.15119 0 149 -2.15119 1
gene 1 38 43 0.553889 0 150 0.553889 1
gene 1 38 44 1.73468 0 151 1.73468 1
gene 1 38 45 1.65883 0 152 1.65883 1
gene 1 39 42 1.20117 0 153 1.20117 1
gene 1 39 43 0.382891 0 154 0.382891 1
gene 1 39 44 0.279341 0 155 0.279341 1
gene 1 39 45 0.146691 0 156 0.146691 1
gene 1 40 42 1.04349 0 157 1.04349 1
gene 1 40 43 0.603734 0 158 0.603734 1
gene 1 40 44 -1.93643 0 159 -1.93643 1
gene 1 40 45 -0.482434 0 160 -0.482434 1
gene 1 41 42 3.22748 0 161 3.22748 1
gene 1 41 43 -0.76781 0 162 -0.76781 1
gene 1 41 44 -0.330543 0 163 -0.330543 1
gene 1 41 45 -4.16509 0 164 -4.16509 1
genomeend 33


