/* Organism #13 Fitness: -113.420000 Time: 0 */
genomestart 13
trait 1 0.000000 0.647983 0.000000 0.000000 0.000000 0.000000 0.000000 0.000000 
node 1 1 1 1
node 2 1 1 1
node 3 1 1 1
node 4 1 1 1
node 5 1 1 1
node 6 1 1 1
node 7 1 1 1
node 8 1 1 1
node 9 1 1 1
node 10 1 1 1
node 11 1 1 1
node 12 1 1 1
node 13 1 1 1
node 14 1 1 1
node 15 1 1 1
node 16 1 1 1
node 17 1 1 1
node 18 1 1 1
node 19 1 1 1
node 20 1 1 1
node 21 1 1 1
node 22 1 1 1
node 23 1 1 1
node 24 1 1 1
node 25 1 1 1
node 26 1 1 1
node 27 1 1 1
node 28 1 1 1
node 29 1 1 1
node 30 1 1 1
node 31 1 1 1
node 32 1 1 1
node 33 1 1 1
node 34 1 1 1
node 35 1 1 1
node 36 1 1 1
node 37 1 1 1
node 38 1 1 1
node 39 1 1 1
node 40 1 1 1
node 41 1 1 3
node 42 1 0 2
node 43 1 0 2
node 44 1 0 2
node 45 1 0 2
gene 1 1 42 -3.38409 0 1 -3.38409 1
gene 1 1 43 0.079684 0 2 0.079684 1
gene 1 1 44 0.276076 0 3 0.276076 1
gene 1 1 45 -2.65378 0 4 -2.65378 1
gene 1 2 42 -3.25228 0 5 -3.25228 1
gene 1 2 43 0.681297 0 6 0.681297 1
gene 1 2 44 -0.190133 0 7 -0.190133 1
gene 1 2 45 2.29399 0 8 2.29399 1
gene 1 3 42 1.35667 0 9 1.35667 1
gene 1 3 43 1.37015 0 10 1.37015 1
gene 1 3 44 1.38864 0 11 1.38864 1
gene 1 3 45 0.253114 0 12 0.253114 1
gene 1 4 42 1.48012 0 13 1.48012 1
gene 1 4 43 1.9996 0 14 1.9996 1
gene 1 4 44 1.36183 0 15 1.36183 1
gene 1 4 45 -0.397295 0 16 -0.397295 1
gene 1 5 42 1.61814 0 17 1.61814 1
gene 1 5 43 0.0812343 0 18 0.0812343 1
gene 1 5 44 0.362017 0 19 0.362017 1
gene 1 5 45 -1.17829 0 20 -1.17829 1
gene 1 6 42 -4.73498 0 21 -4.73498 1
gene 1 6 43 1.91451 0 22 1.91451 1
gene 1 6 44 0.19202 0 23 0.19202 1
gene 1 6 45 1.94264 0 24 1.94264 1
gene 1 7 42 -0.121637 0 25 -0.121637 1
gene 1 7 43 -1.47864 0 26 -1.47864 1
gene 1 7 44 -1.15251 0 27 -1.15251 1
gene 1 7 45 -1.29154 0 28 -1.29154 1
gene 1 8 42 0.916625 0 29 0.916625 1
gene 1 8 43 4.72281 0 30 4.72281 1
gene 1 8 44 -0.676206 0 31 -0.676206 1
gene 1 8 45 -1.40469 0 32 -1.40469 1
gene 1 9 42 -0.07336 0 33 -0.07336 1
gene 1 9 43 -0.0552419 0 34 -0.0552419 1
gene 1 9 44 -5 0 35 -5 1
gene 1 9 45 2.35645 0 36 2.35645 1
gene 1 10 42 -4.13964 0 37 -4.13964 1
gene 1 10 43 0.721571 0 38 0.721571 1
gene 1 10 44 1.31931 0 39 1.31931 1
gene 1 10 45 2.87332 0 40 2.87332 1
gene 1 11 42 -4.74954 0 41 -4.74954 1
gene 1 11 43 1.65202 0 42 1.65202 1
gene 1 11 44 -2.40835 0 43 -2.40835 1
gene 1 11 45 0.236682 0 44 0.236682 1
gene 1 12 42 -1.06561 0 45 -1.06561 1
gene 1 12 43 1.21568 0 46 1.21568 1
gene 1 12 44 -0.70763 0 47 -0.70763 1
gene 1 12 45 -0.359947 0 48 -0.359947 1
gene 1 13 42 0.594116 0 49 0.594116 1
gene 1 13 43 -0.81752 0 50 -0.81752 1
gene 1 13 44 3.63215 0 51 3.63215 1
gene 1 13 45 0.0567656 0 52 0.0567656 1
gene 1 14 42 -1.2795 0 53 -1.2795 1
gene 1 14 43 0.212725 0 54 0.212725 1
gene 1 14 44 -2.75235 0 55 -2.75235 1
gene 1 14 45 -0.683365 0 56 -0.683365 1
gene 1 15 42 -1.6844 0 57 -1.6844 1
gene 1 15 43 0.0350708 0 58 0.0350708 1
gene 1 15 44 3.17239 0 59 3.17239 1
gene 1 15 45 0.919746 0 60 0.919746 1
gene 1 16 42 0.54817 0 61 0.54817 1
gene 1 16 43 2.07919 0 62 2.07919 1
gene 1 16 44 -0.0705793 0 63 -0.0705793 1
gene 1 16 45 1.27103 0 64 1.27103 1
gene 1 17 42 -3.75344 0 65 -3.75344 1
gene 1 17 43 -1.54619 0 66 -1.54619 1
gene 1 17 44 3.88091 0 67 3.88091 1
gene 1 17 45 4.96292 0 68 4.96292 1
gene 1 18 42 0.902614 0 69 0.902614 1
gene 1 18 43 -0.0903295 0 70 -0.0903295 1
gene 1 18 44 -4.05584 0 71 -4.05584 1
gene 1 18 45 0.540949 0 72 0.540949 1
gene 1 19 42 1.16238 0 73 1.16238 1
gene 1 19 43 -2.80973 0 74 -2.80973 1
gene 1 19 44 3.78189 0 75 3.78189 1
gene 1 19 45 2.38834 0 76 2.38834 1
gene 1 20 42 -2.43548 0 77 -2.43548 1
gene 1 20 43 -1.37791 0 78 -1.37791 1
gene 1 20 44 5 0 79 5 1
gene 1 20 45 -0.0526929 0 80 -0.0526929 1
gene 1 21 42 -1.2679 0 81 -1.2679 1
gene 1 21 43 0.29616 0 82 0.29616 1
gene 1 21 44 -0.837506 0 83 -0.837506 1
gene 1 21 45 -0.911938 0 84 -0.911938 1
gene 1 22 42 -1.45513 0 85 -1.45513 1
gene 1 22 43 -0.430489 0 86 -0.430489 1
gene 1 22 44 1.69844 0 87 1.69844 1
gene 1 22 45 0.602678 0 88 0.602678 1
gene 1 23 42 3.16749 0 89 3.16749 1
gene 1 23 43 -0.737847 0 90 -0.737847 1
gene 1 23 44 1.33545 0 91 1.33545 1
gene 1 23 45 -2.76625 0 92 -2.76625 1
gene 1 24 42 -1.2389 0 93 -1.2389 1
gene 1 24 43 1.22774 0 94 1.22774 1
gene 1 24 44 -1.0465 0 95 -1.0465 1
gene 1 24 45 4.21392 0 96 4.21392 1
gene 1 25 42 1.40107 0 97 1.40107 1
gene 1 25 43 -0.1207 0 98 -0.1207 1
gene 1 25 44 1.25273 0 99 1.25273 1
gene 1 25 45 -1.22464 0 100 -1.22464 1
gene 1 26 42 2.34448 0 101 2.34448 1
gene 1 26 43 -1.60251 0 102 -1.60251 1
gene 1 26 44 -2.93265 0 103 -2.93265 1
gene 1 26 45 0.830595 0 104 0.830595 1
gene 1 27 42 1.35854 0 105 1.35854 1
gene 1 27 43 -0.570701 0 106 -0.570701 1
gene 1 27 44 0.194119 0 107 0.194119 1
gene 1 27 45 -0.239907 0 108 -0.239907 1
gene 1 28 42 -1.53781 0 109 -1.53781 1
gene 1 28 43 -1.0547 0 110 -1.0547 1
gene 1 28 44 3.58453 0 111 3.58453 1
gene 1 28 45 2.205 0 112 2.205 1
gene 1 29 42 -1.37013 0 113 -1.37013 1
gene 1 29 43 -1.96668 0 114 -1.96668 1
gene 1 29 44 -1.89827 0 115 -1.89827 1
gene 1 29 45 4.30154 0 116 4.30154 1
gene 1 30 42 1.70608 0 117 1.70608 1
gene 1 30 43 0.750238 0 118 0.750238 1
gene 1 30 44 -0.38493 0 119 -0.38493 1
gene 1 30 45 -0.517971 0 120 -0.517971 1
gene 1 31 42 -1.84326 0 121 -1.84326 1
gene 1 31 43 -1.87874 0 122 -1.87874 1
gene 1 31 44 0.940555 0 123 0.940555 1
gene 1 31 45 -2.60574 0 124 -2.60574 1
gene 1 32 42 -0.46303 0 125 -0.46303 1
gene 1 32 43 -1.86487 0 126 -1.86487 1
gene 1 32 44 4.62255 0 127 4.62255 1
gene 1 32 45 -2.93509 0 128 -2.93509 1
gene 1 33 42 -3.06144 0 129 -3.06144 1
gene 1 33 43 0.0465367 0 130 0.0465367 1
gene 1 33 44 3.93362 0 131 3.93362 1
gene 1 33 45 -0.674856 0 132 -0.674856 1
gene 1 34 42 0.385129 0 133 0.385129 1
gene 1 34 43 2.36804 0 134 2.36804 1
gene 1 34 44 -0.420411 0 135 -0.420411 1
gene 1 34 45 0.0586877 0 136 0.0586877 1
gene 1 35 42 0.871073 0 137 0.871073 1
gene 1 35 43 -3.29743 0 138 -3.29743 1
gene 1 35 44 -0.597638 0 139 -0.597638 1
gene 1 35 45 -3.42363 0 140 -3.42363 1
gene 1 36 42 0.400876 0 141 0.400876 1
gene 1 36 43 -0.911722 0 142 -0.911722 1
gene 1 36 44 0.839021 0 143 0.839021 1
gene 1 36 45 0.275895 0 144 0.275895 1
gene 1 37 42 0.279981 0 145 0.279981 1
gene 1 37 43 -3.04961 0 146 -3.04961 1
gene 1 37 44 -0.99747 0 147 -0.99747 1
gene 1 37 45 -0.120544 0 148 -0.120544 1
gene 1 38 42 0.827454 0 149 0.827454 1
gene 1 38 43 -0.406072 0 150 -0.406072 1
gene 1 38 44 -1.37838 0 151 -1.37838 1
gene 1 38 45 -0.382278 0 152 -0.382278 1
gene 1 39 42 -0.271706 0 153 -0.271706 1
gene 1 39 43 0.779985 0 154 0.779985 1
gene 1 39 44 2.11397 0 155 2.11397 1
gene 1 39 45 0.211991 0 156 0.211991 1
gene 1 40 42 -2.85084 0 157 -2.85084 1
gene 1 40 43 0.00871074 0 158 0.00871074 1
gene 1 40 44 0.550017 0 159 0.550017 1
gene 1 40 45 -0.495665 0 160 -0.495665 1
gene 1 41 42 1.09336 0 161 1.09336 1
gene 1 41 43 4.1241 0 162 4.1241 1
gene 1 41 44 1.06136 0 163 1.06136 1
gene 1 41 45 0.446842 0 164 0.446842 1
genomeend 13


