/* Organism #10 Fitness: -9.000000 Time: 0 */
genomestart 10
trait 1 1.000000 0.358986 1.000000 0.121681 0.000000 1.000000 0.526381 0.000000 
node 1 1 1 1
node 2 1 1 1
node 3 1 1 1
node 4 1 1 1
node 5 1 1 1
node 6 1 1 1
node 7 1 1 1
node 8 1 1 1
node 9 1 1 1
node 10 1 1 1
node 11 1 1 1
node 12 1 1 1
node 13 1 1 1
node 14 1 1 1
node 15 1 1 1
node 16 1 1 1
node 17 1 1 1
node 18 1 1 1
node 19 1 1 1
node 20 1 1 1
node 21 1 1 1
node 22 1 1 1
node 23 1 1 1
node 24 1 1 1
node 25 1 1 1
node 26 1 1 1
node 27 1 1 1
node 28 1 1 1
node 29 1 1 1
node 30 1 1 1
node 31 1 1 1
node 32 1 1 1
node 33 1 1 1
node 34 1 1 1
node 35 1 1 1
node 36 1 1 1
node 37 1 1 1
node 38 1 1 1
node 39 1 1 1
node 40 1 1 1
node 41 1 1 3
node 42 1 0 2
node 43 1 0 2
node 44 1 0 2
node 45 1 0 2
gene 1 1 42 -0.867545 0 1 -0.867545 1
gene 1 1 43 -0.917723 0 2 -0.917723 1
gene 1 1 44 -1.5135 0 3 -1.5135 1
gene 1 1 45 1.02666 0 4 1.02666 1
gene 1 2 42 -1.83096 0 5 -1.83096 1
gene 1 2 43 5 0 6 5 1
gene 1 2 44 5 0 7 5 1
gene 1 2 45 2.70228 0 8 2.70228 1
gene 1 3 42 1.88558 0 9 1.88558 1
gene 1 3 43 -0.12542 0 10 -0.12542 1
gene 1 3 44 3.5475 0 11 3.5475 1
gene 1 3 45 -3.45919 0 12 -3.45919 1
gene 1 4 42 0.352901 0 13 0.352901 1
gene 1 4 43 0.142305 0 14 0.142305 1
gene 1 4 44 -0.646019 0 15 -0.646019 1
gene 1 4 45 -0.168334 0 16 -0.168334 1
gene 1 5 42 0.620645 0 17 0.620645 1
gene 1 5 43 3.6799 0 18 3.6799 1
gene 1 5 44 -0.913811 0 19 -0.913811 1
gene 1 5 45 -1.84769 0 20 -1.84769 1
gene 1 6 42 0.329617 0 21 0.329617 1
gene 1 6 43 -1.62543 0 22 -1.62543 1
gene 1 6 44 1.1206 0 23 1.1206 1
gene 1 6 45 -1.263 0 24 -1.263 1
gene 1 7 42 2.11876 0 25 2.11876 1
gene 1 7 43 1.59655 0 26 1.59655 1
gene 1 7 44 -3.91669 0 27 -3.91669 1
gene 1 7 45 1.05356 0 28 1.05356 1
gene 1 8 42 -5 0 29 -5 1
gene 1 8 43 -0.255252 0 30 -0.255252 1
gene 1 8 44 -0.413093 0 31 -0.413093 1
gene 1 8 45 2.95414 0 32 2.95414 1
gene 1 9 42 0.769479 0 33 0.769479 1
gene 1 9 43 3.66072 0 34 3.66072 1
gene 1 9 44 -1.27759 0 35 -1.27759 1
gene 1 9 45 -3.84996 0 36 -3.84996 1
gene 1 10 42 -0.519465 0 37 -0.519465 1
gene 1 10 43 -0.710395 0 38 -0.710395 1
gene 1 10 44 -4.05428 0 39 -4.05428 1
gene 1 10 45 0.979758 0 40 0.979758 1
gene 1 11 42 0.394365 0 41 0.394365 1
gene 1 11 43 -0.556869 0 42 -0.556869 1
gene 1 11 44 -4.96555 0 43 -4.96555 1
gene 1 11 45 1.83087 0 44 1.83087 1
gene 1 12 42 -0.125952 0 45 -0.125952 1
gene 1 12 43 1.50682 0 46 1.50682 1
gene 1 12 44 0.0907982 0 47 0.0907982 1
gene 1 12 45 -4.35811 0 48 -4.35811 1
gene 1 13 42 -5 0 49 -5 1
gene 1 13 43 -4.46303 0 50 -4.46303 1
gene 1 13 44 1.50763 0 51 1.50763 1
gene 1 13 45 -2.93461 0 52 -2.93461 1
gene 1 14 42 -0.577636 0 53 -0.577636 1
gene 1 14 43 2.94308 0 54 2.94308 1
gene 1 14 44 -3.42537 0 55 -3.42537 1
gene 1 14 45 3.24128 0 56 3.24128 1
gene 1 15 42 0.174164 0 57 0.174164 1
gene 1 15 43 -1.8315 0 58 -1.8315 1
gene 1 15 44 -0.789307 0 59 -0.789307 1
gene 1 15 45 0.441446 0 60 0.441446 1
gene 1 16 42 -4.67419 0 61 -4.67419 1
gene 1 16 43 -1.71883 0 62 -1.71883 1
gene 1 16 44 0.431239 0 63 0.431239 1
gene 1 16 45 0.619396 0 64 0.619396 1
gene 1 17 42 1.59331 0 65 1.59331 1
gene 1 17 43 -3.70457 0 66 -3.70457 1
gene 1 17 44 1.89105 0 67 1.89105 1
gene 1 17 45 2.50363 0 68 2.50363 1
gene 1 18 42 0.246051 0 69 0.246051 1
gene 1 18 43 2.39239 0 70 2.39239 1
gene 1 18 44 -0.58144 0 71 -0.58144 1
gene 1 18 45 5 0 72 5 1
gene 1 19 42 -3.20721 0 73 -3.20721 1
gene 1 19 43 4.40271 0 74 4.40271 1
gene 1 19 44 1.92849 0 75 1.92849 1
gene 1 19 45 -0.485154 0 76 -0.485154 1
gene 1 20 42 0.272206 0 77 0.272206 1
gene 1 20 43 -4.20514 0 78 -4.20514 1
gene 1 20 44 -0.739171 0 79 -0.739171 1
gene 1 20 45 -1.82021 0 80 -1.82021 1
gene 1 21 42 -1.2816 0 81 -1.2816 1
gene 1 21 43 0.5409 0 82 0.5409 1
gene 1 21 44 -1.03376 0 83 -1.03376 1
gene 1 21 45 0.736441 0 84 0.736441 1
gene 1 22 42 1.58657 0 85 1.58657 1
gene 1 22 43 -3.78208 0 86 -3.78208 1
gene 1 22 44 -2.00977 0 87 -2.00977 1
gene 1 22 45 3.15656 0 88 3.15656 1
gene 1 23 42 4.56119 0 89 4.56119 1
gene 1 23 43 -0.698383 0 90 -0.698383 1
gene 1 23 44 3.99489 0 91 3.99489 1
gene 1 23 45 1.71012 0 92 1.71012 1
gene 1 24 42 -0.0618416 0 93 -0.0618416 1
gene 1 24 43 0.52777 0 94 0.52777 1
gene 1 24 44 -1.19693 0 95 -1.19693 1
gene 1 24 45 -0.6679 0 96 -0.6679 1
gene 1 25 42 1.75776 0 97 1.75776 1
gene 1 25 43 -2.16332 0 98 -2.16332 1
gene 1 25 44 -1.33947 0 99 -1.33947 1
gene 1 25 45 -1.09811 0 100 -1.09811 1
gene 1 26 42 3.21419 0 101 3.21419 1
gene 1 26 43 -0.734756 0 102 -0.734756 1
gene 1 26 44 -3.1803 0 103 -3.1803 1
gene 1 26 45 2.68675 0 104 2.68675 1
gene 1 27 42 -3.90354 0 105 -3.90354 1
gene 1 27 43 4.68149 0 106 4.68149 1
gene 1 27 44 0.0118925 0 107 0.0118925 1
gene 1 27 45 -2.07193 0 108 -2.07193 1
gene 1 28 42 4.15551 0 109 4.15551 1
gene 1 28 43 -1.4618 0 110 -1.4618 1
gene 1 28 44 -0.243953 0 111 -0.243953 1
gene 1 28 45 0.892083 0 112 0.892083 1
gene 1 29 42 -0.320067 0 113 -0.320067 1
gene 1 29 43 2.14957 0 114 2.14957 1
gene 1 29 44 1.12469 0 115 1.12469 1
gene 1 29 45 -4.39258 0 116 -4.39258 1
gene 1 30 42 -1.58388 0 117 -1.58388 1
gene 1 30 43 0.374844 0 118 0.374844 1
gene 1 30 44 -0.591392 0 119 -0.591392 1
gene 1 30 45 2.04892 0 120 2.04892 1
gene 1 31 42 -0.99945 0 121 -0.99945 1
gene 1 31 43 -3.5805 0 122 -3.5805 1
gene 1 31 44 1.25788 0 123 1.25788 1
gene 1 31 45 -0.980902 0 124 -0.980902 1
gene 1 32 42 1.47601 0 125 1.47601 1
gene 1 32 43 0.239423 0 126 0.239423 1
gene 1 32 44 -2.07356 0 127 -2.07356 1
gene 1 32 45 0.22337 0 128 0.22337 1
gene 1 33 42 -1.15731 0 129 -1.15731 1
gene 1 33 43 3.53561 0 130 3.53561 1
gene 1 33 44 4.8506 0 131 4.8506 1
gene 1 33 45 -2.29914 0 132 -2.29914 1
gene 1 34 42 1.76235 0 133 1.76235 1
gene 1 34 43 -0.678863 0 134 -0.678863 1
gene 1 34 44 0.776777 0 135 0.776777 1
gene 1 34 45 -2.01479 0 136 -2.01479 1
gene 1 35 42 0.257277 0 137 0.257277 1
gene 1 35 43 1.67855 0 138 1.67855 1
gene 1 35 44 -1.63092 0 139 -1.63092 1
gene 1 35 45 0.752195 0 140 0.752195 1
gene 1 36 42 -1.17788 0 141 -1.17788 1
gene 1 36 43 -1.04285 0 142 -1.04285 1
gene 1 36 44 0.851821 0 143 0.851821 1
gene 1 36 45 -0.246456 0 144 -0.246456 1
gene 1 37 42 0.0520447 0 145 0.0520447 1
gene 1 37 43 0.567005 0 146 0.567005 1
gene 1 37 44 2.47398 0 147 2.47398 1
gene 1 37 45 0.0683527 0 148 0.0683527 1
gene 1 38 42 -1.4113 0 149 -1.4113 1
gene 1 38 43 -0.295947 0 150 -0.295947 1
gene 1 38 44 0.866438 0 151 0.866438 1
gene 1 38 45 0.372752 0 152 0.372752 1
gene 1 39 42 1.04697 0 153 1.04697 1
gene 1 39 43 0.0413592 0 154 0.0413592 1
gene 1 39 44 1.1995 0 155 1.1995 1
gene 1 39 45 0.859057 0 156 0.859057 1
gene 1 40 42 -0.314564 0 157 -0.314564 1
gene 1 40 43 -0.0413967 0 158 -0.0413967 1
gene 1 40 44 0.598236 0 159 0.598236 1
gene 1 40 45 0.726391 0 160 0.726391 1
gene 1 41 42 -0.557712 0 161 -0.557712 1
gene 1 41 43 -0.508309 0 162 -0.508309 1
gene 1 41 44 -1.11481 0 163 -1.11481 1
gene 1 41 45 0.422602 0 164 0.422602 1
genomeend 10


