/* Organism #1 Fitness: -100.430000 Time: 0 */
genomestart 1
trait 1 0.298906 0.342346 0.059880 0.334923 0.000000 0.000000 0.643804 0.487609 
node 1 1 1 1
node 2 1 1 1
node 3 1 1 1
node 4 1 1 1
node 5 1 1 1
node 6 1 1 1
node 7 1 1 1
node 8 1 1 1
node 9 1 1 1
node 10 1 1 1
node 11 1 1 1
node 12 1 1 1
node 13 1 1 1
node 14 1 1 1
node 15 1 1 1
node 16 1 1 1
node 17 1 1 1
node 18 1 1 1
node 19 1 1 1
node 20 1 1 1
node 21 1 1 1
node 22 1 1 1
node 23 1 1 1
node 24 1 1 1
node 25 1 1 1
node 26 1 1 1
node 27 1 1 1
node 28 1 1 1
node 29 1 1 1
node 30 1 1 1
node 31 1 1 1
node 32 1 1 1
node 33 1 1 1
node 34 1 1 1
node 35 1 1 1
node 36 1 1 1
node 37 1 1 1
node 38 1 1 1
node 39 1 1 1
node 40 1 1 1
node 41 1 1 3
node 42 1 0 2
node 43 1 0 2
node 44 1 0 2
node 45 1 0 2
gene 1 1 42 -0.631628 0 1 -0.631628 1
gene 1 1 43 -4.78246 0 2 -4.78246 1
gene 1 1 44 0.501665 0 3 0.501665 1
gene 1 1 45 0.172165 0 4 0.172165 1
gene 1 2 42 1.22158 0 5 1.22158 1
gene 1 2 43 -2.32753 0 6 -2.32753 1
gene 1 2 44 0.16432 0 7 0.16432 1
gene 1 2 45 -0.395814 0 8 -0.395814 1
gene 1 3 42 -3.52076 0 9 -3.52076 1
gene 1 3 43 1.23314 0 10 1.23314 1
gene 1 3 44 -1.19964 0 11 -1.19964 1
gene 1 3 45 0.860268 0 12 0.860268 1
gene 1 4 42 1.89268 0 13 1.89268 1
gene 1 4 43 3.7333 0 14 3.7333 1
gene 1 4 44 0.80084 0 15 0.80084 1
gene 1 4 45 -0.0385635 0 16 -0.0385635 1
gene 1 5 42 -0.450006 0 17 -0.450006 1
gene 1 5 43 4.58379 0 18 4.58379 1
gene 1 5 44 1.65647 0 19 1.65647 1
gene 1 5 45 -0.782768 0 20 -0.782768 1
gene 1 6 42 0.783661 0 21 0.783661 1
gene 1 6 43 0.364927 0 22 0.364927 1
gene 1 6 44 -2.52096 0 23 -2.52096 1
gene 1 6 45 -0.870791 0 24 -0.870791 1
gene 1 7 42 2.00888 0 25 2.00888 1
gene 1 7 43 -2.03119 0 26 -2.03119 1
gene 1 7 44 2.13331 0 27 2.13331 1
gene 1 7 45 -5 0 28 -5 1
gene 1 8 42 0.10352 0 29 0.10352 1
gene 1 8 43 2.58096 0 30 2.58096 1
gene 1 8 44 -0.798445 0 31 -0.798445 1
gene 1 8 45 2.79615 0 32 2.79615 1
gene 1 9 42 0.788417 0 33 0.788417 1
gene 1 9 43 -1.32777 0 34 -1.32777 1
gene 1 9 44 -0.919718 0 35 -0.919718 1
gene 1 9 45 -0.740489 0 36 -0.740489 1
gene 1 10 42 4.00416 0 37 4.00416 1
gene 1 10 43 -2.44068 0 38 -2.44068 1
gene 1 10 44 3.09486 0 39 3.09486 1
gene 1 10 45 -0.503356 0 40 -0.503356 1
gene 1 11 42 -3.86612 0 41 -3.86612 1
gene 1 11 43 -4.39351 0 42 -4.39351 1
gene 1 11 44 0.822804 0 43 0.822804 1
gene 1 11 45 0.878111 0 44 0.878111 1
gene 1 12 42 -0.639095 0 45 -0.639095 1
gene 1 12 43 -0.813394 0 46 -0.813394 1
gene 1 12 44 1.20002 0 47 1.20002 1
gene 1 12 45 -3.57934 0 48 -3.57934 1
gene 1 13 42 0.985531 0 49 0.985531 1
gene 1 13 43 -1.67179 0 50 -1.67179 1
gene 1 13 44 3.3629 0 51 3.3629 1
gene 1 13 45 0.0341725 0 52 0.0341725 1
gene 1 14 42 2.40731 0 53 2.40731 1
gene 1 14 43 -3.42334 0 54 -3.42334 1
gene 1 14 44 -0.833631 0 55 -0.833631 1
gene 1 14 45 0.100842 0 56 0.100842 1
gene 1 15 42 -0.167211 0 57 -0.167211 1
gene 1 15 43 -0.817458 0 58 -0.817458 1
gene 1 15 44 -0.272496 0 59 -0.272496 1
gene 1 15 45 -2.15411 0 60 -2.15411 1
gene 1 16 42 0.0827607 0 61 0.0827607 1
gene 1 16 43 1.89858 0 62 1.89858 1
gene 1 16 44 -1.15407 0 63 -1.15407 1
gene 1 16 45 5 0 64 5 1
gene 1 17 42 -0.852345 0 65 -0.852345 1
gene 1 17 43 0.592818 0 66 0.592818 1
gene 1 17 44 1.44372 0 67 1.44372 1
gene 1 17 45 -2.2398 0 68 -2.2398 1
gene 1 18 42 -5 0 69 -5 1
gene 1 18 43 0.0807355 0 70 0.0807355 1
gene 1 18 44 2.05601 0 71 2.05601 1
gene 1 18 45 -1.28119 0 72 -1.28119 1
gene 1 19 42 -0.5449 0 73 -0.5449 1
gene 1 19 43 0.277326 0 74 0.277326 1
gene 1 19 44 -0.420296 0 75 -0.420296 1
gene 1 19 45 0.13418 0 76 0.13418 1
gene 1 20 42 4.00804 0 77 4.00804 1
gene 1 20 43 -0.918098 0 78 -0.918098 1
gene 1 20 44 -3.03123 0 79 -3.03123 1
gene 1 20 45 1.37297 0 80 1.37297 1
gene 1 21 42 -1.21658 0 81 -1.21658 1
gene 1 21 43 -0.668622 0 82 -0.668622 1
gene 1 21 44 -0.539554 0 83 -0.539554 1
gene 1 21 45 2.90187 0 84 2.90187 1
gene 1 22 42 1.59194 0 85 1.59194 1
gene 1 22 43 -1.7549 0 86 -1.7549 1
gene 1 22 44 0.975125 0 87 0.975125 1
gene 1 22 45 -0.408502 0 88 -0.408502 1
gene 1 23 42 1.53569 0 89 1.53569 1
gene 1 23 43 0.0380231 0 90 0.0380231 1
gene 1 23 44 -0.109693 0 91 -0.109693 1
gene 1 23 45 -0.955864 0 92 -0.955864 1
gene 1 24 42 -0.585869 0 93 -0.585869 1
gene 1 24 43 -0.181389 0 94 -0.181389 1
gene 1 24 44 0.446651 0 95 0.446651 1
gene 1 24 45 -1.4522 0 96 -1.4522 1
gene 1 25 42 0.403601 0 97 0.403601 1
gene 1 25 43 -0.261121 0 98 -0.261121 1
gene 1 25 44 0.391418 0 99 0.391418 1
gene 1 25 45 -1.64588 0 100 -1.64588 1
gene 1 26 42 -4.54632 0 101 -4.54632 1
gene 1 26 43 3.35544 0 102 3.35544 1
gene 1 26 44 1.84571 0 103 1.84571 1
gene 1 26 45 1.76627 0 104 1.76627 1
gene 1 27 42 0.928826 0 105 0.928826 1
gene 1 27 43 1.69642 0 106 1.69642 1
gene 1 27 44 -0.473712 0 107 -0.473712 1
gene 1 27 45 -0.262713 0 108 -0.262713 1
gene 1 28 42 -0.727152 0 109 -0.727152 1
gene 1 28 43 2.42822 0 110 2.42822 1
gene 1 28 44 -3.31047 0 111 -3.31047 1
gene 1 28 45 1.7627 0 112 1.7627 1
gene 1 29 42 0.581758 0 113 0.581758 1
gene 1 29 43 0.159942 0 114 0.159942 1
gene 1 29 44 -0.473935 0 115 -0.473935 1
gene 1 29 45 -1.82345 0 116 -1.82345 1
gene 1 30 42 -1.0776 0 117 -1.0776 1
gene 1 30 43 -2.80163 0 118 -2.80163 1
gene 1 30 44 -0.784425 0 119 -0.784425 1
gene 1 30 45 -3.39933 0 120 -3.39933 1
gene 1 31 42 -1.8222 0 121 -1.8222 1
gene 1 31 43 3.30105 0 122 3.30105 1
gene 1 31 44 -0.835216 0 123 -0.835216 1
gene 1 31 45 1.49574 0 124 1.49574 1
gene 1 32 42 1.68792 0 125 1.68792 1
gene 1 32 43 -0.0985077 0 126 -0.0985077 1
gene 1 32 44 -3.73156 0 127 -3.73156 1
gene 1 32 45 -1.48602 0 128 -1.48602 1
gene 1 33 42 0.254643 0 129 0.254643 1
gene 1 33 43 4.66053 0 130 4.66053 1
gene 1 33 44 -4.33058 0 131 -4.33058 1
gene 1 33 45 3.7396 0 132 3.7396 1
gene 1 34 42 -0.287851 0 133 -0.287851 1
gene 1 34 43 -1.9028 0 134 -1.9028 1
gene 1 34 44 -1.49289 0 135 -1.49289 1
gene 1 34 45 0.426951 0 136 0.426951 1
gene 1 35 42 1.43987 0 137 1.43987 1
gene 1 35 43 0.840201 0 138 0.840201 1
gene 1 35 44 0.506657 0 139 0.506657 1
gene 1 35 45 1.22675 0 140 1.22675 1
gene 1 36 42 0.976384 0 141 0.976384 1
gene 1 36 43 1.00599 0 142 1.00599 1
gene 1 36 44 -0.121298 0 143 -0.121298 1
gene 1 36 45 -0.278536 0 144 -0.278536 1
gene 1 37 42 0.916994 0 145 0.916994 1
gene 1 37 43 -0.0785845 0 146 -0.0785845 1
gene 1 37 44 -0.489148 0 147 -0.489148 1
gene 1 37 45 1.07124 0 148 1.07124 1
gene 1 38 42 -0.460996 0 149 -0.460996 1
gene 1 38 43 -0.858813 0 150 -0.858813 1
gene 1 38 44 0.518102 0 151 0.518102 1
gene 1 38 45 -1.78599 0 152 -1.78599 1
gene 1 39 42 0.0471068 0 153 0.0471068 1
gene 1 39 43 0.115305 0 154 0.115305 1
gene 1 39 44 -0.996379 0 155 -0.996379 1
gene 1 39 45 0.573149 0 156 0.573149 1
gene 1 40 42 -2.27741 0 157 -2.27741 1
gene 1 40 43 -0.610268 0 158 -0.610268 1
gene 1 40 44 -0.829114 0 159 -0.829114 1
gene 1 40 45 1.00924 0 160 1.00924 1
gene 1 41 42 0.429931 0 161 0.429931 1
gene 1 41 43 -3.37638 0 162 -3.37638 1
gene 1 41 44 1.46517 0 163 1.46517 1
gene 1 41 45 0.374209 0 164 0.374209 1
genomeend 1


