/* Organism #4 Fitness: -1194.070000 Time: 0 */
genomestart 4
trait 1 1.000000 0.955933 0.025139 0.050291 0.000000 0.242177 0.000000 0.060497 
node 1 1 1 1
node 2 1 1 1
node 3 1 1 1
node 4 1 1 1
node 5 1 1 1
node 6 1 1 1
node 7 1 1 1
node 8 1 1 1
node 9 1 1 1
node 10 1 1 1
node 11 1 1 1
node 12 1 1 1
node 13 1 1 1
node 14 1 1 1
node 15 1 1 1
node 16 1 1 1
node 17 1 1 1
node 18 1 1 1
node 19 1 1 1
node 20 1 1 1
node 21 1 1 1
node 22 1 1 1
node 23 1 1 1
node 24 1 1 1
node 25 1 1 1
node 26 1 1 1
node 27 1 1 1
node 28 1 1 1
node 29 1 1 1
node 30 1 1 1
node 31 1 1 1
node 32 1 1 1
node 33 1 1 1
node 34 1 1 1
node 35 1 1 1
node 36 1 1 1
node 37 1 1 1
node 38 1 1 1
node 39 1 1 1
node 40 1 1 1
node 41 1 1 3
node 42 1 0 2
node 43 1 0 2
node 44 1 0 2
node 45 1 0 2
gene 1 1 42 -0.977716 0 1 -0.977716 1
gene 1 1 43 1.84447 0 2 1.84447 1
gene 1 1 44 1.70426 0 3 1.70426 1
gene 1 1 45 0.391243 0 4 0.391243 1
gene 1 2 42 1.53756 0 5 1.53756 1
gene 1 2 43 0.861436 0 6 0.861436 1
gene 1 2 44 2.32983 0 7 2.32983 1
gene 1 2 45 -0.0634038 0 8 -0.0634038 1
gene 1 3 42 0.79789 0 9 0.79789 1
gene 1 3 43 -3.27888 0 10 -3.27888 1
gene 1 3 44 0.513205 0 11 0.513205 1
gene 1 3 45 -1.89113 0 12 -1.89113 1
gene 1 4 42 3.11511 0 13 3.11511 1
gene 1 4 43 3.77669 0 14 3.77669 1
gene 1 4 44 0.565916 0 15 0.565916 1
gene 1 4 45 -0.889788 0 16 -0.889788 1
gene 1 5 42 4.22532 0 17 4.22532 1
gene 1 5 43 1.37477 0 18 1.37477 1
gene 1 5 44 -4.27339 0 19 -4.27339 1
gene 1 5 45 -0.724799 0 20 -0.724799 1
gene 1 6 42 1.86777 0 21 1.86777 1
gene 1 6 43 -1.64754 0 22 -1.64754 1
gene 1 6 44 0.492507 0 23 0.492507 1
gene 1 6 45 4.02796 0 24 4.02796 1
gene 1 7 42 -2.13149 0 25 -2.13149 1
gene 1 7 43 -0.783031 0 26 -0.783031 1
gene 1 7 44 -1.15943 0 27 -1.15943 1
gene 1 7 45 -2.31875 0 28 -2.31875 1
gene 1 8 42 -1.52477 0 29 -1.52477 1
gene 1 8 43 -1.95399 0 30 -1.95399 1
gene 1 8 44 0.279457 0 31 0.279457 1
gene 1 8 45 -3.38789 0 32 -3.38789 1
gene 1 9 42 3.03989 0 33 3.03989 1
gene 1 9 43 -5 0 34 -5 1
gene 1 9 44 0.565215 0 35 0.565215 1
gene 1 9 45 -2.27384 0 36 -2.27384 1
gene 1 10 42 4.22778 0 37 4.22778 1
gene 1 10 43 -2.15186 0 38 -2.15186 1
gene 1 10 44 4.07765 0 39 4.07765 1
gene 1 10 45 0.853236 0 40 0.853236 1
gene 1 11 42 3.21295 0 41 3.21295 1
gene 1 11 43 -2.22295 0 42 -2.22295 1
gene 1 11 44 2.51574 0 43 2.51574 1
gene 1 11 45 -1.77794 0 44 -1.77794 1
gene 1 12 42 -0.590179 0 45 -0.590179 1
gene 1 12 43 -0.218038 0 46 -0.218038 1
gene 1 12 44 4.78396 0 47 4.78396 1
gene 1 12 45 1.21163 0 48 1.21163 1
gene 1 13 42 1.17034 0 49 1.17034 1
gene 1 13 43 -1.42679 0 50 -1.42679 1
gene 1 13 44 1.33684 0 51 1.33684 1
gene 1 13 45 -1.72206 0 52 -1.72206 1
gene 1 14 42 -0.455319 0 53 -0.455319 1
gene 1 14 43 -1.78761 0 54 -1.78761 1
gene 1 14 44 1.58329 0 55 1.58329 1
gene 1 14 45 -0.333626 0 56 -0.333626 1
gene 1 15 42 -0.314419 0 57 -0.314419 1
gene 1 15 43 -0.310659 0 58 -0.310659 1
gene 1 15 44 0.434452 0 59 0.434452 1
gene 1 15 45 -0.600387 0 60 -0.600387 1
gene 1 16 42 0.291495 0 61 0.291495 1
gene 1 16 43 -0.374777 0 62 -0.374777 1
gene 1 16 44 -0.380597 0 63 -0.380597 1
gene 1 16 45 -0.202225 0 64 -0.202225 1
gene 1 17 42 5 0 65 5 1
gene 1 17 43 1.53325 0 66 1.53325 1
gene 1 17 44 4.74038 0 67 4.74038 1
gene 1 17 45 -0.140815 0 68 -0.140815 1
gene 1 18 42 2.57012 0 69 2.57012 1
gene 1 18 43 -3.1767 0 70 -3.1767 1
gene 1 18 44 4.41805 0 71 4.41805 1
gene 1 18 45 0.405723 0 72 0.405723 1
gene 1 19 42 4.16845 0 73 4.16845 1
gene 1 19 43 0.550173 0 74 0.550173 1
gene 1 19 44 0.493795 0 75 0.493795 1
gene 1 19 45 0.0205743 0 76 0.0205743 1
gene 1 20 42 -4.68128 0 77 -4.68128 1
gene 1 20 43 2.33918 0 78 2.33918 1
gene 1 20 44 1.28137 0 79 1.28137 1
gene 1 20 45 -4.93305 0 80 -4.93305 1
gene 1 21 42 2.13037 0 81 2.13037 1
gene 1 21 43 -5 0 82 -5 1
gene 1 21 44 -1.7986 0 83 -1.7986 1
gene 1 21 45 2.88756 0 84 2.88756 1
gene 1 22 42 -3.84932 0 85 -3.84932 1
gene 1 22 43 -1.78044 0 86 -1.78044 1
gene 1 22 44 -0.0134595 0 87 -0.0134595 1
gene 1 22 45 -1.94058 0 88 -1.94058 1
gene 1 23 42 -3.52266 0 89 -3.52266 1
gene 1 23 43 4.44836 0 90 4.44836 1
gene 1 23 44 2.0837 0 91 2.0837 1
gene 1 23 45 -3.93086 0 92 -3.93086 1
gene 1 24 42 2.44496 0 93 2.44496 1
gene 1 24 43 1.59246 0 94 1.59246 1
gene 1 24 44 -3.63501 0 95 -3.63501 1
gene 1 24 45 4.03708 0 96 4.03708 1
gene 1 25 42 0.797077 0 97 0.797077 1
gene 1 25 43 2.31521 0 98 2.31521 1
gene 1 25 44 -0.12865 0 99 -0.12865 1
gene 1 25 45 1.18186 0 100 1.18186 1
gene 1 26 42 1.53185 0 101 1.53185 1
gene 1 26 43 0.525435 0 102 0.525435 1
gene 1 26 44 -1.86893 0 103 -1.86893 1
gene 1 26 45 1.3096 0 104 1.3096 1
gene 1 27 42 3.65805 0 105 3.65805 1
gene 1 27 43 -5 0 106 -5 1
gene 1 27 44 -2.35882 0 107 -2.35882 1
gene 1 27 45 2.43876 0 108 2.43876 1
gene 1 28 42 -0.474726 0 109 -0.474726 1
gene 1 28 43 -0.506429 0 110 -0.506429 1
gene 1 28 44 -4.90976 0 111 -4.90976 1
gene 1 28 45 4.45242 0 112 4.45242 1
gene 1 29 42 4.71572 0 113 4.71572 1
gene 1 29 43 -1.71163 0 114 -1.71163 1
gene 1 29 44 -3.13575 0 115 -3.13575 1
gene 1 29 45 0.148791 0 116 0.148791 1
gene 1 30 42 -1.37046 0 117 -1.37046 1
gene 1 30 43 2.12248 0 118 2.12248 1
gene 1 30 44 1.19669 0 119 1.19669 1
gene 1 30 45 -0.833319 0 120 -0.833319 1
gene 1 31 42 1.65419 0 121 1.65419 1
gene 1 31 43 -2.40622 0 122 -2.40622 1
gene 1 31 44 -1.49107 0 123 -1.49107 1
gene 1 31 45 0.403303 0 124 0.403303 1
gene 1 32 42 0.27833 0 125 0.27833 1
gene 1 32 43 1.54728 0 126 1.54728 1
gene 1 32 44 1.37694 0 127 1.37694 1
gene 1 32 45 -3.4091 0 128 -3.4091 1
gene 1 33 42 1.4468 0 129 1.4468 1
gene 1 33 43 -2.58207 0 130 -2.58207 1
gene 1 33 44 -3.89216 0 131 -3.89216 1
gene 1 33 45 -1.82405 0 132 -1.82405 1
gene 1 34 42 -0.971959 0 133 -0.971959 1
gene 1 34 43 0.924245 0 134 0.924245 1
gene 1 34 44 -0.944395 0 135 -0.944395 1
gene 1 34 45 -1.00717 0 136 -1.00717 1
gene 1 35 42 1.09081 0 137 1.09081 1
gene 1 35 43 -0.947127 0 138 -0.947127 1
gene 1 35 44 -1.49859 0 139 -1.49859 1
gene 1 35 45 -0.826578 0 140 -0.826578 1
gene 1 36 42 0.233848 0 141 0.233848 1
gene 1 36 43 -1.0422 0 142 -1.0422 1
gene 1 36 44 -0.734336 0 143 -0.734336 1
gene 1 36 45 0.720184 0 144 0.720184 1
gene 1 37 42 -1.14973 0 145 -1.14973 1
gene 1 37 43 -0.185419 0 146 -0.185419 1
gene 1 37 44 0.636281 0 147 0.636281 1
gene 1 37 45 1.69367 0 148 1.69367 1
gene 1 38 42 0.47444 0 149 0.47444 1
gene 1 38 43 0.493993 0 150 0.493993 1
gene 1 38 44 -0.0311366 0 151 -0.0311366 1
gene 1 38 45 0.511217 0 152 0.511217 1
gene 1 39 42 -0.757248 0 153 -0.757248 1
gene 1 39 43 -0.835568 0 154 -0.835568 1
gene 1 39 44 0.300584 0 155 0.300584 1
gene 1 39 45 0.181988 0 156 0.181988 1
gene 1 40 42 1.27596 0 157 1.27596 1
gene 1 40 43 -1.62145 0 158 -1.62145 1
gene 1 40 44 -0.725052 0 159 -0.725052 1
gene 1 40 45 0.144802 0 160 0.144802 1
gene 1 41 42 -2.84152 0 161 -2.84152 1
gene 1 41 43 -0.822073 0 162 -0.822073 1
gene 1 41 44 0.0209554 0 163 0.0209554 1
gene 1 41 45 -1.47623 0 164 -1.47623 1
genomeend 4


