/* Organism #4 Fitness: -1357.530000 Time: 0 */
genomestart 4
trait 1 0.027328 0.000000 1.000000 0.000000 1.000000 0.079544 0.000000 0.000000 
node 1 1 1 1
node 2 1 1 1
node 3 1 1 1
node 4 1 1 1
node 5 1 1 1
node 6 1 1 1
node 7 1 1 1
node 8 1 1 1
node 9 1 1 1
node 10 1 1 1
node 11 1 1 1
node 12 1 1 1
node 13 1 1 1
node 14 1 1 1
node 15 1 1 1
node 16 1 1 1
node 17 1 1 1
node 18 1 1 1
node 19 1 1 1
node 20 1 1 1
node 21 1 1 1
node 22 1 1 1
node 23 1 1 1
node 24 1 1 1
node 25 1 1 1
node 26 1 1 1
node 27 1 1 1
node 28 1 1 1
node 29 1 1 1
node 30 1 1 1
node 31 1 1 1
node 32 1 1 1
node 33 1 1 1
node 34 1 1 1
node 35 1 1 1
node 36 1 1 1
node 37 1 1 1
node 38 1 1 1
node 39 1 1 1
node 40 1 1 1
node 41 1 1 3
node 42 1 0 2
node 43 1 0 2
node 44 1 0 2
node 45 1 0 2
gene 1 1 42 -3.67863 0 1 -3.67863 1
gene 1 1 43 -2.1585 0 2 -2.1585 1
gene 1 1 44 -0.50035 0 3 -0.50035 1
gene 1 1 45 1.96644 0 4 1.96644 1
gene 1 2 42 -0.938933 0 5 -0.938933 1
gene 1 2 43 -0.0867116 0 6 -0.0867116 1
gene 1 2 44 -0.995619 0 7 -0.995619 1
gene 1 2 45 -0.526726 0 8 -0.526726 1
gene 1 3 42 1.0003 0 9 1.0003 1
gene 1 3 43 0.0507483 0 10 0.0507483 1
gene 1 3 44 -1.83486 0 11 -1.83486 1
gene 1 3 45 -1.40017 0 12 -1.40017 1
gene 1 4 42 2.0978 0 13 2.0978 1
gene 1 4 43 0.794754 0 14 0.794754 1
gene 1 4 44 0.338179 0 15 0.338179 1
gene 1 4 45 -2.21538 0 16 -2.21538 1
gene 1 5 42 1.59779 0 17 1.59779 1
gene 1 5 43 -1.52901 0 18 -1.52901 1
gene 1 5 44 0.37194 0 19 0.37194 1
gene 1 5 45 -0.144764 0 20 -0.144764 1
gene 1 6 42 1.70329 0 21 1.70329 1
gene 1 6 43 -0.86138 0 22 -0.86138 1
gene 1 6 44 0.575627 0 23 0.575627 1
gene 1 6 45 2.89051 0 24 2.89051 1
gene 1 7 42 -2.06785 0 25 -2.06785 1
gene 1 7 43 -0.441919 0 26 -0.441919 1
gene 1 7 44 0.857292 0 27 0.857292 1
gene 1 7 45 1.64487 0 28 1.64487 1
gene 1 8 42 0.85988 0 29 0.85988 1
gene 1 8 43 1.32993 0 30 1.32993 1
gene 1 8 44 1.38199 0 31 1.38199 1
gene 1 8 45 -0.653258 0 32 -0.653258 1
gene 1 9 42 0.397807 0 33 0.397807 1
gene 1 9 43 2.46505 0 34 2.46505 1
gene 1 9 44 1.65141 0 35 1.65141 1
gene 1 9 45 1.07736 0 36 1.07736 1
gene 1 10 42 -4.45922 0 37 -4.45922 1
gene 1 10 43 1.07576 0 38 1.07576 1
gene 1 10 44 -0.125729 0 39 -0.125729 1
gene 1 10 45 4.83789 0 40 4.83789 1
gene 1 11 42 -4.24679 0 41 -4.24679 1
gene 1 11 43 2.09582 0 42 2.09582 1
gene 1 11 44 -5 0 43 -5 1
gene 1 11 45 1.01099 0 44 1.01099 1
gene 1 12 42 1.40969 0 45 1.40969 1
gene 1 12 43 0.266897 0 46 0.266897 1
gene 1 12 44 0.477245 0 47 0.477245 1
gene 1 12 45 1.15327 0 48 1.15327 1
gene 1 13 42 0.489533 0 49 0.489533 1
gene 1 13 43 0.698711 0 50 0.698711 1
gene 1 13 44 -2.23057 0 51 -2.23057 1
gene 1 13 45 -0.232153 0 52 -0.232153 1
gene 1 14 42 0.344888 0 53 0.344888 1
gene 1 14 43 1.13424 0 54 1.13424 1
gene 1 14 44 -3.25491 0 55 -3.25491 1
gene 1 14 45 -0.250611 0 56 -0.250611 1
gene 1 15 42 -1.15969 0 57 -1.15969 1
gene 1 15 43 3.43055 0 58 3.43055 1
gene 1 15 44 0.677346 0 59 0.677346 1
gene 1 15 45 -0.450748 0 60 -0.450748 1
gene 1 16 42 0.209074 0 61 0.209074 1
gene 1 16 43 -0.100664 0 62 -0.100664 1
gene 1 16 44 -2.31604 0 63 -2.31604 1
gene 1 16 45 -0.306169 0 64 -0.306169 1
gene 1 17 42 0.831187 0 65 0.831187 1
gene 1 17 43 -1.87951 0 66 -1.87951 1
gene 1 17 44 0.627001 0 67 0.627001 1
gene 1 17 45 -0.862363 0 68 -0.862363 1
gene 1 18 42 -3.04333 0 69 -3.04333 1
gene 1 18 43 1.31377 0 70 1.31377 1
gene 1 18 44 0.65117 0 71 0.65117 1
gene 1 18 45 -2.77731 0 72 -2.77731 1
gene 1 19 42 0.000820581 0 73 0.000820581 1
gene 1 19 43 2.66745 0 74 2.66745 1
gene 1 19 44 4.09045 0 75 4.09045 1
gene 1 19 45 1.5125 0 76 1.5125 1
gene 1 20 42 -1.41199 0 77 -1.41199 1
gene 1 20 43 -0.670021 0 78 -0.670021 1
gene 1 20 44 -2.26563 0 79 -2.26563 1
gene 1 20 45 -0.472348 0 80 -0.472348 1
gene 1 21 42 -1.08179 0 81 -1.08179 1
gene 1 21 43 -1.96748 0 82 -1.96748 1
gene 1 21 44 -2.70518 0 83 -2.70518 1
gene 1 21 45 2.0457 0 84 2.0457 1
gene 1 22 42 1.62759 0 85 1.62759 1
gene 1 22 43 -2.56553 0 86 -2.56553 1
gene 1 22 44 -1.98448 0 87 -1.98448 1
gene 1 22 45 0.560368 0 88 0.560368 1
gene 1 23 42 1.29213 0 89 1.29213 1
gene 1 23 43 -2.35456 0 90 -2.35456 1
gene 1 23 44 1.72944 0 91 1.72944 1
gene 1 23 45 0.257069 0 92 0.257069 1
gene 1 24 42 -3.04852 0 93 -3.04852 1
gene 1 24 43 3.63507 0 94 3.63507 1
gene 1 24 44 0.372225 0 95 0.372225 1
gene 1 24 45 -3.21412 0 96 -3.21412 1
gene 1 25 42 1.10756 0 97 1.10756 1
gene 1 25 43 0.477671 0 98 0.477671 1
gene 1 25 44 0.442558 0 99 0.442558 1
gene 1 25 45 -0.956746 0 100 -0.956746 1
gene 1 26 42 -1.54226 0 101 -1.54226 1
gene 1 26 43 -0.827951 0 102 -0.827951 1
gene 1 26 44 -1.61482 0 103 -1.61482 1
gene 1 26 45 0.0659742 0 104 0.0659742 1
gene 1 27 42 -0.706024 0 105 -0.706024 1
gene 1 27 43 0.226241 0 106 0.226241 1
gene 1 27 44 -3.09921 0 107 -3.09921 1
gene 1 27 45 2.75634 0 108 2.75634 1
gene 1 28 42 -0.239944 0 109 -0.239944 1
gene 1 28 43 -1.91246 0 110 -1.91246 1
gene 1 28 44 2.53034 0 111 2.53034 1
gene 1 28 45 -0.269502 0 112 -0.269502 1
gene 1 29 42 -2.59842 0 113 -2.59842 1
gene 1 29 43 1.63334 0 114 1.63334 1
gene 1 29 44 -0.435613 0 115 -0.435613 1
gene 1 29 45 -2.65091 0 116 -2.65091 1
gene 1 30 42 0.256365 0 117 0.256365 1
gene 1 30 43 1.83786 0 118 1.83786 1
gene 1 30 44 3.12194 0 119 3.12194 1
gene 1 30 45 1.57457 0 120 1.57457 1
gene 1 31 42 1.81612 0 121 1.81612 1
gene 1 31 43 -3.39292 0 122 -3.39292 1
gene 1 31 44 -2.40548 0 123 -2.40548 1
gene 1 31 45 -2.48177 0 124 -2.48177 1
gene 1 32 42 1.45371 0 125 1.45371 1
gene 1 32 43 -0.318716 0 126 -0.318716 1
gene 1 32 44 -2.81412 0 127 -2.81412 1
gene 1 32 45 0.0577819 0 128 0.0577819 1
gene 1 33 42 -3.1693 0 129 -3.1693 1
gene 1 33 43 1.11894 0 130 1.11894 1
gene 1 33 44 0.924882 0 131 0.924882 1
gene 1 33 45 -0.867151 0 132 -0.867151 1
gene 1 34 42 -0.207205 0 133 -0.207205 1
gene 1 34 43 -0.547874 0 134 -0.547874 1
gene 1 34 44 -0.873252 0 135 -0.873252 1
gene 1 34 45 -0.683137 0 136 -0.683137 1
gene 1 35 42 -0.379246 0 137 -0.379246 1
gene 1 35 43 -0.0711593 0 138 -0.0711593 1
gene 1 35 44 1.53325 0 139 1.53325 1
gene 1 35 45 -0.186726 0 140 -0.186726 1
gene 1 36 42 -1.28643 0 141 -1.28643 1
gene 1 36 43 -1.4034 0 142 -1.4034 1
gene 1 36 44 0.264839 0 143 0.264839 1
gene 1 36 45 0.757084 0 144 0.757084 1
gene 1 37 42 1.51477 0 145 1.51477 1
gene 1 37 43 0.940928 0 146 0.940928 1
gene 1 37 44 -0.146106 0 147 -0.146106 1
gene 1 37 45 -0.157958 0 148 -0.157958 1
gene 1 38 42 0.706826 0 149 0.706826 1
gene 1 38 43 -0.36129 0 150 -0.36129 1
gene 1 38 44 -0.270028 0 151 -0.270028 1
gene 1 38 45 0.79642 0 152 0.79642 1
gene 1 39 42 -0.594164 0 153 -0.594164 1
gene 1 39 43 1.02574 0 154 1.02574 1
gene 1 39 44 1.46507 0 155 1.46507 1
gene 1 39 45 -0.0157111 0 156 -0.0157111 1
gene 1 40 42 -1.04686 0 157 -1.04686 1
gene 1 40 43 0.664171 0 158 0.664171 1
gene 1 40 44 0.847365 0 159 0.847365 1
gene 1 40 45 -0.106618 0 160 -0.106618 1
gene 1 41 42 0.32186 0 161 0.32186 1
gene 1 41 43 0.0533502 0 162 0.0533502 1
gene 1 41 44 -2.69411 0 163 -2.69411 1
gene 1 41 45 -0.448467 0 164 -0.448467 1
genomeend 4


