/* Organism #1 Fitness: -1472.670000 Time: 0 */
genomestart 1
trait 1 0.000000 0.000000 0.000000 0.353011 0.000000 0.000000 0.000000 0.000000 
node 1 1 1 1
node 2 1 1 1
node 3 1 1 1
node 4 1 1 1
node 5 1 1 1
node 6 1 1 1
node 7 1 1 1
node 8 1 1 1
node 9 1 1 1
node 10 1 1 1
node 11 1 1 1
node 12 1 1 1
node 13 1 1 1
node 14 1 1 1
node 15 1 1 1
node 16 1 1 1
node 17 1 1 1
node 18 1 1 1
node 19 1 1 1
node 20 1 1 1
node 21 1 1 1
node 22 1 1 1
node 23 1 1 1
node 24 1 1 1
node 25 1 1 1
node 26 1 1 1
node 27 1 1 1
node 28 1 1 1
node 29 1 1 1
node 30 1 1 1
node 31 1 1 1
node 32 1 1 1
node 33 1 1 1
node 34 1 1 1
node 35 1 1 1
node 36 1 1 1
node 37 1 1 1
node 38 1 1 1
node 39 1 1 1
node 40 1 1 1
node 41 1 1 3
node 42 1 0 2
node 43 1 0 2
node 44 1 0 2
node 45 1 0 2
gene 1 1 42 -0.758896 0 1 -0.758896 1
gene 1 1 43 0.0240269 0 2 0.0240269 1
gene 1 1 44 -3.00874 0 3 -3.00874 1
gene 1 1 45 1.05094 0 4 1.05094 1
gene 1 2 42 -0.08653 0 5 -0.08653 1
gene 1 2 43 -0.645389 0 6 -0.645389 1
gene 1 2 44 -1.23152 0 7 -1.23152 1
gene 1 2 45 -1.62006 0 8 -1.62006 1
gene 1 3 42 0.0833574 0 9 0.0833574 1
gene 1 3 43 0.416316 0 10 0.416316 1
gene 1 3 44 0.508597 0 11 0.508597 1
gene 1 3 45 -0.314265 0 12 -0.314265 1
gene 1 4 42 -0.833238 0 13 -0.833238 1
gene 1 4 43 1.26064 0 14 1.26064 1
gene 1 4 44 0.222709 0 15 0.222709 1
gene 1 4 45 0.894302 0 16 0.894302 1
gene 1 5 42 -0.741046 0 17 -0.741046 1
gene 1 5 43 1.74369 0 18 1.74369 1
gene 1 5 44 1.33089 0 19 1.33089 1
gene 1 5 45 0.116517 0 20 0.116517 1
gene 1 6 42 -0.315659 0 21 -0.315659 1
gene 1 6 43 -3.57179 0 22 -3.57179 1
gene 1 6 44 0.00854361 0 23 0.00854361 1
gene 1 6 45 -2.78867 0 24 -2.78867 1
gene 1 7 42 1.74897 0 25 1.74897 1
gene 1 7 43 0.521382 0 26 0.521382 1
gene 1 7 44 -0.409963 0 27 -0.409963 1
gene 1 7 45 -2.91501 0 28 -2.91501 1
gene 1 8 42 -0.68511 0 29 -0.68511 1
gene 1 8 43 1.17662 0 30 1.17662 1
gene 1 8 44 -0.873771 0 31 -0.873771 1
gene 1 8 45 1.65579 0 32 1.65579 1
gene 1 9 42 -0.397595 0 33 -0.397595 1
gene 1 9 43 1.29074 0 34 1.29074 1
gene 1 9 44 5 0 35 5 1
gene 1 9 45 -2.36269 0 36 -2.36269 1
gene 1 10 42 -2.01542 0 37 -2.01542 1
gene 1 10 43 -2.45546 0 38 -2.45546 1
gene 1 10 44 0.967655 0 39 0.967655 1
gene 1 10 45 -1.27351 0 40 -1.27351 1
gene 1 11 42 4.74115 0 41 4.74115 1
gene 1 11 43 -4.79354 0 42 -4.79354 1
gene 1 11 44 4.08988 0 43 4.08988 1
gene 1 11 45 -0.423277 0 44 -0.423277 1
gene 1 12 42 0.362172 0 45 0.362172 1
gene 1 12 43 0.914461 0 46 0.914461 1
gene 1 12 44 -0.508205 0 47 -0.508205 1
gene 1 12 45 -1.16336 0 48 -1.16336 1
gene 1 13 42 -0.712298 0 49 -0.712298 1
gene 1 13 43 -0.624213 0 50 -0.624213 1
gene 1 13 44 0.950786 0 51 0.950786 1
gene 1 13 45 -1.14556 0 52 -1.14556 1
gene 1 14 42 0.837196 0 53 0.837196 1
gene 1 14 43 -0.56219 0 54 -0.56219 1
gene 1 14 44 1.24763 0 55 1.24763 1
gene 1 14 45 -2.73543 0 56 -2.73543 1
gene 1 15 42 3.33284 0 57 3.33284 1
gene 1 15 43 -0.858688 0 58 -0.858688 1
gene 1 15 44 -0.997146 0 59 -0.997146 1
gene 1 15 45 0.305342 0 60 0.305342 1
gene 1 16 42 -0.540987 0 61 -0.540987 1
gene 1 16 43 0.398107 0 62 0.398107 1
gene 1 16 44 0.667356 0 63 0.667356 1
gene 1 16 45 -3.68297 0 64 -3.68297 1
gene 1 17 42 -0.665358 0 65 -0.665358 1
gene 1 17 43 2.51597 0 66 2.51597 1
gene 1 17 44 -2.85793 0 67 -2.85793 1
gene 1 17 45 3.33405 0 68 3.33405 1
gene 1 18 42 1.2485 0 69 1.2485 1
gene 1 18 43 -2.5404 0 70 -2.5404 1
gene 1 18 44 -1.3076 0 71 -1.3076 1
gene 1 18 45 1.46709 0 72 1.46709 1
gene 1 19 42 2.69779 0 73 2.69779 1
gene 1 19 43 0.918912 0 74 0.918912 1
gene 1 19 44 0.747328 0 75 0.747328 1
gene 1 19 45 -0.88525 0 76 -0.88525 1
gene 1 20 42 -2.97748 0 77 -2.97748 1
gene 1 20 43 -1.29353 0 78 -1.29353 1
gene 1 20 44 1.50117 0 79 1.50117 1
gene 1 20 45 0.405224 0 80 0.405224 1
gene 1 21 42 -0.478976 0 81 -0.478976 1
gene 1 21 43 -0.693725 0 82 -0.693725 1
gene 1 21 44 -0.555046 0 83 -0.555046 1
gene 1 21 45 3.40036 0 84 3.40036 1
gene 1 22 42 0.656476 0 85 0.656476 1
gene 1 22 43 3.66358 0 86 3.66358 1
gene 1 22 44 1.8504 0 87 1.8504 1
gene 1 22 45 -0.615298 0 88 -0.615298 1
gene 1 23 42 0.637532 0 89 0.637532 1
gene 1 23 43 2.23283 0 90 2.23283 1
gene 1 23 44 1.45142 0 91 1.45142 1
gene 1 23 45 -0.396932 0 92 -0.396932 1
gene 1 24 42 0.191524 0 93 0.191524 1
gene 1 24 43 3.19659 0 94 3.19659 1
gene 1 24 44 -0.039663 0 95 -0.039663 1
gene 1 24 45 1.35146 0 96 1.35146 1
gene 1 25 42 2.51444 0 97 2.51444 1
gene 1 25 43 5 0 98 5 1
gene 1 25 44 0.763726 0 99 0.763726 1
gene 1 25 45 0.080079 0 100 0.080079 1
gene 1 26 42 -0.102625 0 101 -0.102625 1
gene 1 26 43 3.72351 0 102 3.72351 1
gene 1 26 44 0.523313 0 103 0.523313 1
gene 1 26 45 -2.00583 0 104 -2.00583 1
gene 1 27 42 -0.0757769 0 105 -0.0757769 1
gene 1 27 43 -1.74081 0 106 -1.74081 1
gene 1 27 44 -3.45534 0 107 -3.45534 1
gene 1 27 45 1.21127 0 108 1.21127 1
gene 1 28 42 2.10127 0 109 2.10127 1
gene 1 28 43 -1.34506 0 110 -1.34506 1
gene 1 28 44 0.0562616 0 111 0.0562616 1
gene 1 28 45 -4.41716 0 112 -4.41716 1
gene 1 29 42 -0.242759 0 113 -0.242759 1
gene 1 29 43 -1.43574 0 114 -1.43574 1
gene 1 29 44 -2.70494 0 115 -2.70494 1
gene 1 29 45 -2.84418 0 116 -2.84418 1
gene 1 30 42 1.35002 0 117 1.35002 1
gene 1 30 43 -2.7169 0 118 -2.7169 1
gene 1 30 44 -2.03206 0 119 -2.03206 1
gene 1 30 45 -1.98521 0 120 -1.98521 1
gene 1 31 42 -0.926981 0 121 -0.926981 1
gene 1 31 43 1.3531 0 122 1.3531 1
gene 1 31 44 0.173774 0 123 0.173774 1
gene 1 31 45 -4.26879 0 124 -4.26879 1
gene 1 32 42 0.185313 0 125 0.185313 1
gene 1 32 43 -2.86053 0 126 -2.86053 1
gene 1 32 44 -1.84872 0 127 -1.84872 1
gene 1 32 45 3.6884 0 128 3.6884 1
gene 1 33 42 -2.12387 0 129 -2.12387 1
gene 1 33 43 -2.30171 0 130 -2.30171 1
gene 1 33 44 -2.73594 0 131 -2.73594 1
gene 1 33 45 -3.31875 0 132 -3.31875 1
gene 1 34 42 0.337034 0 133 0.337034 1
gene 1 34 43 0.469672 0 134 0.469672 1
gene 1 34 44 -0.073214 0 135 -0.073214 1
gene 1 34 45 -0.716385 0 136 -0.716385 1
gene 1 35 42 1.12215 0 137 1.12215 1
gene 1 35 43 -0.703327 0 138 -0.703327 1
gene 1 35 44 -0.0506853 0 139 -0.0506853 1
gene 1 35 45 -1.81729 0 140 -1.81729 1
gene 1 36 42 1.4968 0 141 1.4968 1
gene 1 36 43 0.273212 0 142 0.273212 1
gene 1 36 44 -0.0782146 0 143 -0.0782146 1
gene 1 36 45 -0.0121414 0 144 -0.0121414 1
gene 1 37 42 -0.46161 0 145 -0.46161 1
gene 1 37 43 0.595881 0 146 0.595881 1
gene 1 37 44 -0.135769 0 147 -0.135769 1
gene 1 37 45 -0.521301 0 148 -0.521301 1
gene 1 38 42 0.568822 0 149 0.568822 1
gene 1 38 43 -0.457418 0 150 -0.457418 1
gene 1 38 44 0.747959 0 151 0.747959 1
gene 1 38 45 -0.110669 0 152 -0.110669 1
gene 1 39 42 1.17208 0 153 1.17208 1
gene 1 39 43 0.562032 0 154 0.562032 1
gene 1 39 44 0.203109 0 155 0.203109 1
gene 1 39 45 -0.111923 0 156 -0.111923 1
gene 1 40 42 -0.811854 0 157 -0.811854 1
gene 1 40 43 -0.108388 0 158 -0.108388 1
gene 1 40 44 0.836883 0 159 0.836883 1
gene 1 40 45 0.453725 0 160 0.453725 1
gene 1 41 42 4.12022 0 161 4.12022 1
gene 1 41 43 0.427106 0 162 0.427106 1
gene 1 41 44 -1.95186 0 163 -1.95186 1
gene 1 41 45 -0.80994 0 164 -0.80994 1
genomeend 1


