/* Organism #3 Fitness: -1311.980000 Time: 0 */
genomestart 3
trait 1 0.100000 0.917873 0.000000 0.000000 0.000000 0.000000 0.166395 0.256864 
node 1 1 1 1
node 2 1 1 1
node 3 1 1 1
node 4 1 1 1
node 5 1 1 1
node 6 1 1 1
node 7 1 1 1
node 8 1 1 1
node 9 1 1 1
node 10 1 1 1
node 11 1 1 1
node 12 1 1 1
node 13 1 1 1
node 14 1 1 1
node 15 1 1 1
node 16 1 1 1
node 17 1 1 1
node 18 1 1 1
node 19 1 1 1
node 20 1 1 1
node 21 1 1 1
node 22 1 1 1
node 23 1 1 1
node 24 1 1 1
node 25 1 1 1
node 26 1 1 1
node 27 1 1 1
node 28 1 1 1
node 29 1 1 1
node 30 1 1 1
node 31 1 1 1
node 32 1 1 1
node 33 1 1 1
node 34 1 1 1
node 35 1 1 1
node 36 1 1 1
node 37 1 1 1
node 38 1 1 1
node 39 1 1 1
node 40 1 1 1
node 41 1 1 3
node 42 1 0 2
node 43 1 0 2
node 44 1 0 2
node 45 1 0 2
gene 1 1 42 -4.82734 0 1 -4.82734 1
gene 1 1 43 -2.18228 0 2 -2.18228 1
gene 1 1 44 2.02881 0 3 2.02881 1
gene 1 1 45 -1.96801 0 4 -1.96801 1
gene 1 2 42 -1.54876 0 5 -1.54876 1
gene 1 2 43 -0.565441 0 6 -0.565441 1
gene 1 2 44 -2.13149 0 7 -2.13149 1
gene 1 2 45 2.45919 0 8 2.45919 1
gene 1 3 42 -5 0 9 -5 1
gene 1 3 43 2.75456 0 10 2.75456 1
gene 1 3 44 1.96124 0 11 1.96124 1
gene 1 3 45 -1.31306 0 12 -1.31306 1
gene 1 4 42 -0.315626 0 13 -0.315626 1
gene 1 4 43 2.21602 0 14 2.21602 1
gene 1 4 44 -1.33287 0 15 -1.33287 1
gene 1 4 45 -3.12914 0 16 -3.12914 1
gene 1 5 42 0.76259 0 17 0.76259 1
gene 1 5 43 -4.65565 0 18 -4.65565 1
gene 1 5 44 1.48901 0 19 1.48901 1
gene 1 5 45 -0.486969 0 20 -0.486969 1
gene 1 6 42 -0.756772 0 21 -0.756772 1
gene 1 6 43 -3.10665 0 22 -3.10665 1
gene 1 6 44 -1.30557 0 23 -1.30557 1
gene 1 6 45 1.8016 0 24 1.8016 1
gene 1 7 42 -1.94298 0 25 -1.94298 1
gene 1 7 43 -1.18036 0 26 -1.18036 1
gene 1 7 44 -1.45643 0 27 -1.45643 1
gene 1 7 45 0.270535 0 28 0.270535 1
gene 1 8 42 1.6791 0 29 1.6791 1
gene 1 8 43 -0.133587 0 30 -0.133587 1
gene 1 8 44 2.04384 0 31 2.04384 1
gene 1 8 45 1.23814 0 32 1.23814 1
gene 1 9 42 0.880841 0 33 0.880841 1
gene 1 9 43 4.38688 0 34 4.38688 1
gene 1 9 44 -4.03506 0 35 -4.03506 1
gene 1 9 45 2.93931 0 36 2.93931 1
gene 1 10 42 -2.2177 0 37 -2.2177 1
gene 1 10 43 2.87308 0 38 2.87308 1
gene 1 10 44 -1.00666 0 39 -1.00666 1
gene 1 10 45 2.07586 0 40 2.07586 1
gene 1 11 42 -1.11126 0 41 -1.11126 1
gene 1 11 43 4.93464 0 42 4.93464 1
gene 1 11 44 -4.14028 0 43 -4.14028 1
gene 1 11 45 4.79649 0 44 4.79649 1
gene 1 12 42 -0.995574 0 45 -0.995574 1
gene 1 12 43 -0.449067 0 46 -0.449067 1
gene 1 12 44 1.44776 0 47 1.44776 1
gene 1 12 45 -0.541733 0 48 -0.541733 1
gene 1 13 42 -4.90825 0 49 -4.90825 1
gene 1 13 43 1.66131 0 50 1.66131 1
gene 1 13 44 -1.06026 0 51 -1.06026 1
gene 1 13 45 2.55929 0 52 2.55929 1
gene 1 14 42 -2.98514 0 53 -2.98514 1
gene 1 14 43 0.270001 0 54 0.270001 1
gene 1 14 44 -2.5131 0 55 -2.5131 1
gene 1 14 45 -0.161507 0 56 -0.161507 1
gene 1 15 42 -0.444878 0 57 -0.444878 1
gene 1 15 43 2.14075 0 58 2.14075 1
gene 1 15 44 0.0643283 0 59 0.0643283 1
gene 1 15 45 1.74673 0 60 1.74673 1
gene 1 16 42 -3.40587 0 61 -3.40587 1
gene 1 16 43 0.0477601 0 62 0.0477601 1
gene 1 16 44 -0.282636 0 63 -0.282636 1
gene 1 16 45 -0.826014 0 64 -0.826014 1
gene 1 17 42 -1.4785 0 65 -1.4785 1
gene 1 17 43 4.74842 0 66 4.74842 1
gene 1 17 44 -0.160957 0 67 -0.160957 1
gene 1 17 45 -2.16917 0 68 -2.16917 1
gene 1 18 42 -1.29853 0 69 -1.29853 1
gene 1 18 43 1.30506 0 70 1.30506 1
gene 1 18 44 0.634143 0 71 0.634143 1
gene 1 18 45 -0.221369 0 72 -0.221369 1
gene 1 19 42 -4.28143 0 73 -4.28143 1
gene 1 19 43 2.5429 0 74 2.5429 1
gene 1 19 44 1.32591 0 75 1.32591 1
gene 1 19 45 -1.05703 0 76 -1.05703 1
gene 1 20 42 0.75718 0 77 0.75718 1
gene 1 20 43 -2.48625 0 78 -2.48625 1
gene 1 20 44 5 0 79 5 1
gene 1 20 45 -0.188377 0 80 -0.188377 1
gene 1 21 42 -0.187031 0 81 -0.187031 1
gene 1 21 43 -2.88929 0 82 -2.88929 1
gene 1 21 44 1.67513 0 83 1.67513 1
gene 1 21 45 -2.4353 0 84 -2.4353 1
gene 1 22 42 0.715446 0 85 0.715446 1
gene 1 22 43 1.82024 0 86 1.82024 1
gene 1 22 44 -0.655383 0 87 -0.655383 1
gene 1 22 45 -0.388049 0 88 -0.388049 1
gene 1 23 42 3.43446 0 89 3.43446 1
gene 1 23 43 -0.0134554 0 90 -0.0134554 1
gene 1 23 44 -3.4046 0 91 -3.4046 1
gene 1 23 45 -0.209623 0 92 -0.209623 1
gene 1 24 42 -1.87421 0 93 -1.87421 1
gene 1 24 43 -3.18129 0 94 -3.18129 1
gene 1 24 44 3.33492 0 95 3.33492 1
gene 1 24 45 -1.47822 0 96 -1.47822 1
gene 1 25 42 0.951815 0 97 0.951815 1
gene 1 25 43 -0.634465 0 98 -0.634465 1
gene 1 25 44 -3.61803 0 99 -3.61803 1
gene 1 25 45 0.691198 0 100 0.691198 1
gene 1 26 42 4.23734 0 101 4.23734 1
gene 1 26 43 -0.913051 0 102 -0.913051 1
gene 1 26 44 -4.6911 0 103 -4.6911 1
gene 1 26 45 -3.79627 0 104 -3.79627 1
gene 1 27 42 -1.45302 0 105 -1.45302 1
gene 1 27 43 4.71861 0 106 4.71861 1
gene 1 27 44 -0.507707 0 107 -0.507707 1
gene 1 27 45 3.56818 0 108 3.56818 1
gene 1 28 42 0.384525 0 109 0.384525 1
gene 1 28 43 1.72949 0 110 1.72949 1
gene 1 28 44 -1.40714 0 111 -1.40714 1
gene 1 28 45 0.618426 0 112 0.618426 1
gene 1 29 42 -0.857617 0 113 -0.857617 1
gene 1 29 43 -0.500548 0 114 -0.500548 1
gene 1 29 44 -2.77556 0 115 -2.77556 1
gene 1 29 45 -0.93505 0 116 -0.93505 1
gene 1 30 42 1.55954 0 117 1.55954 1
gene 1 30 43 0.624528 0 118 0.624528 1
gene 1 30 44 -3.12984 0 119 -3.12984 1
gene 1 30 45 -3.2189 0 120 -3.2189 1
gene 1 31 42 0.376524 0 121 0.376524 1
gene 1 31 43 -1.44421 0 122 -1.44421 1
gene 1 31 44 -0.131952 0 123 -0.131952 1
gene 1 31 45 0.144193 0 124 0.144193 1
gene 1 32 42 -2.43637 0 125 -2.43637 1
gene 1 32 43 -1.99833 0 126 -1.99833 1
gene 1 32 44 1.81863 0 127 1.81863 1
gene 1 32 45 1.82835 0 128 1.82835 1
gene 1 33 42 1.1242 0 129 1.1242 1
gene 1 33 43 2.92016 0 130 2.92016 1
gene 1 33 44 -2.24706 0 131 -2.24706 1
gene 1 33 45 -0.236904 0 132 -0.236904 1
gene 1 34 42 -0.362417 0 133 -0.362417 1
gene 1 34 43 0.639373 0 134 0.639373 1
gene 1 34 44 -3.95205 0 135 -3.95205 1
gene 1 34 45 -0.511709 0 136 -0.511709 1
gene 1 35 42 -1.39525 0 137 -1.39525 1
gene 1 35 43 0.33596 0 138 0.33596 1
gene 1 35 44 -0.422387 0 139 -0.422387 1
gene 1 35 45 -0.34936 0 140 -0.34936 1
gene 1 36 42 1.76525 0 141 1.76525 1
gene 1 36 43 -0.497504 0 142 -0.497504 1
gene 1 36 44 -0.655947 0 143 -0.655947 1
gene 1 36 45 -0.360198 0 144 -0.360198 1
gene 1 37 42 0.521035 0 145 0.521035 1
gene 1 37 43 -0.276281 0 146 -0.276281 1
gene 1 37 44 0.365404 0 147 0.365404 1
gene 1 37 45 -0.185701 0 148 -0.185701 1
gene 1 38 42 0.59083 0 149 0.59083 1
gene 1 38 43 -1.23688 0 150 -1.23688 1
gene 1 38 44 -0.291721 0 151 -0.291721 1
gene 1 38 45 -0.942853 0 152 -0.942853 1
gene 1 39 42 0.478068 0 153 0.478068 1
gene 1 39 43 -1.32769 0 154 -1.32769 1
gene 1 39 44 0.116685 0 155 0.116685 1
gene 1 39 45 1.61677 0 156 1.61677 1
gene 1 40 42 0.0265371 0 157 0.0265371 1
gene 1 40 43 -0.497907 0 158 -0.497907 1
gene 1 40 44 -0.806274 0 159 -0.806274 1
gene 1 40 45 0.39724 0 160 0.39724 1
gene 1 41 42 -0.833673 0 161 -0.833673 1
gene 1 41 43 -0.118812 0 162 -0.118812 1
gene 1 41 44 2.75275 0 163 2.75275 1
gene 1 41 45 -1.28767 0 164 -1.28767 1
genomeend 3


