/* Organism #7 Fitness: -1344.130000 Time: 0 */
genomestart 7
trait 1 0.100000 0.913028 0.000000 0.000000 0.851607 0.000000 1.000000 0.000000 
node 1 1 1 1
node 2 1 1 1
node 3 1 1 1
node 4 1 1 1
node 5 1 1 1
node 6 1 1 1
node 7 1 1 1
node 8 1 1 1
node 9 1 1 1
node 10 1 1 1
node 11 1 1 1
node 12 1 1 1
node 13 1 1 1
node 14 1 1 1
node 15 1 1 1
node 16 1 1 1
node 17 1 1 1
node 18 1 1 1
node 19 1 1 1
node 20 1 1 1
node 21 1 1 1
node 22 1 1 1
node 23 1 1 1
node 24 1 1 1
node 25 1 1 1
node 26 1 1 1
node 27 1 1 1
node 28 1 1 1
node 29 1 1 1
node 30 1 1 1
node 31 1 1 1
node 32 1 1 1
node 33 1 1 1
node 34 1 1 1
node 35 1 1 1
node 36 1 1 1
node 37 1 1 1
node 38 1 1 1
node 39 1 1 1
node 40 1 1 1
node 41 1 1 3
node 42 1 0 2
node 43 1 0 2
node 44 1 0 2
node 45 1 0 2
gene 1 1 42 2.07221 0 1 2.07221 1
gene 1 1 43 1.13882 0 2 1.13882 1
gene 1 1 44 0.358134 0 3 0.358134 1
gene 1 1 45 2.84633 0 4 2.84633 1
gene 1 2 42 4.93022 0 5 4.93022 1
gene 1 2 43 -4.03366 0 6 -4.03366 1
gene 1 2 44 -1.27986 0 7 -1.27986 1
gene 1 2 45 -0.729131 0 8 -0.729131 1
gene 1 3 42 -1.40421 0 9 -1.40421 1
gene 1 3 43 1.56506 0 10 1.56506 1
gene 1 3 44 2.26811 0 11 2.26811 1
gene 1 3 45 0.720458 0 12 0.720458 1
gene 1 4 42 0.0560267 0 13 0.0560267 1
gene 1 4 43 -0.0118234 0 14 -0.0118234 1
gene 1 4 44 0.378258 0 15 0.378258 1
gene 1 4 45 -2.16721 0 16 -2.16721 1
gene 1 5 42 -0.0617593 0 17 -0.0617593 1
gene 1 5 43 -4.06818 0 18 -4.06818 1
gene 1 5 44 1.63223 0 19 1.63223 1
gene 1 5 45 -1.83842 0 20 -1.83842 1
gene 1 6 42 -4.25931 0 21 -4.25931 1
gene 1 6 43 -2.92583 0 22 -2.92583 1
gene 1 6 44 1.40017 0 23 1.40017 1
gene 1 6 45 -0.0257225 0 24 -0.0257225 1
gene 1 7 42 1.65269 0 25 1.65269 1
gene 1 7 43 -2.94003 0 26 -2.94003 1
gene 1 7 44 3.24649 0 27 3.24649 1
gene 1 7 45 -0.10105 0 28 -0.10105 1
gene 1 8 42 -1.91647 0 29 -1.91647 1
gene 1 8 43 0.274707 0 30 0.274707 1
gene 1 8 44 0.636049 0 31 0.636049 1
gene 1 8 45 2.6498 0 32 2.6498 1
gene 1 9 42 -0.287501 0 33 -0.287501 1
gene 1 9 43 -4.28894 0 34 -4.28894 1
gene 1 9 44 3.13306 0 35 3.13306 1
gene 1 9 45 -2.73734 0 36 -2.73734 1
gene 1 10 42 3.16746 0 37 3.16746 1
gene 1 10 43 -1.12128 0 38 -1.12128 1
gene 1 10 44 1.12697 0 39 1.12697 1
gene 1 10 45 -4.38649 0 40 -4.38649 1
gene 1 11 42 -1.4973 0 41 -1.4973 1
gene 1 11 43 -1.15945 0 42 -1.15945 1
gene 1 11 44 5 0 43 5 1
gene 1 11 45 -4.81567 0 44 -4.81567 1
gene 1 12 42 -2.79181 0 45 -2.79181 1
gene 1 12 43 3.12413 0 46 3.12413 1
gene 1 12 44 5 0 47 5 1
gene 1 12 45 2.30909 0 48 2.30909 1
gene 1 13 42 3.39827 0 49 3.39827 1
gene 1 13 43 -2.63304 0 50 -2.63304 1
gene 1 13 44 -0.573786 0 51 -0.573786 1
gene 1 13 45 -2.65577 0 52 -2.65577 1
gene 1 14 42 0.994564 0 53 0.994564 1
gene 1 14 43 -0.805644 0 54 -0.805644 1
gene 1 14 44 3.62069 0 55 3.62069 1
gene 1 14 45 1.21874 0 56 1.21874 1
gene 1 15 42 2.21109 0 57 2.21109 1
gene 1 15 43 -1.02146 0 58 -1.02146 1
gene 1 15 44 1.50889 0 59 1.50889 1
gene 1 15 45 -1.39942 0 60 -1.39942 1
gene 1 16 42 0.89717 0 61 0.89717 1
gene 1 16 43 -3.36634 0 62 -3.36634 1
gene 1 16 44 0.0281637 0 63 0.0281637 1
gene 1 16 45 -1.29546 0 64 -1.29546 1
gene 1 17 42 -0.63504 0 65 -0.63504 1
gene 1 17 43 0.26138 0 66 0.26138 1
gene 1 17 44 3.55178 0 67 3.55178 1
gene 1 17 45 4.52685 0 68 4.52685 1
gene 1 18 42 -0.723377 0 69 -0.723377 1
gene 1 18 43 -0.674487 0 70 -0.674487 1
gene 1 18 44 0.0550793 0 71 0.0550793 1
gene 1 18 45 0.302642 0 72 0.302642 1
gene 1 19 42 -2.66538 0 73 -2.66538 1
gene 1 19 43 0.943406 0 74 0.943406 1
gene 1 19 44 -4.54337 0 75 -4.54337 1
gene 1 19 45 -1.72829 0 76 -1.72829 1
gene 1 20 42 1.62619 0 77 1.62619 1
gene 1 20 43 0.647764 0 78 0.647764 1
gene 1 20 44 4.6386 0 79 4.6386 1
gene 1 20 45 -0.790718 0 80 -0.790718 1
gene 1 21 42 -4.57974 0 81 -4.57974 1
gene 1 21 43 -0.600582 0 82 -0.600582 1
gene 1 21 44 -3.58064 0 83 -3.58064 1
gene 1 21 45 -4.82932 0 84 -4.82932 1
gene 1 22 42 -2.3936 0 85 -2.3936 1
gene 1 22 43 -2.00874 0 86 -2.00874 1
gene 1 22 44 1.70316 0 87 1.70316 1
gene 1 22 45 -0.89918 0 88 -0.89918 1
gene 1 23 42 0.177294 0 89 0.177294 1
gene 1 23 43 -0.482359 0 90 -0.482359 1
gene 1 23 44 -0.325097 0 91 -0.325097 1
gene 1 23 45 2.86436 0 92 2.86436 1
gene 1 24 42 -3.96693 0 93 -3.96693 1
gene 1 24 43 -1.8842 0 94 -1.8842 1
gene 1 24 44 -2.42585 0 95 -2.42585 1
gene 1 24 45 -3.97718 0 96 -3.97718 1
gene 1 25 42 -0.237146 0 97 -0.237146 1
gene 1 25 43 0.0518442 0 98 0.0518442 1
gene 1 25 44 0.580154 0 99 0.580154 1
gene 1 25 45 -0.571619 0 100 -0.571619 1
gene 1 26 42 3.62106 0 101 3.62106 1
gene 1 26 43 2.27741 0 102 2.27741 1
gene 1 26 44 1.4221 0 103 1.4221 1
gene 1 26 45 2.13816 0 104 2.13816 1
gene 1 27 42 0.151807 0 105 0.151807 1
gene 1 27 43 -0.28839 0 106 -0.28839 1
gene 1 27 44 1.23207 0 107 1.23207 1
gene 1 27 45 0.164931 0 108 0.164931 1
gene 1 28 42 -0.6479 0 109 -0.6479 1
gene 1 28 43 -1.72237 0 110 -1.72237 1
gene 1 28 44 0.890834 0 111 0.890834 1
gene 1 28 45 1.55533 0 112 1.55533 1
gene 1 29 42 -0.870028 0 113 -0.870028 1
gene 1 29 43 -1.59806 0 114 -1.59806 1
gene 1 29 44 2.65352 0 115 2.65352 1
gene 1 29 45 1.35117 0 116 1.35117 1
gene 1 30 42 -0.614302 0 117 -0.614302 1
gene 1 30 43 -2.34372 0 118 -2.34372 1
gene 1 30 44 3.18824 0 119 3.18824 1
gene 1 30 45 -1.00327 0 120 -1.00327 1
gene 1 31 42 1.26328 0 121 1.26328 1
gene 1 31 43 -0.273407 0 122 -0.273407 1
gene 1 31 44 2.57816 0 123 2.57816 1
gene 1 31 45 0.63067 0 124 0.63067 1
gene 1 32 42 -0.502115 0 125 -0.502115 1
gene 1 32 43 -0.37109 0 126 -0.37109 1
gene 1 32 44 -1.30131 0 127 -1.30131 1
gene 1 32 45 -1.06194 0 128 -1.06194 1
gene 1 33 42 2.25902 0 129 2.25902 1
gene 1 33 43 0.192616 0 130 0.192616 1
gene 1 33 44 0.0226231 0 131 0.0226231 1
gene 1 33 45 0.409046 0 132 0.409046 1
gene 1 34 42 0.419489 0 133 0.419489 1
gene 1 34 43 0.280638 0 134 0.280638 1
gene 1 34 44 -1.53521 0 135 -1.53521 1
gene 1 34 45 -0.0123837 0 136 -0.0123837 1
gene 1 35 42 0.989476 0 137 0.989476 1
gene 1 35 43 0.200621 0 138 0.200621 1
gene 1 35 44 0.060799 0 139 0.060799 1
gene 1 35 45 0.725554 0 140 0.725554 1
gene 1 36 42 -0.689161 0 141 -0.689161 1
gene 1 36 43 -0.57907 0 142 -0.57907 1
gene 1 36 44 1.67914 0 143 1.67914 1
gene 1 36 45 -0.59953 0 144 -0.59953 1
gene 1 37 42 0.327241 0 145 0.327241 1
gene 1 37 43 0.703269 0 146 0.703269 1
gene 1 37 44 -0.578488 0 147 -0.578488 1
gene 1 37 45 0.0950954 0 148 0.0950954 1
gene 1 38 42 -1.92747 0 149 -1.92747 1
gene 1 38 43 0.373631 0 150 0.373631 1
gene 1 38 44 -2.10666 0 151 -2.10666 1
gene 1 38 45 0.367358 0 152 0.367358 1
gene 1 39 42 -1.57834 0 153 -1.57834 1
gene 1 39 43 0.536996 0 154 0.536996 1
gene 1 39 44 1.06467 0 155 1.06467 1
gene 1 39 45 0.294826 0 156 0.294826 1
gene 1 40 42 -1.74415 0 157 -1.74415 1
gene 1 40 43 0.0438434 0 158 0.0438434 1
gene 1 40 44 -0.584488 0 159 -0.584488 1
gene 1 40 45 -1.85234 0 160 -1.85234 1
gene 1 41 42 2.56993 0 161 2.56993 1
gene 1 41 43 -2.14197 0 162 -2.14197 1
gene 1 41 44 -0.813171 0 163 -0.813171 1
gene 1 41 45 3.13339 0 164 3.13339 1
genomeend 7


