/* Organism #3 Fitness: -1351.890000 Time: 0 */
genomestart 3
trait 1 0.402080 0.000000 0.000000 0.425000 0.887315 0.294065 0.000000 0.000000 
node 1 1 1 1
node 2 1 1 1
node 3 1 1 1
node 4 1 1 1
node 5 1 1 1
node 6 1 1 1
node 7 1 1 1
node 8 1 1 1
node 9 1 1 1
node 10 1 1 1
node 11 1 1 1
node 12 1 1 1
node 13 1 1 1
node 14 1 1 1
node 15 1 1 1
node 16 1 1 1
node 17 1 1 1
node 18 1 1 1
node 19 1 1 1
node 20 1 1 1
node 21 1 1 1
node 22 1 1 1
node 23 1 1 1
node 24 1 1 1
node 25 1 1 1
node 26 1 1 1
node 27 1 1 1
node 28 1 1 1
node 29 1 1 1
node 30 1 1 1
node 31 1 1 1
node 32 1 1 1
node 33 1 1 1
node 34 1 1 1
node 35 1 1 1
node 36 1 1 1
node 37 1 1 1
node 38 1 1 1
node 39 1 1 1
node 40 1 1 1
node 41 1 1 3
node 42 1 0 2
node 43 1 0 2
node 44 1 0 2
node 45 1 0 2
gene 1 1 42 1.03753 0 1 1.03753 1
gene 1 1 43 -1.08479 0 2 -1.08479 1
gene 1 1 44 2.41992 0 3 2.41992 1
gene 1 1 45 -5 0 4 -5 1
gene 1 2 42 -2.3332 0 5 -2.3332 1
gene 1 2 43 0.73771 0 6 0.73771 1
gene 1 2 44 -2.8141 0 7 -2.8141 1
gene 1 2 45 1.22112 0 8 1.22112 1
gene 1 3 42 -3.39262 0 9 -3.39262 1
gene 1 3 43 2.70859 0 10 2.70859 1
gene 1 3 44 2.04458 0 11 2.04458 1
gene 1 3 45 3.2867 0 12 3.2867 1
gene 1 4 42 0.312872 0 13 0.312872 1
gene 1 4 43 4.55994 0 14 4.55994 1
gene 1 4 44 1.49359 0 15 1.49359 1
gene 1 4 45 0.153636 0 16 0.153636 1
gene 1 5 42 -2.92856 0 17 -2.92856 1
gene 1 5 43 3.71001 0 18 3.71001 1
gene 1 5 44 4.2604 0 19 4.2604 1
gene 1 5 45 1.27075 0 20 1.27075 1
gene 1 6 42 2.75684 0 21 2.75684 1
gene 1 6 43 4.48743 0 22 4.48743 1
gene 1 6 44 0.680215 0 23 0.680215 1
gene 1 6 45 2.08149 0 24 2.08149 1
gene 1 7 42 -1.99632 0 25 -1.99632 1
gene 1 7 43 2.65389 0 26 2.65389 1
gene 1 7 44 -1.40271 0 27 -1.40271 1
gene 1 7 45 0.73737 0 28 0.73737 1
gene 1 8 42 -0.645178 0 29 -0.645178 1
gene 1 8 43 1.48121 0 30 1.48121 1
gene 1 8 44 0.76344 0 31 0.76344 1
gene 1 8 45 -0.198839 0 32 -0.198839 1
gene 1 9 42 -3.33191 0 33 -3.33191 1
gene 1 9 43 -1.04419 0 34 -1.04419 1
gene 1 9 44 -3.58594 0 35 -3.58594 1
gene 1 9 45 3.97463 0 36 3.97463 1
gene 1 10 42 -4.63898 0 37 -4.63898 1
gene 1 10 43 -1.62861 0 38 -1.62861 1
gene 1 10 44 -5 0 39 -5 1
gene 1 10 45 4.03308 0 40 4.03308 1
gene 1 11 42 -1.83294 0 41 -1.83294 1
gene 1 11 43 2.37515 0 42 2.37515 1
gene 1 11 44 -5 0 43 -5 1
gene 1 11 45 4.7376 0 44 4.7376 1
gene 1 12 42 -5 0 45 -5 1
gene 1 12 43 2.59151 0 46 2.59151 1
gene 1 12 44 2.20637 0 47 2.20637 1
gene 1 12 45 1.77918 0 48 1.77918 1
gene 1 13 42 -1.71139 0 49 -1.71139 1
gene 1 13 43 -1.91204 0 50 -1.91204 1
gene 1 13 44 0.91025 0 51 0.91025 1
gene 1 13 45 -0.378846 0 52 -0.378846 1
gene 1 14 42 -2.67144 0 53 -2.67144 1
gene 1 14 43 5 0 54 5 1
gene 1 14 44 -0.0657944 0 55 -0.0657944 1
gene 1 14 45 -0.924212 0 56 -0.924212 1
gene 1 15 42 -0.62533 0 57 -0.62533 1
gene 1 15 43 -0.149891 0 58 -0.149891 1
gene 1 15 44 -2.44062 0 59 -2.44062 1
gene 1 15 45 1.12158 0 60 1.12158 1
gene 1 16 42 -4.21544 0 61 -4.21544 1
gene 1 16 43 0.363845 0 62 0.363845 1
gene 1 16 44 -1.07515 0 63 -1.07515 1
gene 1 16 45 0.176794 0 64 0.176794 1
gene 1 17 42 -0.37005 0 65 -0.37005 1
gene 1 17 43 1.28201 0 66 1.28201 1
gene 1 17 44 -3.56667 0 67 -3.56667 1
gene 1 17 45 -2.32121 0 68 -2.32121 1
gene 1 18 42 1.01736 0 69 1.01736 1
gene 1 18 43 2.68808 0 70 2.68808 1
gene 1 18 44 -0.759669 0 71 -0.759669 1
gene 1 18 45 -0.857918 0 72 -0.857918 1
gene 1 19 42 2.53947 0 73 2.53947 1
gene 1 19 43 1.66829 0 74 1.66829 1
gene 1 19 44 3.53651 0 75 3.53651 1
gene 1 19 45 3.97486 0 76 3.97486 1
gene 1 20 42 0.156689 0 77 0.156689 1
gene 1 20 43 0.827886 0 78 0.827886 1
gene 1 20 44 0.344529 0 79 0.344529 1
gene 1 20 45 -3.26324 0 80 -3.26324 1
gene 1 21 42 -1.81101 0 81 -1.81101 1
gene 1 21 43 0.0817345 0 82 0.0817345 1
gene 1 21 44 -5 0 83 -5 1
gene 1 21 45 -5 0 84 -5 1
gene 1 22 42 -3.87701 0 85 -3.87701 1
gene 1 22 43 -1.17257 0 86 -1.17257 1
gene 1 22 44 3.28903 0 87 3.28903 1
gene 1 22 45 -2.36319 0 88 -2.36319 1
gene 1 23 42 0.0745943 0 89 0.0745943 1
gene 1 23 43 -1.84991 0 90 -1.84991 1
gene 1 23 44 0.629772 0 91 0.629772 1
gene 1 23 45 2.80321 0 92 2.80321 1
gene 1 24 42 3.18493 0 93 3.18493 1
gene 1 24 43 2.43529 0 94 2.43529 1
gene 1 24 44 -2.77913 0 95 -2.77913 1
gene 1 24 45 -3.55954 0 96 -3.55954 1
gene 1 25 42 -1.66605 0 97 -1.66605 1
gene 1 25 43 3.0494 0 98 3.0494 1
gene 1 25 44 -0.650912 0 99 -0.650912 1
gene 1 25 45 1.9288 0 100 1.9288 1
gene 1 26 42 -0.706665 0 101 -0.706665 1
gene 1 26 43 -2.7734 0 102 -2.7734 1
gene 1 26 44 -0.867715 0 103 -0.867715 1
gene 1 26 45 -0.178363 0 104 -0.178363 1
gene 1 27 42 3.28899 0 105 3.28899 1
gene 1 27 43 -2.71326 0 106 -2.71326 1
gene 1 27 44 -1.53004 0 107 -1.53004 1
gene 1 27 45 -2.77565 0 108 -2.77565 1
gene 1 28 42 -2.96581 0 109 -2.96581 1
gene 1 28 43 -1.86788 0 110 -1.86788 1
gene 1 28 44 -1.23213 0 111 -1.23213 1
gene 1 28 45 -0.0279767 0 112 -0.0279767 1
gene 1 29 42 -3.24497 0 113 -3.24497 1
gene 1 29 43 2.42793 0 114 2.42793 1
gene 1 29 44 -2.99846 0 115 -2.99846 1
gene 1 29 45 -0.82356 0 116 -0.82356 1
gene 1 30 42 1.47109 0 117 1.47109 1
gene 1 30 43 1.08889 0 118 1.08889 1
gene 1 30 44 4.21401 0 119 4.21401 1
gene 1 30 45 -1.06534 0 120 -1.06534 1
gene 1 31 42 0.730047 0 121 0.730047 1
gene 1 31 43 -0.304541 0 122 -0.304541 1
gene 1 31 44 1.75593 0 123 1.75593 1
gene 1 31 45 -1.21487 0 124 -1.21487 1
gene 1 32 42 -1.77535 0 125 -1.77535 1
gene 1 32 43 0.200342 0 126 0.200342 1
gene 1 32 44 0.574905 0 127 0.574905 1
gene 1 32 45 -5 0 128 -5 1
gene 1 33 42 -3.58975 0 129 -3.58975 1
gene 1 33 43 5 0 130 5 1
gene 1 33 44 0.0596731 0 131 0.0596731 1
gene 1 33 45 -0.715172 0 132 -0.715172 1
gene 1 34 42 1.03883 0 133 1.03883 1
gene 1 34 43 -1.34194 0 134 -1.34194 1
gene 1 34 44 2.01924 0 135 2.01924 1
gene 1 34 45 -2.11874 0 136 -2.11874 1
gene 1 35 42 0.08302 0 137 0.08302 1
gene 1 35 43 -0.58438 0 138 -0.58438 1
gene 1 35 44 -2.14229 0 139 -2.14229 1
gene 1 35 45 1.17934 0 140 1.17934 1
gene 1 36 42 -0.412598 0 141 -0.412598 1
gene 1 36 43 0.426839 0 142 0.426839 1
gene 1 36 44 1.17956 0 143 1.17956 1
gene 1 36 45 -0.354353 0 144 -0.354353 1
gene 1 37 42 -0.463547 0 145 -0.463547 1
gene 1 37 43 0.471838 0 146 0.471838 1
gene 1 37 44 -0.798048 0 147 -0.798048 1
gene 1 37 45 -0.937215 0 148 -0.937215 1
gene 1 38 42 1.99016 0 149 1.99016 1
gene 1 38 43 1.37573 0 150 1.37573 1
gene 1 38 44 -1.3717 0 151 -1.3717 1
gene 1 38 45 0.154009 0 152 0.154009 1
gene 1 39 42 0.384358 0 153 0.384358 1
gene 1 39 43 -1.19433 0 154 -1.19433 1
gene 1 39 44 -1.61289 0 155 -1.61289 1
gene 1 39 45 -0.25655 0 156 -0.25655 1
gene 1 40 42 -1.10001 0 157 -1.10001 1
gene 1 40 43 -0.266622 0 158 -0.266622 1
gene 1 40 44 0.541405 0 159 0.541405 1
gene 1 40 45 0.219612 0 160 0.219612 1
gene 1 41 42 0.173531 0 161 0.173531 1
gene 1 41 43 0.819793 0 162 0.819793 1
gene 1 41 44 2.21068 0 163 2.21068 1
gene 1 41 45 -3.88384 0 164 -3.88384 1
genomeend 3


