/* Organism #2 Fitness: -1125.360000 Time: 0 */
genomestart 2
trait 1 0.000000 0.000000 0.000000 0.000000 0.000000 0.000000 0.000000 0.172424 
node 1 1 1 1
node 2 1 1 1
node 3 1 1 1
node 4 1 1 1
node 5 1 1 1
node 6 1 1 1
node 7 1 1 1
node 8 1 1 1
node 9 1 1 1
node 10 1 1 1
node 11 1 1 1
node 12 1 1 1
node 13 1 1 1
node 14 1 1 1
node 15 1 1 1
node 16 1 1 1
node 17 1 1 1
node 18 1 1 1
node 19 1 1 1
node 20 1 1 1
node 21 1 1 1
node 22 1 1 1
node 23 1 1 1
node 24 1 1 1
node 25 1 1 1
node 26 1 1 1
node 27 1 1 1
node 28 1 1 1
node 29 1 1 1
node 30 1 1 1
node 31 1 1 1
node 32 1 1 1
node 33 1 1 1
node 34 1 1 1
node 35 1 1 1
node 36 1 1 1
node 37 1 1 1
node 38 1 1 1
node 39 1 1 1
node 40 1 1 1
node 41 1 1 3
node 42 1 0 2
node 43 1 0 2
node 44 1 0 2
node 45 1 0 2
gene 1 1 42 4.51454 0 1 4.51454 1
gene 1 1 43 3.3497 0 2 3.3497 1
gene 1 1 44 -1.61769 0 3 -1.61769 1
gene 1 1 45 -0.412729 0 4 -0.412729 1
gene 1 2 42 -4.27093 0 5 -4.27093 1
gene 1 2 43 -0.384599 0 6 -0.384599 1
gene 1 2 44 3.85943 0 7 3.85943 1
gene 1 2 45 1.00191 0 8 1.00191 1
gene 1 3 42 0.841843 0 9 0.841843 1
gene 1 3 43 -0.293931 0 10 -0.293931 1
gene 1 3 44 1.14898 0 11 1.14898 1
gene 1 3 45 0.860116 0 12 0.860116 1
gene 1 4 42 0.543067 0 13 0.543067 1
gene 1 4 43 -1.21149 0 14 -1.21149 1
gene 1 4 44 1.23505 0 15 1.23505 1
gene 1 4 45 0.0240462 0 16 0.0240462 1
gene 1 5 42 -1.6693 0 17 -1.6693 1
gene 1 5 43 0.100521 0 18 0.100521 1
gene 1 5 44 -1.91336 0 19 -1.91336 1
gene 1 5 45 -1.16909 0 20 -1.16909 1
gene 1 6 42 0.0891867 0 21 0.0891867 1
gene 1 6 43 2.86032 0 22 2.86032 1
gene 1 6 44 -0.997431 0 23 -0.997431 1
gene 1 6 45 1.5092 0 24 1.5092 1
gene 1 7 42 0.390105 0 25 0.390105 1
gene 1 7 43 -1.88731 0 26 -1.88731 1
gene 1 7 44 -3.37073 0 27 -3.37073 1
gene 1 7 45 -0.0366192 0 28 -0.0366192 1
gene 1 8 42 1.67805 0 29 1.67805 1
gene 1 8 43 -3.88306 0 30 -3.88306 1
gene 1 8 44 0.426952 0 31 0.426952 1
gene 1 8 45 -0.863944 0 32 -0.863944 1
gene 1 9 42 -5 0 33 -5 1
gene 1 9 43 -1.25918 0 34 -1.25918 1
gene 1 9 44 1.42967 0 35 1.42967 1
gene 1 9 45 0.41957 0 36 0.41957 1
gene 1 10 42 3.15459 0 37 3.15459 1
gene 1 10 43 0.886841 0 38 0.886841 1
gene 1 10 44 0.642549 0 39 0.642549 1
gene 1 10 45 -1.131 0 40 -1.131 1
gene 1 11 42 1.01158 0 41 1.01158 1
gene 1 11 43 -4.41454 0 42 -4.41454 1
gene 1 11 44 -1.13694 0 43 -1.13694 1
gene 1 11 45 3.09278 0 44 3.09278 1
gene 1 12 42 3.22616 0 45 3.22616 1
gene 1 12 43 -1.56126 0 46 -1.56126 1
gene 1 12 44 -0.323769 0 47 -0.323769 1
gene 1 12 45 -0.00235681 0 48 -0.00235681 1
gene 1 13 42 -0.75699 0 49 -0.75699 1
gene 1 13 43 -1.56093 0 50 -1.56093 1
gene 1 13 44 -0.443392 0 51 -0.443392 1
gene 1 13 45 0.538193 0 52 0.538193 1
gene 1 14 42 0.805169 0 53 0.805169 1
gene 1 14 43 -1.76366 0 54 -1.76366 1
gene 1 14 44 1.75573 0 55 1.75573 1
gene 1 14 45 -0.869013 0 56 -0.869013 1
gene 1 15 42 0.0114621 0 57 0.0114621 1
gene 1 15 43 -0.0557804 0 58 -0.0557804 1
gene 1 15 44 0.971551 0 59 0.971551 1
gene 1 15 45 -1.38446 0 60 -1.38446 1
gene 1 16 42 0.808217 0 61 0.808217 1
gene 1 16 43 2.4323 0 62 2.4323 1
gene 1 16 44 2.76381 0 63 2.76381 1
gene 1 16 45 -0.952193 0 64 -0.952193 1
gene 1 17 42 -2.06802 0 65 -2.06802 1
gene 1 17 43 2.48561 0 66 2.48561 1
gene 1 17 44 0.574534 0 67 0.574534 1
gene 1 17 45 2.34863 0 68 2.34863 1
gene 1 18 42 0.229026 0 69 0.229026 1
gene 1 18 43 2.85485 0 70 2.85485 1
gene 1 18 44 0.223146 0 71 0.223146 1
gene 1 18 45 -3.30019 0 72 -3.30019 1
gene 1 19 42 -2.68263 0 73 -2.68263 1
gene 1 19 43 1.10219 0 74 1.10219 1
gene 1 19 44 0.303584 0 75 0.303584 1
gene 1 19 45 0.14193 0 76 0.14193 1
gene 1 20 42 4.23519 0 77 4.23519 1
gene 1 20 43 3.63226 0 78 3.63226 1
gene 1 20 44 0.338303 0 79 0.338303 1
gene 1 20 45 -0.354406 0 80 -0.354406 1
gene 1 21 42 -2.60464 0 81 -2.60464 1
gene 1 21 43 -1.42072 0 82 -1.42072 1
gene 1 21 44 4.71235 0 83 4.71235 1
gene 1 21 45 -3.82563 0 84 -3.82563 1
gene 1 22 42 3.56105 0 85 3.56105 1
gene 1 22 43 1.20365 0 86 1.20365 1
gene 1 22 44 0.457716 0 87 0.457716 1
gene 1 22 45 2.34215 0 88 2.34215 1
gene 1 23 42 2.24489 0 89 2.24489 1
gene 1 23 43 -4.76089 0 90 -4.76089 1
gene 1 23 44 -3.76915 0 91 -3.76915 1
gene 1 23 45 2.80444 0 92 2.80444 1
gene 1 24 42 4.5082 0 93 4.5082 1
gene 1 24 43 -0.277698 0 94 -0.277698 1
gene 1 24 44 -2.90735 0 95 -2.90735 1
gene 1 24 45 0.643681 0 96 0.643681 1
gene 1 25 42 0.190633 0 97 0.190633 1
gene 1 25 43 -0.0459232 0 98 -0.0459232 1
gene 1 25 44 -0.892089 0 99 -0.892089 1
gene 1 25 45 2.35607 0 100 2.35607 1
gene 1 26 42 -1.55808 0 101 -1.55808 1
gene 1 26 43 0.294482 0 102 0.294482 1
gene 1 26 44 0.8836 0 103 0.8836 1
gene 1 26 45 4.29713 0 104 4.29713 1
gene 1 27 42 -0.504318 0 105 -0.504318 1
gene 1 27 43 0.691816 0 106 0.691816 1
gene 1 27 44 1.59931 0 107 1.59931 1
gene 1 27 45 -2.54434 0 108 -2.54434 1
gene 1 28 42 -1.16005 0 109 -1.16005 1
gene 1 28 43 -2.2011 0 110 -2.2011 1
gene 1 28 44 -3.32997 0 111 -3.32997 1
gene 1 28 45 2.45759 0 112 2.45759 1
gene 1 29 42 0.789859 0 113 0.789859 1
gene 1 29 43 -5 0 114 -5 1
gene 1 29 44 3.5266 0 115 3.5266 1
gene 1 29 45 1.58028 0 116 1.58028 1
gene 1 30 42 1.38122 0 117 1.38122 1
gene 1 30 43 3.21838 0 118 3.21838 1
gene 1 30 44 1.09508 0 119 1.09508 1
gene 1 30 45 -0.97863 0 120 -0.97863 1
gene 1 31 42 1.1747 0 121 1.1747 1
gene 1 31 43 -1.41926 0 122 -1.41926 1
gene 1 31 44 0.422953 0 123 0.422953 1
gene 1 31 45 -3.81145 0 124 -3.81145 1
gene 1 32 42 0.712608 0 125 0.712608 1
gene 1 32 43 -2.96939 0 126 -2.96939 1
gene 1 32 44 1.1708 0 127 1.1708 1
gene 1 32 45 -2.14901 0 128 -2.14901 1
gene 1 33 42 -0.271433 0 129 -0.271433 1
gene 1 33 43 -0.371682 0 130 -0.371682 1
gene 1 33 44 2.44067 0 131 2.44067 1
gene 1 33 45 3.02994 0 132 3.02994 1
gene 1 34 42 2.10491 0 133 2.10491 1
gene 1 34 43 -0.812159 0 134 -0.812159 1
gene 1 34 44 0.0821881 0 135 0.0821881 1
gene 1 34 45 -1.91687 0 136 -1.91687 1
gene 1 35 42 -0.520215 0 137 -0.520215 1
gene 1 35 43 2.1623 0 138 2.1623 1
gene 1 35 44 0.479882 0 139 0.479882 1
gene 1 35 45 -0.593241 0 140 -0.593241 1
gene 1 36 42 -0.548348 0 141 -0.548348 1
gene 1 36 43 0.817675 0 142 0.817675 1
gene 1 36 44 -0.00170057 0 143 -0.00170057 1
gene 1 36 45 -0.941446 0 144 -0.941446 1
gene 1 37 42 -1.06558 0 145 -1.06558 1
gene 1 37 43 -0.713088 0 146 -0.713088 1
gene 1 37 44 -2.52188 0 147 -2.52188 1
gene 1 37 45 0.0120974 0 148 0.0120974 1
gene 1 38 42 0.886808 0 149 0.886808 1
gene 1 38 43 3.28582 0 150 3.28582 1
gene 1 38 44 -0.547543 0 151 -0.547543 1
gene 1 38 45 -0.186436 0 152 -0.186436 1
gene 1 39 42 0.460461 0 153 0.460461 1
gene 1 39 43 -0.720919 0 154 -0.720919 1
gene 1 39 44 -0.882058 0 155 -0.882058 1
gene 1 39 45 -0.60621 0 156 -0.60621 1
gene 1 40 42 0.881859 0 157 0.881859 1
gene 1 40 43 -1.1216 0 158 -1.1216 1
gene 1 40 44 0.238402 0 159 0.238402 1
gene 1 40 45 0.757935 0 160 0.757935 1
gene 1 41 42 5 0 161 5 1
gene 1 41 43 -0.801925 0 162 -0.801925 1
gene 1 41 44 0.279843 0 163 0.279843 1
gene 1 41 45 -2.68492 0 164 -2.68492 1
genomeend 2


