/* Organism #1 Fitness: -1274.200000 Time: 0 */
genomestart 1
trait 1 0.502389 0.036439 0.000000 0.791074 0.000000 0.787404 0.686583 1.000000 
node 1 1 1 1
node 2 1 1 1
node 3 1 1 1
node 4 1 1 1
node 5 1 1 1
node 6 1 1 1
node 7 1 1 1
node 8 1 1 1
node 9 1 1 1
node 10 1 1 1
node 11 1 1 1
node 12 1 1 1
node 13 1 1 1
node 14 1 1 1
node 15 1 1 1
node 16 1 1 1
node 17 1 1 1
node 18 1 1 1
node 19 1 1 1
node 20 1 1 1
node 21 1 1 1
node 22 1 1 1
node 23 1 1 1
node 24 1 1 1
node 25 1 1 1
node 26 1 1 1
node 27 1 1 1
node 28 1 1 1
node 29 1 1 1
node 30 1 1 1
node 31 1 1 1
node 32 1 1 1
node 33 1 1 1
node 34 1 1 1
node 35 1 1 1
node 36 1 1 1
node 37 1 1 1
node 38 1 1 1
node 39 1 1 1
node 40 1 1 1
node 41 1 1 3
node 42 1 0 2
node 43 1 0 2
node 44 1 0 2
node 45 1 0 2
gene 1 1 42 -2.09076 0 1 -2.09076 1
gene 1 1 43 1.13469 0 2 1.13469 1
gene 1 1 44 -0.316323 0 3 -0.316323 1
gene 1 1 45 1.75398 0 4 1.75398 1
gene 1 2 42 1.98921 0 5 1.98921 1
gene 1 2 43 -0.328643 0 6 -0.328643 1
gene 1 2 44 2.01838 0 7 2.01838 1
gene 1 2 45 -0.410495 0 8 -0.410495 1
gene 1 3 42 -0.647444 0 9 -0.647444 1
gene 1 3 43 -0.337575 0 10 -0.337575 1
gene 1 3 44 -2.96979 0 11 -2.96979 1
gene 1 3 45 -2.96245 0 12 -2.96245 1
gene 1 4 42 2.16479 0 13 2.16479 1
gene 1 4 43 -2.09052 0 14 -2.09052 1
gene 1 4 44 0.972312 0 15 0.972312 1
gene 1 4 45 -1.17553 0 16 -1.17553 1
gene 1 5 42 0.173223 0 17 0.173223 1
gene 1 5 43 -3.39831 0 18 -3.39831 1
gene 1 5 44 4.05076 0 19 4.05076 1
gene 1 5 45 -2.10411 0 20 -2.10411 1
gene 1 6 42 0.607459 0 21 0.607459 1
gene 1 6 43 0.723698 0 22 0.723698 1
gene 1 6 44 0.222584 0 23 0.222584 1
gene 1 6 45 -1.44842 0 24 -1.44842 1
gene 1 7 42 0.750644 0 25 0.750644 1
gene 1 7 43 -0.896829 0 26 -0.896829 1
gene 1 7 44 -0.24027 0 27 -0.24027 1
gene 1 7 45 0.293459 0 28 0.293459 1
gene 1 8 42 0.337451 0 29 0.337451 1
gene 1 8 43 -1.71919 0 30 -1.71919 1
gene 1 8 44 0.968631 0 31 0.968631 1
gene 1 8 45 -1.31792 0 32 -1.31792 1
gene 1 9 42 3.17706 0 33 3.17706 1
gene 1 9 43 4.14583 0 34 4.14583 1
gene 1 9 44 1.20751 0 35 1.20751 1
gene 1 9 45 -0.749873 0 36 -0.749873 1
gene 1 10 42 0.61851 0 37 0.61851 1
gene 1 10 43 0.699677 0 38 0.699677 1
gene 1 10 44 -5 0 39 -5 1
gene 1 10 45 -0.233828 0 40 -0.233828 1
gene 1 11 42 -0.218281 0 41 -0.218281 1
gene 1 11 43 -3.95354 0 42 -3.95354 1
gene 1 11 44 -0.356859 0 43 -0.356859 1
gene 1 11 45 -2.58752 0 44 -2.58752 1
gene 1 12 42 2.87468 0 45 2.87468 1
gene 1 12 43 -1.24272 0 46 -1.24272 1
gene 1 12 44 -0.234212 0 47 -0.234212 1
gene 1 12 45 -0.2563 0 48 -0.2563 1
gene 1 13 42 0.0805696 0 49 0.0805696 1
gene 1 13 43 -0.761944 0 50 -0.761944 1
gene 1 13 44 -0.944451 0 51 -0.944451 1
gene 1 13 45 -4.66785 0 52 -4.66785 1
gene 1 14 42 3.6873 0 53 3.6873 1
gene 1 14 43 -2.02654 0 54 -2.02654 1
gene 1 14 44 3.79494 0 55 3.79494 1
gene 1 14 45 -1.53927 0 56 -1.53927 1
gene 1 15 42 -0.109432 0 57 -0.109432 1
gene 1 15 43 -0.452873 0 58 -0.452873 1
gene 1 15 44 1.83239 0 59 1.83239 1
gene 1 15 45 -1.66627 0 60 -1.66627 1
gene 1 16 42 -3.28076 0 61 -3.28076 1
gene 1 16 43 -0.452007 0 62 -0.452007 1
gene 1 16 44 0.893151 0 63 0.893151 1
gene 1 16 45 0.951931 0 64 0.951931 1
gene 1 17 42 0.076927 0 65 0.076927 1
gene 1 17 43 0.0671323 0 66 0.0671323 1
gene 1 17 44 2.44313 0 67 2.44313 1
gene 1 17 45 -0.971089 0 68 -0.971089 1
gene 1 18 42 -4.65925 0 69 -4.65925 1
gene 1 18 43 2.88337 0 70 2.88337 1
gene 1 18 44 5 0 71 5 1
gene 1 18 45 -4.30609 0 72 -4.30609 1
gene 1 19 42 -0.985454 0 73 -0.985454 1
gene 1 19 43 -3.56014 0 74 -3.56014 1
gene 1 19 44 1.19222 0 75 1.19222 1
gene 1 19 45 -3.6513 0 76 -3.6513 1
gene 1 20 42 1.57132 0 77 1.57132 1
gene 1 20 43 1.39108 0 78 1.39108 1
gene 1 20 44 1.00572 0 79 1.00572 1
gene 1 20 45 4.02466 0 80 4.02466 1
gene 1 21 42 1.43778 0 81 1.43778 1
gene 1 21 43 3.33914 0 82 3.33914 1
gene 1 21 44 4.5581 0 83 4.5581 1
gene 1 21 45 -5 0 84 -5 1
gene 1 22 42 -0.645502 0 85 -0.645502 1
gene 1 22 43 2.06521 0 86 2.06521 1
gene 1 22 44 0.0543066 0 87 0.0543066 1
gene 1 22 45 1.72445 0 88 1.72445 1
gene 1 23 42 0.581997 0 89 0.581997 1
gene 1 23 43 1.45986 0 90 1.45986 1
gene 1 23 44 -1.04397 0 91 -1.04397 1
gene 1 23 45 4.10614 0 92 4.10614 1
gene 1 24 42 1.61877 0 93 1.61877 1
gene 1 24 43 -2.89792 0 94 -2.89792 1
gene 1 24 44 -4.34464 0 95 -4.34464 1
gene 1 24 45 -1.28934 0 96 -1.28934 1
gene 1 25 42 -0.123538 0 97 -0.123538 1
gene 1 25 43 1.38259 0 98 1.38259 1
gene 1 25 44 -1.30927 0 99 -1.30927 1
gene 1 25 45 4.69207 0 100 4.69207 1
gene 1 26 42 0.630934 0 101 0.630934 1
gene 1 26 43 -5 0 102 -5 1
gene 1 26 44 0.30882 0 103 0.30882 1
gene 1 26 45 -2.94445 0 104 -2.94445 1
gene 1 27 42 0.454153 0 105 0.454153 1
gene 1 27 43 0.975314 0 106 0.975314 1
gene 1 27 44 -0.274749 0 107 -0.274749 1
gene 1 27 45 -1.08683 0 108 -1.08683 1
gene 1 28 42 1.75974 0 109 1.75974 1
gene 1 28 43 -3.65248 0 110 -3.65248 1
gene 1 28 44 -0.70177 0 111 -0.70177 1
gene 1 28 45 1.22689 0 112 1.22689 1
gene 1 29 42 -0.0979412 0 113 -0.0979412 1
gene 1 29 43 3.10879 0 114 3.10879 1
gene 1 29 44 0.265297 0 115 0.265297 1
gene 1 29 45 -2.35252 0 116 -2.35252 1
gene 1 30 42 -0.204751 0 117 -0.204751 1
gene 1 30 43 0.0727499 0 118 0.0727499 1
gene 1 30 44 -3.09124 0 119 -3.09124 1
gene 1 30 45 0.850762 0 120 0.850762 1
gene 1 31 42 -2.67338 0 121 -2.67338 1
gene 1 31 43 2.15638 0 122 2.15638 1
gene 1 31 44 1.68173 0 123 1.68173 1
gene 1 31 45 -0.236629 0 124 -0.236629 1
gene 1 32 42 1.07636 0 125 1.07636 1
gene 1 32 43 0.0760143 0 126 0.0760143 1
gene 1 32 44 -4.48572 0 127 -4.48572 1
gene 1 32 45 -0.701985 0 128 -0.701985 1
gene 1 33 42 -5 0 129 -5 1
gene 1 33 43 2.69907 0 130 2.69907 1
gene 1 33 44 2.91188 0 131 2.91188 1
gene 1 33 45 0.120248 0 132 0.120248 1
gene 1 34 42 -0.565685 0 133 -0.565685 1
gene 1 34 43 1.2781 0 134 1.2781 1
gene 1 34 44 -0.34489 0 135 -0.34489 1
gene 1 34 45 1.44645 0 136 1.44645 1
gene 1 35 42 -0.357327 0 137 -0.357327 1
gene 1 35 43 1.14745 0 138 1.14745 1
gene 1 35 44 -0.512277 0 139 -0.512277 1
gene 1 35 45 0.606782 0 140 0.606782 1
gene 1 36 42 0.397969 0 141 0.397969 1
gene 1 36 43 -0.0212711 0 142 -0.0212711 1
gene 1 36 44 -0.0175974 0 143 -0.0175974 1
gene 1 36 45 0.088061 0 144 0.088061 1
gene 1 37 42 0.494756 0 145 0.494756 1
gene 1 37 43 2.26898 0 146 2.26898 1
gene 1 37 44 -2.2119 0 147 -2.2119 1
gene 1 37 45 0.0210618 0 148 0.0210618 1
gene 1 38 42 -0.193418 0 149 -0.193418 1
gene 1 38 43 0.548834 0 150 0.548834 1
gene 1 38 44 0.230717 0 151 0.230717 1
gene 1 38 45 0.830132 0 152 0.830132 1
gene 1 39 42 0.163309 0 153 0.163309 1
gene 1 39 43 0.771605 0 154 0.771605 1
gene 1 39 44 -0.982391 0 155 -0.982391 1
gene 1 39 45 0.321779 0 156 0.321779 1
gene 1 40 42 0.700169 0 157 0.700169 1
gene 1 40 43 1.58613 0 158 1.58613 1
gene 1 40 44 1.32826 0 159 1.32826 1
gene 1 40 45 -0.411798 0 160 -0.411798 1
gene 1 41 42 2.4674 0 161 2.4674 1
gene 1 41 43 -0.464905 0 162 -0.464905 1
gene 1 41 44 1.35561 0 163 1.35561 1
gene 1 41 45 0.00462211 0 164 0.00462211 1
genomeend 1


