/* Organism #15 Fitness: -1226.850000 Time: 0 */
genomestart 15
trait 1 0.330351 0.000000 0.000000 0.627090 0.881223 0.000000 0.000000 0.073809 
node 1 1 1 1
node 2 1 1 1
node 3 1 1 1
node 4 1 1 1
node 5 1 1 1
node 6 1 1 1
node 7 1 1 1
node 8 1 1 1
node 9 1 1 1
node 10 1 1 1
node 11 1 1 1
node 12 1 1 1
node 13 1 1 1
node 14 1 1 1
node 15 1 1 1
node 16 1 1 1
node 17 1 1 1
node 18 1 1 1
node 19 1 1 1
node 20 1 1 1
node 21 1 1 1
node 22 1 1 1
node 23 1 1 1
node 24 1 1 1
node 25 1 1 1
node 26 1 1 1
node 27 1 1 1
node 28 1 1 1
node 29 1 1 1
node 30 1 1 1
node 31 1 1 1
node 32 1 1 1
node 33 1 1 1
node 34 1 1 1
node 35 1 1 1
node 36 1 1 1
node 37 1 1 1
node 38 1 1 1
node 39 1 1 1
node 40 1 1 1
node 41 1 1 3
node 42 1 0 2
node 43 1 0 2
node 44 1 0 2
node 45 1 0 2
gene 1 1 42 -0.0196344 0 1 -0.0196344 1
gene 1 1 43 -0.335816 0 2 -0.335816 1
gene 1 1 44 0.363841 0 3 0.363841 1
gene 1 1 45 -0.284161 0 4 -0.284161 1
gene 1 2 42 -0.892408 0 5 -0.892408 1
gene 1 2 43 0.401565 0 6 0.401565 1
gene 1 2 44 3.60242 0 7 3.60242 1
gene 1 2 45 -2.25329 0 8 -2.25329 1
gene 1 3 42 -2.77895 0 9 -2.77895 1
gene 1 3 43 -3.60099 0 10 -3.60099 1
gene 1 3 44 -1.35083 0 11 -1.35083 1
gene 1 3 45 -3.78047 0 12 -3.78047 1
gene 1 4 42 -0.583478 0 13 -0.583478 1
gene 1 4 43 4.8706 0 14 4.8706 1
gene 1 4 44 -1.23712 0 15 -1.23712 1
gene 1 4 45 -0.442997 0 16 -0.442997 1
gene 1 5 42 0.919883 0 17 0.919883 1
gene 1 5 43 -4.21774 0 18 -4.21774 1
gene 1 5 44 -0.189796 0 19 -0.189796 1
gene 1 5 45 -2.51557 0 20 -2.51557 1
gene 1 6 42 -0.425782 0 21 -0.425782 1
gene 1 6 43 2.06566 0 22 2.06566 1
gene 1 6 44 -0.156375 0 23 -0.156375 1
gene 1 6 45 -3.06102 0 24 -3.06102 1
gene 1 7 42 3.76397 0 25 3.76397 1
gene 1 7 43 1.4361 0 26 1.4361 1
gene 1 7 44 -0.206093 0 27 -0.206093 1
gene 1 7 45 1.6658 0 28 1.6658 1
gene 1 8 42 2.96424 0 29 2.96424 1
gene 1 8 43 0.918989 0 30 0.918989 1
gene 1 8 44 2.50465 0 31 2.50465 1
gene 1 8 45 -1.78208 0 32 -1.78208 1
gene 1 9 42 3.74893 0 33 3.74893 1
gene 1 9 43 2.73766 0 34 2.73766 1
gene 1 9 44 -0.259957 0 35 -0.259957 1
gene 1 9 45 -3.1444 0 36 -3.1444 1
gene 1 10 42 -0.0166138 0 37 -0.0166138 1
gene 1 10 43 2.16995 0 38 2.16995 1
gene 1 10 44 3.23855 0 39 3.23855 1
gene 1 10 45 0.0574527 0 40 0.0574527 1
gene 1 11 42 4.81539 0 41 4.81539 1
gene 1 11 43 -3.38195 0 42 -3.38195 1
gene 1 11 44 4.74948 0 43 4.74948 1
gene 1 11 45 -2.29125 0 44 -2.29125 1
gene 1 12 42 -3.567 0 45 -3.567 1
gene 1 12 43 -1.74543 0 46 -1.74543 1
gene 1 12 44 0.24325 0 47 0.24325 1
gene 1 12 45 2.53913 0 48 2.53913 1
gene 1 13 42 2.10789 0 49 2.10789 1
gene 1 13 43 -0.621743 0 50 -0.621743 1
gene 1 13 44 -2.49517 0 51 -2.49517 1
gene 1 13 45 -2.04477 0 52 -2.04477 1
gene 1 14 42 1.7172 0 53 1.7172 1
gene 1 14 43 -3.32309 0 54 -3.32309 1
gene 1 14 44 1.78526 0 55 1.78526 1
gene 1 14 45 -4.80786 0 56 -4.80786 1
gene 1 15 42 2.64893 0 57 2.64893 1
gene 1 15 43 0.150046 0 58 0.150046 1
gene 1 15 44 -1.43111 0 59 -1.43111 1
gene 1 15 45 0.601148 0 60 0.601148 1
gene 1 16 42 -2.54264 0 61 -2.54264 1
gene 1 16 43 -1.08908 0 62 -1.08908 1
gene 1 16 44 3.10091 0 63 3.10091 1
gene 1 16 45 0.478003 0 64 0.478003 1
gene 1 17 42 2.65417 0 65 2.65417 1
gene 1 17 43 -1.51162 0 66 -1.51162 1
gene 1 17 44 -2.67204 0 67 -2.67204 1
gene 1 17 45 1.10718 0 68 1.10718 1
gene 1 18 42 3.24473 0 69 3.24473 1
gene 1 18 43 0.496746 0 70 0.496746 1
gene 1 18 44 4.30444 0 71 4.30444 1
gene 1 18 45 -4.37629 0 72 -4.37629 1
gene 1 19 42 -1.96452 0 73 -1.96452 1
gene 1 19 43 1.2546 0 74 1.2546 1
gene 1 19 44 -4.01297 0 75 -4.01297 1
gene 1 19 45 2.22751 0 76 2.22751 1
gene 1 20 42 3.51742 0 77 3.51742 1
gene 1 20 43 3.15326 0 78 3.15326 1
gene 1 20 44 -4.70241 0 79 -4.70241 1
gene 1 20 45 5 0 80 5 1
gene 1 21 42 -4.12107 0 81 -4.12107 1
gene 1 21 43 -2.45443 0 82 -2.45443 1
gene 1 21 44 2.69722 0 83 2.69722 1
gene 1 21 45 -2.68955 0 84 -2.68955 1
gene 1 22 42 -3.08367 0 85 -3.08367 1
gene 1 22 43 4.52979 0 86 4.52979 1
gene 1 22 44 -1.9722 0 87 -1.9722 1
gene 1 22 45 -1.87773 0 88 -1.87773 1
gene 1 23 42 -0.607328 0 89 -0.607328 1
gene 1 23 43 -1.76347 0 90 -1.76347 1
gene 1 23 44 -1.50687 0 91 -1.50687 1
gene 1 23 45 3.42959 0 92 3.42959 1
gene 1 24 42 3.65087 0 93 3.65087 1
gene 1 24 43 -5 0 94 -5 1
gene 1 24 44 -3.7816 0 95 -3.7816 1
gene 1 24 45 4.88148 0 96 4.88148 1
gene 1 25 42 3.2578 0 97 3.2578 1
gene 1 25 43 2.76244 0 98 2.76244 1
gene 1 25 44 -0.4724 0 99 -0.4724 1
gene 1 25 45 -1.76597 0 100 -1.76597 1
gene 1 26 42 -1.02534 0 101 -1.02534 1
gene 1 26 43 -0.503584 0 102 -0.503584 1
gene 1 26 44 -1.11897 0 103 -1.11897 1
gene 1 26 45 2.62072 0 104 2.62072 1
gene 1 27 42 -2.01198 0 105 -2.01198 1
gene 1 27 43 0.110167 0 106 0.110167 1
gene 1 27 44 2.16557 0 107 2.16557 1
gene 1 27 45 -4.37451 0 108 -4.37451 1
gene 1 28 42 4.3313 0 109 4.3313 1
gene 1 28 43 2.25038 0 110 2.25038 1
gene 1 28 44 2.3927 0 111 2.3927 1
gene 1 28 45 1.70958 0 112 1.70958 1
gene 1 29 42 -1.44872 0 113 -1.44872 1
gene 1 29 43 -1.7691 0 114 -1.7691 1
gene 1 29 44 -0.127609 0 115 -0.127609 1
gene 1 29 45 -1.95538 0 116 -1.95538 1
gene 1 30 42 4.1018 0 117 4.1018 1
gene 1 30 43 2.96604 0 118 2.96604 1
gene 1 30 44 1.87446 0 119 1.87446 1
gene 1 30 45 -0.579505 0 120 -0.579505 1
gene 1 31 42 -3.27528 0 121 -3.27528 1
gene 1 31 43 0.565078 0 122 0.565078 1
gene 1 31 44 2.70915 0 123 2.70915 1
gene 1 31 45 1.56167 0 124 1.56167 1
gene 1 32 42 -5 0 125 -5 1
gene 1 32 43 5 0 126 5 1
gene 1 32 44 3.66618 0 127 3.66618 1
gene 1 32 45 -2.74401 0 128 -2.74401 1
gene 1 33 42 1.37084 0 129 1.37084 1
gene 1 33 43 -1.75554 0 130 -1.75554 1
gene 1 33 44 0.492585 0 131 0.492585 1
gene 1 33 45 -0.543067 0 132 -0.543067 1
gene 1 34 42 -0.915564 0 133 -0.915564 1
gene 1 34 43 0.0707711 0 134 0.0707711 1
gene 1 34 44 -0.706445 0 135 -0.706445 1
gene 1 34 45 0.727351 0 136 0.727351 1
gene 1 35 42 -1.57846 0 137 -1.57846 1
gene 1 35 43 0.909495 0 138 0.909495 1
gene 1 35 44 1.0334 0 139 1.0334 1
gene 1 35 45 -0.6612 0 140 -0.6612 1
gene 1 36 42 0.784266 0 141 0.784266 1
gene 1 36 43 0.358355 0 142 0.358355 1
gene 1 36 44 0.271555 0 143 0.271555 1
gene 1 36 45 -1.60386 0 144 -1.60386 1
gene 1 37 42 2.60693 0 145 2.60693 1
gene 1 37 43 0.255687 0 146 0.255687 1
gene 1 37 44 0.0890338 0 147 0.0890338 1
gene 1 37 45 0.208653 0 148 0.208653 1
gene 1 38 42 0.275875 0 149 0.275875 1
gene 1 38 43 -1.8212 0 150 -1.8212 1
gene 1 38 44 -0.215122 0 151 -0.215122 1
gene 1 38 45 -0.14074 0 152 -0.14074 1
gene 1 39 42 -1.88879 0 153 -1.88879 1
gene 1 39 43 0.830208 0 154 0.830208 1
gene 1 39 44 -2.00226 0 155 -2.00226 1
gene 1 39 45 -0.162645 0 156 -0.162645 1
gene 1 40 42 2.04516 0 157 2.04516 1
gene 1 40 43 -0.768458 0 158 -0.768458 1
gene 1 40 44 0.0756149 0 159 0.0756149 1
gene 1 40 45 0.511258 0 160 0.511258 1
gene 1 41 42 -0.481018 0 161 -0.481018 1
gene 1 41 43 -0.917816 0 162 -0.917816 1
gene 1 41 44 0.0556159 0 163 0.0556159 1
gene 1 41 45 0.104626 0 164 0.104626 1
genomeend 15


