/* Organism #5 Fitness: -1204.880000 Time: 0 */
genomestart 5
trait 1 0.451978 0.000000 0.136799 0.584562 0.000000 0.000000 0.454319 0.000000 
node 1 1 1 1
node 2 1 1 1
node 3 1 1 1
node 4 1 1 1
node 5 1 1 1
node 6 1 1 1
node 7 1 1 1
node 8 1 1 1
node 9 1 1 1
node 10 1 1 1
node 11 1 1 1
node 12 1 1 1
node 13 1 1 1
node 14 1 1 1
node 15 1 1 1
node 16 1 1 1
node 17 1 1 1
node 18 1 1 1
node 19 1 1 1
node 20 1 1 1
node 21 1 1 1
node 22 1 1 1
node 23 1 1 1
node 24 1 1 1
node 25 1 1 1
node 26 1 1 1
node 27 1 1 1
node 28 1 1 1
node 29 1 1 1
node 30 1 1 1
node 31 1 1 1
node 32 1 1 1
node 33 1 1 1
node 34 1 1 1
node 35 1 1 1
node 36 1 1 1
node 37 1 1 1
node 38 1 1 1
node 39 1 1 1
node 40 1 1 1
node 41 1 1 3
node 42 1 0 2
node 43 1 0 2
node 44 1 0 2
node 45 1 0 2
gene 1 1 42 2.70239 0 1 2.70239 1
gene 1 1 43 -1.63231 0 2 -1.63231 1
gene 1 1 44 0.504011 0 3 0.504011 1
gene 1 1 45 -2.29564 0 4 -2.29564 1
gene 1 2 42 0.74801 0 5 0.74801 1
gene 1 2 43 2.91982 0 6 2.91982 1
gene 1 2 44 0.518759 0 7 0.518759 1
gene 1 2 45 -1.21703 0 8 -1.21703 1
gene 1 3 42 1.55818 0 9 1.55818 1
gene 1 3 43 -0.421128 0 10 -0.421128 1
gene 1 3 44 1.54459 0 11 1.54459 1
gene 1 3 45 0.416064 0 12 0.416064 1
gene 1 4 42 -0.476741 0 13 -0.476741 1
gene 1 4 43 -3.55479 0 14 -3.55479 1
gene 1 4 44 -0.201403 0 15 -0.201403 1
gene 1 4 45 -3.29359 0 16 -3.29359 1
gene 1 5 42 2.93527 0 17 2.93527 1
gene 1 5 43 -1.65666 0 18 -1.65666 1
gene 1 5 44 1.56244 0 19 1.56244 1
gene 1 5 45 2.02251 0 20 2.02251 1
gene 1 6 42 5 0 21 5 1
gene 1 6 43 -1.16279 0 22 -1.16279 1
gene 1 6 44 4.09063 0 23 4.09063 1
gene 1 6 45 2.59941 0 24 2.59941 1
gene 1 7 42 -2.20291 0 25 -2.20291 1
gene 1 7 43 -2.85641 0 26 -2.85641 1
gene 1 7 44 0.944738 0 27 0.944738 1
gene 1 7 45 1.0802 0 28 1.0802 1
gene 1 8 42 1.68874 0 29 1.68874 1
gene 1 8 43 -0.454947 0 30 -0.454947 1
gene 1 8 44 -2.06137 0 31 -2.06137 1
gene 1 8 45 0.116909 0 32 0.116909 1
gene 1 9 42 3.20873 0 33 3.20873 1
gene 1 9 43 -0.704197 0 34 -0.704197 1
gene 1 9 44 4.42057 0 35 4.42057 1
gene 1 9 45 -3.92527 0 36 -3.92527 1
gene 1 10 42 3.62259 0 37 3.62259 1
gene 1 10 43 3.45222 0 38 3.45222 1
gene 1 10 44 3.07519 0 39 3.07519 1
gene 1 10 45 -0.707903 0 40 -0.707903 1
gene 1 11 42 4.48778 0 41 4.48778 1
gene 1 11 43 0.0942649 0 42 0.0942649 1
gene 1 11 44 -2.51313 0 43 -2.51313 1
gene 1 11 45 -2.01602 0 44 -2.01602 1
gene 1 12 42 1.96584 0 45 1.96584 1
gene 1 12 43 -2.71514 0 46 -2.71514 1
gene 1 12 44 -4.78928 0 47 -4.78928 1
gene 1 12 45 2.1875 0 48 2.1875 1
gene 1 13 42 4.49809 0 49 4.49809 1
gene 1 13 43 -2.89506 0 50 -2.89506 1
gene 1 13 44 -2.33186 0 51 -2.33186 1
gene 1 13 45 -2.94693 0 52 -2.94693 1
gene 1 14 42 -3.48768 0 53 -3.48768 1
gene 1 14 43 -2.63029 0 54 -2.63029 1
gene 1 14 44 3.07954 0 55 3.07954 1
gene 1 14 45 -0.144261 0 56 -0.144261 1
gene 1 15 42 0.412541 0 57 0.412541 1
gene 1 15 43 -2.44869 0 58 -2.44869 1
gene 1 15 44 3.66982 0 59 3.66982 1
gene 1 15 45 -0.659047 0 60 -0.659047 1
gene 1 16 42 -0.409456 0 61 -0.409456 1
gene 1 16 43 2.16906 0 62 2.16906 1
gene 1 16 44 1.96918 0 63 1.96918 1
gene 1 16 45 -3.13143 0 64 -3.13143 1
gene 1 17 42 1.25708 0 65 1.25708 1
gene 1 17 43 -0.574922 0 66 -0.574922 1
gene 1 17 44 -2.0875 0 67 -2.0875 1
gene 1 17 45 0.893486 0 68 0.893486 1
gene 1 18 42 2.87117 0 69 2.87117 1
gene 1 18 43 1.10213 0 70 1.10213 1
gene 1 18 44 0.686812 0 71 0.686812 1
gene 1 18 45 -2.22702 0 72 -2.22702 1
gene 1 19 42 -0.918799 0 73 -0.918799 1
gene 1 19 43 -4.06421 0 74 -4.06421 1
gene 1 19 44 4.85145 0 75 4.85145 1
gene 1 19 45 0.765981 0 76 0.765981 1
gene 1 20 42 1.13621 0 77 1.13621 1
gene 1 20 43 -1.73704 0 78 -1.73704 1
gene 1 20 44 -2.44365 0 79 -2.44365 1
gene 1 20 45 -3.5524 0 80 -3.5524 1
gene 1 21 42 1.15217 0 81 1.15217 1
gene 1 21 43 1.64897 0 82 1.64897 1
gene 1 21 44 4.8935 0 83 4.8935 1
gene 1 21 45 -4.65338 0 84 -4.65338 1
gene 1 22 42 2.43568 0 85 2.43568 1
gene 1 22 43 4.82428 0 86 4.82428 1
gene 1 22 44 4.47882 0 87 4.47882 1
gene 1 22 45 -5 0 88 -5 1
gene 1 23 42 0.496298 0 89 0.496298 1
gene 1 23 43 2.97047 0 90 2.97047 1
gene 1 23 44 -2.78953 0 91 -2.78953 1
gene 1 23 45 1.56403 0 92 1.56403 1
gene 1 24 42 3.00812 0 93 3.00812 1
gene 1 24 43 -4.4657 0 94 -4.4657 1
gene 1 24 44 -2.20383 0 95 -2.20383 1
gene 1 24 45 4.94328 0 96 4.94328 1
gene 1 25 42 -3.80307 0 97 -3.80307 1
gene 1 25 43 0.235259 0 98 0.235259 1
gene 1 25 44 2.06605 0 99 2.06605 1
gene 1 25 45 2.41822 0 100 2.41822 1
gene 1 26 42 0.161974 0 101 0.161974 1
gene 1 26 43 -1.42866 0 102 -1.42866 1
gene 1 26 44 -2.48942 0 103 -2.48942 1
gene 1 26 45 -0.325438 0 104 -0.325438 1
gene 1 27 42 4.36254 0 105 4.36254 1
gene 1 27 43 2.35898 0 106 2.35898 1
gene 1 27 44 2.65753 0 107 2.65753 1
gene 1 27 45 0.803201 0 108 0.803201 1
gene 1 28 42 -1.07825 0 109 -1.07825 1
gene 1 28 43 3.17297 0 110 3.17297 1
gene 1 28 44 2.59155 0 111 2.59155 1
gene 1 28 45 -1.41457 0 112 -1.41457 1
gene 1 29 42 0.712242 0 113 0.712242 1
gene 1 29 43 1.53567 0 114 1.53567 1
gene 1 29 44 -4.99567 0 115 -4.99567 1
gene 1 29 45 -5 0 116 -5 1
gene 1 30 42 2.44761 0 117 2.44761 1
gene 1 30 43 4.02718 0 118 4.02718 1
gene 1 30 44 0.208582 0 119 0.208582 1
gene 1 30 45 2.11521 0 120 2.11521 1
gene 1 31 42 3.3674 0 121 3.3674 1
gene 1 31 43 2.50877 0 122 2.50877 1
gene 1 31 44 1.80182 0 123 1.80182 1
gene 1 31 45 -0.24928 0 124 -0.24928 1
gene 1 32 42 -4.50386 0 125 -4.50386 1
gene 1 32 43 -0.779873 0 126 -0.779873 1
gene 1 32 44 -3.80768 0 127 -3.80768 1
gene 1 32 45 3.28936 0 128 3.28936 1
gene 1 33 42 1.83723 0 129 1.83723 1
gene 1 33 43 -1.34064 0 130 -1.34064 1
gene 1 33 44 -0.8804 0 131 -0.8804 1
gene 1 33 45 0.924344 0 132 0.924344 1
gene 1 34 42 -1.74449 0 133 -1.74449 1
gene 1 34 43 -0.239061 0 134 -0.239061 1
gene 1 34 44 0.438676 0 135 0.438676 1
gene 1 34 45 0.584958 0 136 0.584958 1
gene 1 35 42 0.648067 0 137 0.648067 1
gene 1 35 43 -0.0738813 0 138 -0.0738813 1
gene 1 35 44 0.422933 0 139 0.422933 1
gene 1 35 45 -0.784068 0 140 -0.784068 1
gene 1 36 42 -1.94787 0 141 -1.94787 1
gene 1 36 43 0.754381 0 142 0.754381 1
gene 1 36 44 1.7263 0 143 1.7263 1
gene 1 36 45 1.31105 0 144 1.31105 1
gene 1 37 42 0.360251 0 145 0.360251 1
gene 1 37 43 0.388503 0 146 0.388503 1
gene 1 37 44 -1.49486 0 147 -1.49486 1
gene 1 37 45 -0.196373 0 148 -0.196373 1
gene 1 38 42 -1.53684 0 149 -1.53684 1
gene 1 38 43 -0.52004 0 150 -0.52004 1
gene 1 38 44 -0.128238 0 151 -0.128238 1
gene 1 38 45 0.672555 0 152 0.672555 1
gene 1 39 42 0.243654 0 153 0.243654 1
gene 1 39 43 -0.510471 0 154 -0.510471 1
gene 1 39 44 -2.26816 0 155 -2.26816 1
gene 1 39 45 -2.53215 0 156 -2.53215 1
gene 1 40 42 0.506874 0 157 0.506874 1
gene 1 40 43 0.478685 0 158 0.478685 1
gene 1 40 44 0.622335 0 159 0.622335 1
gene 1 40 45 1.19308 0 160 1.19308 1
gene 1 41 42 -0.46895 0 161 -0.46895 1
gene 1 41 43 -0.859744 0 162 -0.859744 1
gene 1 41 44 -0.247822 0 163 -0.247822 1
gene 1 41 45 0.497106 0 164 0.497106 1
genomeend 5


