/* Organism #80 Fitness: -1266.430000 Time: 0 */
genomestart 80
trait 1 0.804242 0.287377 0.289989 0.000000 0.000000 0.000000 0.000000 0.000000 
node 1 1 1 1
node 2 1 1 1
node 3 1 1 1
node 4 1 1 1
node 5 1 1 1
node 6 1 1 1
node 7 1 1 1
node 8 1 1 1
node 9 1 1 1
node 10 1 1 1
node 11 1 1 1
node 12 1 1 1
node 13 1 1 1
node 14 1 1 1
node 15 1 1 1
node 16 1 1 1
node 17 1 1 1
node 18 1 1 1
node 19 1 1 1
node 20 1 1 1
node 21 1 1 1
node 22 1 1 1
node 23 1 1 1
node 24 1 1 1
node 25 1 1 1
node 26 1 1 1
node 27 1 1 1
node 28 1 1 1
node 29 1 1 1
node 30 1 1 1
node 31 1 1 1
node 32 1 1 1
node 33 1 1 1
node 34 1 1 1
node 35 1 1 1
node 36 1 1 1
node 37 1 1 1
node 38 1 1 1
node 39 1 1 1
node 40 1 1 1
node 41 1 1 3
node 42 1 0 2
node 43 1 0 2
node 44 1 0 2
node 45 1 0 2
gene 1 1 42 -0.980001 0 1 -0.980001 1
gene 1 1 43 4.04788 0 2 4.04788 1
gene 1 1 44 2.99199 0 3 2.99199 1
gene 1 1 45 -2.08941 0 4 -2.08941 1
gene 1 2 42 -0.544692 0 5 -0.544692 1
gene 1 2 43 0.502295 0 6 0.502295 1
gene 1 2 44 -2.89915 0 7 -2.89915 1
gene 1 2 45 -0.63993 0 8 -0.63993 1
gene 1 3 42 -3.58246 0 9 -3.58246 1
gene 1 3 43 3.5758 0 10 3.5758 1
gene 1 3 44 1.93171 0 11 1.93171 1
gene 1 3 45 0.124688 0 12 0.124688 1
gene 1 4 42 -0.937402 0 13 -0.937402 1
gene 1 4 43 -0.108973 0 14 -0.108973 1
gene 1 4 44 4.40669 0 15 4.40669 1
gene 1 4 45 5 0 16 5 1
gene 1 5 42 1.90891 0 17 1.90891 1
gene 1 5 43 -0.664597 0 18 -0.664597 1
gene 1 5 44 -3.54012 0 19 -3.54012 1
gene 1 5 45 -1.22075 0 20 -1.22075 1
gene 1 6 42 1.15933 0 21 1.15933 1
gene 1 6 43 -3.50838 0 22 -3.50838 1
gene 1 6 44 0.3453 0 23 0.3453 1
gene 1 6 45 -0.218285 0 24 -0.218285 1
gene 1 7 42 -4.10925 0 25 -4.10925 1
gene 1 7 43 3.09417 0 26 3.09417 1
gene 1 7 44 -1.23722 0 27 -1.23722 1
gene 1 7 45 0.856843 0 28 0.856843 1
gene 1 8 42 2.45899 0 29 2.45899 1
gene 1 8 43 1.4277 0 30 1.4277 1
gene 1 8 44 -3.8589 0 31 -3.8589 1
gene 1 8 45 1.37829 0 32 1.37829 1
gene 1 9 42 -1.24263 0 33 -1.24263 1
gene 1 9 43 2.75648 0 34 2.75648 1
gene 1 9 44 -0.798077 0 35 -0.798077 1
gene 1 9 45 2.65765 0 36 2.65765 1
gene 1 10 42 -1.17144 0 37 -1.17144 1
gene 1 10 43 1.78093 0 38 1.78093 1
gene 1 10 44 0.0776121 0 39 0.0776121 1
gene 1 10 45 1.65923 0 40 1.65923 1
gene 1 11 42 -2.7238 0 41 -2.7238 1
gene 1 11 43 -0.192217 0 42 -0.192217 1
gene 1 11 44 0.824605 0 43 0.824605 1
gene 1 11 45 -2.59017 0 44 -2.59017 1
gene 1 12 42 0.711436 0 45 0.711436 1
gene 1 12 43 0.754314 0 46 0.754314 1
gene 1 12 44 -0.218213 0 47 -0.218213 1
gene 1 12 45 -0.815295 0 48 -0.815295 1
gene 1 13 42 1.66084 0 49 1.66084 1
gene 1 13 43 1.96359 0 50 1.96359 1
gene 1 13 44 -0.999336 0 51 -0.999336 1
gene 1 13 45 0.685193 0 52 0.685193 1
gene 1 14 42 -3.14743 0 53 -3.14743 1
gene 1 14 43 3.48152 0 54 3.48152 1
gene 1 14 44 -0.94148 0 55 -0.94148 1
gene 1 14 45 -2.58294 0 56 -2.58294 1
gene 1 15 42 0.364914 0 57 0.364914 1
gene 1 15 43 0.656577 0 58 0.656577 1
gene 1 15 44 -1.93855 0 59 -1.93855 1
gene 1 15 45 -0.34578 0 60 -0.34578 1
gene 1 16 42 -2.5372 0 61 -2.5372 1
gene 1 16 43 2.67299 0 62 2.67299 1
gene 1 16 44 -0.883966 0 63 -0.883966 1
gene 1 16 45 -0.837834 0 64 -0.837834 1
gene 1 17 42 -0.214376 0 65 -0.214376 1
gene 1 17 43 -1.59222 0 66 -1.59222 1
gene 1 17 44 -5 0 67 -5 1
gene 1 17 45 1.12471 0 68 1.12471 1
gene 1 18 42 1.66252 0 69 1.66252 1
gene 1 18 43 -1.3068 0 70 -1.3068 1
gene 1 18 44 1.05736 0 71 1.05736 1
gene 1 18 45 -1.12268 0 72 -1.12268 1
gene 1 19 42 -1.76411 0 73 -1.76411 1
gene 1 19 43 -0.0822302 0 74 -0.0822302 1
gene 1 19 44 -0.649261 0 75 -0.649261 1
gene 1 19 45 -0.0488079 0 76 -0.0488079 1
gene 1 20 42 -0.189794 0 77 -0.189794 1
gene 1 20 43 -3.09056 0 78 -3.09056 1
gene 1 20 44 -1.8788 0 79 -1.8788 1
gene 1 20 45 -1.21577 0 80 -1.21577 1
gene 1 21 42 1.88876 0 81 1.88876 1
gene 1 21 43 1.68533 0 82 1.68533 1
gene 1 21 44 0.284069 0 83 0.284069 1
gene 1 21 45 -3.48964 0 84 -3.48964 1
gene 1 22 42 2.52958 0 85 2.52958 1
gene 1 22 43 -3.33825 0 86 -3.33825 1
gene 1 22 44 -5 0 87 -5 1
gene 1 22 45 5 0 88 5 1
gene 1 23 42 -1.86929 0 89 -1.86929 1
gene 1 23 43 2.80988 0 90 2.80988 1
gene 1 23 44 -4.19931 0 91 -4.19931 1
gene 1 23 45 -4.12454 0 92 -4.12454 1
gene 1 24 42 1.14541 0 93 1.14541 1
gene 1 24 43 3.11667 0 94 3.11667 1
gene 1 24 44 0.520681 0 95 0.520681 1
gene 1 24 45 -3.52357 0 96 -3.52357 1
gene 1 25 42 0.824407 0 97 0.824407 1
gene 1 25 43 1.87817 0 98 1.87817 1
gene 1 25 44 0.545104 0 99 0.545104 1
gene 1 25 45 -3.36138 0 100 -3.36138 1
gene 1 26 42 -2.3377 0 101 -2.3377 1
gene 1 26 43 0.0916461 0 102 0.0916461 1
gene 1 26 44 -3.39635 0 103 -3.39635 1
gene 1 26 45 -3.87193 0 104 -3.87193 1
gene 1 27 42 2.88967 0 105 2.88967 1
gene 1 27 43 0.58019 0 106 0.58019 1
gene 1 27 44 2.69367 0 107 2.69367 1
gene 1 27 45 -1.08174 0 108 -1.08174 1
gene 1 28 42 1.9293 0 109 1.9293 1
gene 1 28 43 0.285111 0 110 0.285111 1
gene 1 28 44 -4.23219 0 111 -4.23219 1
gene 1 28 45 2.71977 0 112 2.71977 1
gene 1 29 42 -0.802262 0 113 -0.802262 1
gene 1 29 43 -5 0 114 -5 1
gene 1 29 44 -4.18294 0 115 -4.18294 1
gene 1 29 45 1.82379 0 116 1.82379 1
gene 1 30 42 -1.48208 0 117 -1.48208 1
gene 1 30 43 -0.851323 0 118 -0.851323 1
gene 1 30 44 -3.8762 0 119 -3.8762 1
gene 1 30 45 0.457458 0 120 0.457458 1
gene 1 31 42 -0.714804 0 121 -0.714804 1
gene 1 31 43 4.82256 0 122 4.82256 1
gene 1 31 44 -2.46931 0 123 -2.46931 1
gene 1 31 45 -3.98059 0 124 -3.98059 1
gene 1 32 42 -2.55433 0 125 -2.55433 1
gene 1 32 43 -0.120383 0 126 -0.120383 1
gene 1 32 44 0.51442 0 127 0.51442 1
gene 1 32 45 0.700502 0 128 0.700502 1
gene 1 33 42 -1.39592 0 129 -1.39592 1
gene 1 33 43 1.74007 0 130 1.74007 1
gene 1 33 44 -5 0 131 -5 1
gene 1 33 45 -0.581338 0 132 -0.581338 1
gene 1 34 42 0.0864696 0 133 0.0864696 1
gene 1 34 43 0.417847 0 134 0.417847 1
gene 1 34 44 0.627247 0 135 0.627247 1
gene 1 34 45 -0.860902 0 136 -0.860902 1
gene 1 35 42 -0.455715 0 137 -0.455715 1
gene 1 35 43 -0.0449319 0 138 -0.0449319 1
gene 1 35 44 0.993954 0 139 0.993954 1
gene 1 35 45 -1.01535 0 140 -1.01535 1
gene 1 36 42 0.536593 0 141 0.536593 1
gene 1 36 43 0.250657 0 142 0.250657 1
gene 1 36 44 0.107936 0 143 0.107936 1
gene 1 36 45 -0.435625 0 144 -0.435625 1
gene 1 37 42 0.662334 0 145 0.662334 1
gene 1 37 43 -1.10679 0 146 -1.10679 1
gene 1 37 44 -0.411749 0 147 -0.411749 1
gene 1 37 45 -0.181177 0 148 -0.181177 1
gene 1 38 42 0.98165 0 149 0.98165 1
gene 1 38 43 0.89124 0 150 0.89124 1
gene 1 38 44 0.227855 0 151 0.227855 1
gene 1 38 45 0.0117779 0 152 0.0117779 1
gene 1 39 42 -0.619504 0 153 -0.619504 1
gene 1 39 43 -0.266446 0 154 -0.266446 1
gene 1 39 44 -0.623528 0 155 -0.623528 1
gene 1 39 45 0.734651 0 156 0.734651 1
gene 1 40 42 1.8874 0 157 1.8874 1
gene 1 40 43 0.866046 0 158 0.866046 1
gene 1 40 44 -1.34479 0 159 -1.34479 1
gene 1 40 45 1.42137 0 160 1.42137 1
gene 1 41 42 0.413171 0 161 0.413171 1
gene 1 41 43 -0.281092 0 162 -0.281092 1
gene 1 41 44 -0.457299 0 163 -0.457299 1
gene 1 41 45 1.46314 0 164 1.46314 1
genomeend 80


