/* Organism #37 Fitness: -1231.700000 Time: 0 */
genomestart 37
trait 1 0.080907 0.368437 0.000000 0.361975 0.000000 0.000000 0.916888 0.427628 
node 1 1 1 1
node 2 1 1 1
node 3 1 1 1
node 4 1 1 1
node 5 1 1 1
node 6 1 1 1
node 7 1 1 1
node 8 1 1 1
node 9 1 1 1
node 10 1 1 1
node 11 1 1 1
node 12 1 1 1
node 13 1 1 1
node 14 1 1 1
node 15 1 1 1
node 16 1 1 1
node 17 1 1 1
node 18 1 1 1
node 19 1 1 1
node 20 1 1 1
node 21 1 1 1
node 22 1 1 1
node 23 1 1 1
node 24 1 1 1
node 25 1 1 1
node 26 1 1 1
node 27 1 1 1
node 28 1 1 1
node 29 1 1 1
node 30 1 1 1
node 31 1 1 1
node 32 1 1 1
node 33 1 1 1
node 34 1 1 1
node 35 1 1 1
node 36 1 1 1
node 37 1 1 1
node 38 1 1 1
node 39 1 1 1
node 40 1 1 1
node 41 1 1 3
node 42 1 0 2
node 43 1 0 2
node 44 1 0 2
node 45 1 0 2
gene 1 1 42 2.55266 0 1 2.55266 1
gene 1 1 43 -1.34298 0 2 -1.34298 1
gene 1 1 44 0.0882631 0 3 0.0882631 1
gene 1 1 45 -3.02587 0 4 -3.02587 1
gene 1 2 42 4.21956 0 5 4.21956 1
gene 1 2 43 2.7306 0 6 2.7306 1
gene 1 2 44 2.19891 0 7 2.19891 1
gene 1 2 45 -2.23436 0 8 -2.23436 1
gene 1 3 42 -0.227963 0 9 -0.227963 1
gene 1 3 43 -4.01966 0 10 -4.01966 1
gene 1 3 44 -3.07575 0 11 -3.07575 1
gene 1 3 45 -4.89359 0 12 -4.89359 1
gene 1 4 42 0.177317 0 13 0.177317 1
gene 1 4 43 0.727418 0 14 0.727418 1
gene 1 4 44 2.04153 0 15 2.04153 1
gene 1 4 45 -2.74328 0 16 -2.74328 1
gene 1 5 42 3.10838 0 17 3.10838 1
gene 1 5 43 1.52613 0 18 1.52613 1
gene 1 5 44 2.58627 0 19 2.58627 1
gene 1 5 45 -0.86209 0 20 -0.86209 1
gene 1 6 42 -4.13017 0 21 -4.13017 1
gene 1 6 43 3.19583 0 22 3.19583 1
gene 1 6 44 1.94192 0 23 1.94192 1
gene 1 6 45 3.68283 0 24 3.68283 1
gene 1 7 42 4.27945 0 25 4.27945 1
gene 1 7 43 -3.41444 0 26 -3.41444 1
gene 1 7 44 1.12543 0 27 1.12543 1
gene 1 7 45 2.84054 0 28 2.84054 1
gene 1 8 42 2.19905 0 29 2.19905 1
gene 1 8 43 -4.17873 0 30 -4.17873 1
gene 1 8 44 1.73936 0 31 1.73936 1
gene 1 8 45 0.798901 0 32 0.798901 1
gene 1 9 42 2.59685 0 33 2.59685 1
gene 1 9 43 4.55127 0 34 4.55127 1
gene 1 9 44 -4.30341 0 35 -4.30341 1
gene 1 9 45 -2.687 0 36 -2.687 1
gene 1 10 42 3.14959 0 37 3.14959 1
gene 1 10 43 4.60554 0 38 4.60554 1
gene 1 10 44 2.56465 0 39 2.56465 1
gene 1 10 45 -0.86372 0 40 -0.86372 1
gene 1 11 42 2.91574 0 41 2.91574 1
gene 1 11 43 0.902679 0 42 0.902679 1
gene 1 11 44 1.51781 0 43 1.51781 1
gene 1 11 45 -3.63737 0 44 -3.63737 1
gene 1 12 42 0.374154 0 45 0.374154 1
gene 1 12 43 0.524559 0 46 0.524559 1
gene 1 12 44 -4.02997 0 47 -4.02997 1
gene 1 12 45 -1.57256 0 48 -1.57256 1
gene 1 13 42 -0.361127 0 49 -0.361127 1
gene 1 13 43 -3.48825 0 50 -3.48825 1
gene 1 13 44 3.35224 0 51 3.35224 1
gene 1 13 45 2.53694 0 52 2.53694 1
gene 1 14 42 0.118123 0 53 0.118123 1
gene 1 14 43 -0.321613 0 54 -0.321613 1
gene 1 14 44 0.540602 0 55 0.540602 1
gene 1 14 45 -1.29552 0 56 -1.29552 1
gene 1 15 42 4.20119 0 57 4.20119 1
gene 1 15 43 -3.11593 0 58 -3.11593 1
gene 1 15 44 4.98393 0 59 4.98393 1
gene 1 15 45 0.405486 0 60 0.405486 1
gene 1 16 42 -1.40052 0 61 -1.40052 1
gene 1 16 43 2.04281 0 62 2.04281 1
gene 1 16 44 1.65674 0 63 1.65674 1
gene 1 16 45 -1.14561 0 64 -1.14561 1
gene 1 17 42 -3.61324 0 65 -3.61324 1
gene 1 17 43 5 0 66 5 1
gene 1 17 44 3.97351 0 67 3.97351 1
gene 1 17 45 0.543732 0 68 0.543732 1
gene 1 18 42 -2.61256 0 69 -2.61256 1
gene 1 18 43 -3.02198 0 70 -3.02198 1
gene 1 18 44 0.39396 0 71 0.39396 1
gene 1 18 45 -2.80018 0 72 -2.80018 1
gene 1 19 42 -2.47958 0 73 -2.47958 1
gene 1 19 43 0.671429 0 74 0.671429 1
gene 1 19 44 1.76159 0 75 1.76159 1
gene 1 19 45 -1.93857 0 76 -1.93857 1
gene 1 20 42 -1.16836 0 77 -1.16836 1
gene 1 20 43 1.05513 0 78 1.05513 1
gene 1 20 44 -1.80862 0 79 -1.80862 1
gene 1 20 45 5 0 80 5 1
gene 1 21 42 -4.94486 0 81 -4.94486 1
gene 1 21 43 1.39188 0 82 1.39188 1
gene 1 21 44 2.90886 0 83 2.90886 1
gene 1 21 45 0.400646 0 84 0.400646 1
gene 1 22 42 0.636739 0 85 0.636739 1
gene 1 22 43 -0.775986 0 86 -0.775986 1
gene 1 22 44 1.35289 0 87 1.35289 1
gene 1 22 45 2.06228 0 88 2.06228 1
gene 1 23 42 -0.0707336 0 89 -0.0707336 1
gene 1 23 43 -3.94326 0 90 -3.94326 1
gene 1 23 44 -2.53254 0 91 -2.53254 1
gene 1 23 45 3.46074 0 92 3.46074 1
gene 1 24 42 0.985833 0 93 0.985833 1
gene 1 24 43 -2.22256 0 94 -2.22256 1
gene 1 24 44 -5 0 95 -5 1
gene 1 24 45 2.33537 0 96 2.33537 1
gene 1 25 42 -2.48871 0 97 -2.48871 1
gene 1 25 43 -1.47844 0 98 -1.47844 1
gene 1 25 44 -1.0807 0 99 -1.0807 1
gene 1 25 45 -0.196056 0 100 -0.196056 1
gene 1 26 42 -0.621234 0 101 -0.621234 1
gene 1 26 43 -1.50045 0 102 -1.50045 1
gene 1 26 44 1.62905 0 103 1.62905 1
gene 1 26 45 -1.84306 0 104 -1.84306 1
gene 1 27 42 0.543635 0 105 0.543635 1
gene 1 27 43 -2.25574 0 106 -2.25574 1
gene 1 27 44 -0.11483 0 107 -0.11483 1
gene 1 27 45 -1.24932 0 108 -1.24932 1
gene 1 28 42 -1.04118 0 109 -1.04118 1
gene 1 28 43 -1.04768 0 110 -1.04768 1
gene 1 28 44 -0.469382 0 111 -0.469382 1
gene 1 28 45 -2.9941 0 112 -2.9941 1
gene 1 29 42 -0.429038 0 113 -0.429038 1
gene 1 29 43 0.386122 0 114 0.386122 1
gene 1 29 44 1.30435 0 115 1.30435 1
gene 1 29 45 -4.2198 0 116 -4.2198 1
gene 1 30 42 -4.015 0 117 -4.015 1
gene 1 30 43 -0.402318 0 118 -0.402318 1
gene 1 30 44 0.304108 0 119 0.304108 1
gene 1 30 45 0.220324 0 120 0.220324 1
gene 1 31 42 -0.69429 0 121 -0.69429 1
gene 1 31 43 4.26432 0 122 4.26432 1
gene 1 31 44 -0.827484 0 123 -0.827484 1
gene 1 31 45 2.704 0 124 2.704 1
gene 1 32 42 0.627673 0 125 0.627673 1
gene 1 32 43 -1.28983 0 126 -1.28983 1
gene 1 32 44 3.0429 0 127 3.0429 1
gene 1 32 45 -1.94356 0 128 -1.94356 1
gene 1 33 42 -1.26874 0 129 -1.26874 1
gene 1 33 43 1.19607 0 130 1.19607 1
gene 1 33 44 1.89544 0 131 1.89544 1
gene 1 33 45 3.62173 0 132 3.62173 1
gene 1 34 42 -0.213388 0 133 -0.213388 1
gene 1 34 43 -0.409467 0 134 -0.409467 1
gene 1 34 44 -1.78348 0 135 -1.78348 1
gene 1 34 45 -0.0399379 0 136 -0.0399379 1
gene 1 35 42 0.427178 0 137 0.427178 1
gene 1 35 43 0.782068 0 138 0.782068 1
gene 1 35 44 0.883779 0 139 0.883779 1
gene 1 35 45 -0.338514 0 140 -0.338514 1
gene 1 36 42 1.72912 0 141 1.72912 1
gene 1 36 43 -2.92112 0 142 -2.92112 1
gene 1 36 44 0.377792 0 143 0.377792 1
gene 1 36 45 0.786599 0 144 0.786599 1
gene 1 37 42 -1.36098 0 145 -1.36098 1
gene 1 37 43 2.38963 0 146 2.38963 1
gene 1 37 44 0.634983 0 147 0.634983 1
gene 1 37 45 -0.58407 0 148 -0.58407 1
gene 1 38 42 -0.906703 0 149 -0.906703 1
gene 1 38 43 0.0776012 0 150 0.0776012 1
gene 1 38 44 -0.200352 0 151 -0.200352 1
gene 1 38 45 0.27834 0 152 0.27834 1
gene 1 39 42 -0.873994 0 153 -0.873994 1
gene 1 39 43 -0.543185 0 154 -0.543185 1
gene 1 39 44 0.361248 0 155 0.361248 1
gene 1 39 45 0.589289 0 156 0.589289 1
gene 1 40 42 -0.527788 0 157 -0.527788 1
gene 1 40 43 -0.994109 0 158 -0.994109 1
gene 1 40 44 -0.811222 0 159 -0.811222 1
gene 1 40 45 -0.924435 0 160 -0.924435 1
gene 1 41 42 -0.342258 0 161 -0.342258 1
gene 1 41 43 -4.03211 0 162 -4.03211 1
gene 1 41 44 0.228195 0 163 0.228195 1
gene 1 41 45 -0.995532 0 164 -0.995532 1
genomeend 37


