/* Organism #9 Fitness: -1296.420000 Time: 0 */
genomestart 9
trait 1 0.100000 0.000000 0.000000 0.000000 0.000000 0.000000 0.000000 0.000000 
node 1 1 1 1
node 2 1 1 1
node 3 1 1 1
node 4 1 1 1
node 5 1 1 1
node 6 1 1 1
node 7 1 1 1
node 8 1 1 1
node 9 1 1 1
node 10 1 1 1
node 11 1 1 1
node 12 1 1 1
node 13 1 1 1
node 14 1 1 1
node 15 1 1 1
node 16 1 1 1
node 17 1 1 1
node 18 1 1 1
node 19 1 1 1
node 20 1 1 1
node 21 1 1 1
node 22 1 1 1
node 23 1 1 1
node 24 1 1 1
node 25 1 1 1
node 26 1 1 1
node 27 1 1 1
node 28 1 1 1
node 29 1 1 1
node 30 1 1 1
node 31 1 1 1
node 32 1 1 1
node 33 1 1 1
node 34 1 1 1
node 35 1 1 1
node 36 1 1 1
node 37 1 1 1
node 38 1 1 1
node 39 1 1 1
node 40 1 1 1
node 41 1 1 3
node 42 1 0 2
node 43 1 0 2
node 44 1 0 2
node 45 1 0 2
gene 1 1 42 3.05953 0 1 3.05953 1
gene 1 1 43 -0.160866 0 2 -0.160866 1
gene 1 1 44 1.90857 0 3 1.90857 1
gene 1 1 45 -0.153536 0 4 -0.153536 1
gene 1 2 42 0.978069 0 5 0.978069 1
gene 1 2 43 1.51718 0 6 1.51718 1
gene 1 2 44 -0.534623 0 7 -0.534623 1
gene 1 2 45 -0.361774 0 8 -0.361774 1
gene 1 3 42 0.492512 0 9 0.492512 1
gene 1 3 43 -0.46633 0 10 -0.46633 1
gene 1 3 44 -0.488128 0 11 -0.488128 1
gene 1 3 45 -3.24592 0 12 -3.24592 1
gene 1 4 42 1.65707 0 13 1.65707 1
gene 1 4 43 -0.646274 0 14 -0.646274 1
gene 1 4 44 2.69186 0 15 2.69186 1
gene 1 4 45 -1.86288 0 16 -1.86288 1
gene 1 5 42 -0.969347 0 17 -0.969347 1
gene 1 5 43 0.443381 0 18 0.443381 1
gene 1 5 44 0.327733 0 19 0.327733 1
gene 1 5 45 -0.351659 0 20 -0.351659 1
gene 1 6 42 -0.306405 0 21 -0.306405 1
gene 1 6 43 0.638349 0 22 0.638349 1
gene 1 6 44 -0.119053 0 23 -0.119053 1
gene 1 6 45 2.59209 0 24 2.59209 1
gene 1 7 42 4.33083 0 25 4.33083 1
gene 1 7 43 -1.07605 0 26 -1.07605 1
gene 1 7 44 0.250551 0 27 0.250551 1
gene 1 7 45 -2.92991 0 28 -2.92991 1
gene 1 8 42 -4.27603 0 29 -4.27603 1
gene 1 8 43 -2.11326 0 30 -2.11326 1
gene 1 8 44 1.165 0 31 1.165 1
gene 1 8 45 -0.577835 0 32 -0.577835 1
gene 1 9 42 0.973094 0 33 0.973094 1
gene 1 9 43 -0.433332 0 34 -0.433332 1
gene 1 9 44 1.82753 0 35 1.82753 1
gene 1 9 45 1.77919 0 36 1.77919 1
gene 1 10 42 -0.671905 0 37 -0.671905 1
gene 1 10 43 1.52958 0 38 1.52958 1
gene 1 10 44 -1.20338 0 39 -1.20338 1
gene 1 10 45 -1.09248 0 40 -1.09248 1
gene 1 11 42 -0.296584 0 41 -0.296584 1
gene 1 11 43 -0.259726 0 42 -0.259726 1
gene 1 11 44 2.79756 0 43 2.79756 1
gene 1 11 45 -4.84593 0 44 -4.84593 1
gene 1 12 42 -0.235983 0 45 -0.235983 1
gene 1 12 43 0.991463 0 46 0.991463 1
gene 1 12 44 1.84294 0 47 1.84294 1
gene 1 12 45 1.32474 0 48 1.32474 1
gene 1 13 42 2.45078 0 49 2.45078 1
gene 1 13 43 0.0767463 0 50 0.0767463 1
gene 1 13 44 3.04735 0 51 3.04735 1
gene 1 13 45 0.321596 0 52 0.321596 1
gene 1 14 42 -0.838923 0 53 -0.838923 1
gene 1 14 43 -1.69785 0 54 -1.69785 1
gene 1 14 44 -0.211252 0 55 -0.211252 1
gene 1 14 45 0.659865 0 56 0.659865 1
gene 1 15 42 0.330905 0 57 0.330905 1
gene 1 15 43 -0.281323 0 58 -0.281323 1
gene 1 15 44 0.631046 0 59 0.631046 1
gene 1 15 45 -1.71239 0 60 -1.71239 1
gene 1 16 42 -0.238976 0 61 -0.238976 1
gene 1 16 43 1.11536 0 62 1.11536 1
gene 1 16 44 -0.995936 0 63 -0.995936 1
gene 1 16 45 -0.496846 0 64 -0.496846 1
gene 1 17 42 3.34296 0 65 3.34296 1
gene 1 17 43 -0.672656 0 66 -0.672656 1
gene 1 17 44 -0.0071411 0 67 -0.0071411 1
gene 1 17 45 -0.413225 0 68 -0.413225 1
gene 1 18 42 -0.364977 0 69 -0.364977 1
gene 1 18 43 0.824521 0 70 0.824521 1
gene 1 18 44 0.660197 0 71 0.660197 1
gene 1 18 45 0.894974 0 72 0.894974 1
gene 1 19 42 2.09948 0 73 2.09948 1
gene 1 19 43 0.428386 0 74 0.428386 1
gene 1 19 44 -1.73794 0 75 -1.73794 1
gene 1 19 45 -1.92405 0 76 -1.92405 1
gene 1 20 42 -0.944335 0 77 -0.944335 1
gene 1 20 43 -0.562831 0 78 -0.562831 1
gene 1 20 44 0.719193 0 79 0.719193 1
gene 1 20 45 -0.12644 0 80 -0.12644 1
gene 1 21 42 -1.29868 0 81 -1.29868 1
gene 1 21 43 1.27222 0 82 1.27222 1
gene 1 21 44 -1.47642 0 83 -1.47642 1
gene 1 21 45 -2.91019 0 84 -2.91019 1
gene 1 22 42 -5 0 85 -5 1
gene 1 22 43 0.397913 0 86 0.397913 1
gene 1 22 44 -0.257138 0 87 -0.257138 1
gene 1 22 45 -0.886352 0 88 -0.886352 1
gene 1 23 42 -4.15722 0 89 -4.15722 1
gene 1 23 43 -0.19931 0 90 -0.19931 1
gene 1 23 44 -1.62003 0 91 -1.62003 1
gene 1 23 45 1.34441 0 92 1.34441 1
gene 1 24 42 4.88454 0 93 4.88454 1
gene 1 24 43 -4.65377 0 94 -4.65377 1
gene 1 24 44 3.82999 0 95 3.82999 1
gene 1 24 45 -0.214991 0 96 -0.214991 1
gene 1 25 42 2.19918 0 97 2.19918 1
gene 1 25 43 -0.426216 0 98 -0.426216 1
gene 1 25 44 3.90641 0 99 3.90641 1
gene 1 25 45 -0.669913 0 100 -0.669913 1
gene 1 26 42 0.373679 0 101 0.373679 1
gene 1 26 43 -2.71959 0 102 -2.71959 1
gene 1 26 44 -1.62931 0 103 -1.62931 1
gene 1 26 45 -0.85595 0 104 -0.85595 1
gene 1 27 42 -0.291789 0 105 -0.291789 1
gene 1 27 43 -2.30708 0 106 -2.30708 1
gene 1 27 44 -1.33181 0 107 -1.33181 1
gene 1 27 45 1.45992 0 108 1.45992 1
gene 1 28 42 -2.15757 0 109 -2.15757 1
gene 1 28 43 2.21454 0 110 2.21454 1
gene 1 28 44 -3.91049 0 111 -3.91049 1
gene 1 28 45 -1.47708 0 112 -1.47708 1
gene 1 29 42 -5 0 113 -5 1
gene 1 29 43 4.90282 0 114 4.90282 1
gene 1 29 44 0.124667 0 115 0.124667 1
gene 1 29 45 -2.25338 0 116 -2.25338 1
gene 1 30 42 0.294524 0 117 0.294524 1
gene 1 30 43 -1.00589 0 118 -1.00589 1
gene 1 30 44 -1.1235 0 119 -1.1235 1
gene 1 30 45 0.742438 0 120 0.742438 1
gene 1 31 42 -0.671521 0 121 -0.671521 1
gene 1 31 43 -0.39294 0 122 -0.39294 1
gene 1 31 44 0.452921 0 123 0.452921 1
gene 1 31 45 1.28035 0 124 1.28035 1
gene 1 32 42 -2.54567 0 125 -2.54567 1
gene 1 32 43 -0.379409 0 126 -0.379409 1
gene 1 32 44 -1.07804 0 127 -1.07804 1
gene 1 32 45 -0.863262 0 128 -0.863262 1
gene 1 33 42 0.475783 0 129 0.475783 1
gene 1 33 43 1.59118 0 130 1.59118 1
gene 1 33 44 -1.25078 0 131 -1.25078 1
gene 1 33 45 -1.02627 0 132 -1.02627 1
gene 1 34 42 -0.72557 0 133 -0.72557 1
gene 1 34 43 1.52111 0 134 1.52111 1
gene 1 34 44 -1.22675 0 135 -1.22675 1
gene 1 34 45 -1.15794 0 136 -1.15794 1
gene 1 35 42 -0.180671 0 137 -0.180671 1
gene 1 35 43 0.978782 0 138 0.978782 1
gene 1 35 44 -1.82045 0 139 -1.82045 1
gene 1 35 45 0.684302 0 140 0.684302 1
gene 1 36 42 0.050558 0 141 0.050558 1
gene 1 36 43 -1.32743 0 142 -1.32743 1
gene 1 36 44 0.63659 0 143 0.63659 1
gene 1 36 45 0.017294 0 144 0.017294 1
gene 1 37 42 2.5501 0 145 2.5501 1
gene 1 37 43 -0.33136 0 146 -0.33136 1
gene 1 37 44 0.119952 0 147 0.119952 1
gene 1 37 45 0.780562 0 148 0.780562 1
gene 1 38 42 0.81701 0 149 0.81701 1
gene 1 38 43 0.408377 0 150 0.408377 1
gene 1 38 44 0.153711 0 151 0.153711 1
gene 1 38 45 -2.47777 0 152 -2.47777 1
gene 1 39 42 -0.377758 0 153 -0.377758 1
gene 1 39 43 1.69389 0 154 1.69389 1
gene 1 39 44 -1.65715 0 155 -1.65715 1
gene 1 39 45 1.61603 0 156 1.61603 1
gene 1 40 42 -0.799424 0 157 -0.799424 1
gene 1 40 43 -0.115925 0 158 -0.115925 1
gene 1 40 44 -0.500527 0 159 -0.500527 1
gene 1 40 45 0.884039 0 160 0.884039 1
gene 1 41 42 0.518189 0 161 0.518189 1
gene 1 41 43 -0.967949 0 162 -0.967949 1
gene 1 41 44 3.61984 0 163 3.61984 1
gene 1 41 45 0.0293873 0 164 0.0293873 1
genomeend 9


