/* Organism #1 Fitness: -1190.880000 Time: 0 */
genomestart 1
trait 1 0.000000 0.000000 0.000000 0.313941 0.000000 0.000000 0.018032 0.943769 
node 1 1 1 1
node 2 1 1 1
node 3 1 1 1
node 4 1 1 1
node 5 1 1 1
node 6 1 1 1
node 7 1 1 1
node 8 1 1 1
node 9 1 1 1
node 10 1 1 1
node 11 1 1 1
node 12 1 1 1
node 13 1 1 1
node 14 1 1 1
node 15 1 1 1
node 16 1 1 1
node 17 1 1 1
node 18 1 1 1
node 19 1 1 1
node 20 1 1 1
node 21 1 1 1
node 22 1 1 1
node 23 1 1 1
node 24 1 1 1
node 25 1 1 1
node 26 1 1 1
node 27 1 1 1
node 28 1 1 1
node 29 1 1 1
node 30 1 1 1
node 31 1 1 1
node 32 1 1 1
node 33 1 1 1
node 34 1 1 1
node 35 1 1 1
node 36 1 1 1
node 37 1 1 1
node 38 1 1 1
node 39 1 1 1
node 40 1 1 1
node 41 1 1 3
node 42 1 0 2
node 43 1 0 2
node 44 1 0 2
node 45 1 0 2
gene 1 1 42 3.75177 0 1 3.75177 1
gene 1 1 43 -2.25628 0 2 -2.25628 1
gene 1 1 44 4.05245 0 3 4.05245 1
gene 1 1 45 -1.47954 0 4 -1.47954 1
gene 1 2 42 0.656867 0 5 0.656867 1
gene 1 2 43 2.02268 0 6 2.02268 1
gene 1 2 44 0.553489 0 7 0.553489 1
gene 1 2 45 -0.0377174 0 8 -0.0377174 1
gene 1 3 42 3.06272 0 9 3.06272 1
gene 1 3 43 -1.02906 0 10 -1.02906 1
gene 1 3 44 -1.13775 0 11 -1.13775 1
gene 1 3 45 -0.535762 0 12 -0.535762 1
gene 1 4 42 3.48006 0 13 3.48006 1
gene 1 4 43 -2.33043 0 14 -2.33043 1
gene 1 4 44 -4.03915 0 15 -4.03915 1
gene 1 4 45 -0.663739 0 16 -0.663739 1
gene 1 5 42 -2.40423 0 17 -2.40423 1
gene 1 5 43 0.104694 0 18 0.104694 1
gene 1 5 44 0.615432 0 19 0.615432 1
gene 1 5 45 -0.956531 0 20 -0.956531 1
gene 1 6 42 -4.61847 0 21 -4.61847 1
gene 1 6 43 0.271431 0 22 0.271431 1
gene 1 6 44 0.294661 0 23 0.294661 1
gene 1 6 45 -1.52095 0 24 -1.52095 1
gene 1 7 42 1.09646 0 25 1.09646 1
gene 1 7 43 -3.67708 0 26 -3.67708 1
gene 1 7 44 -1.64176 0 27 -1.64176 1
gene 1 7 45 -0.509393 0 28 -0.509393 1
gene 1 8 42 3.58295 0 29 3.58295 1
gene 1 8 43 -0.505045 0 30 -0.505045 1
gene 1 8 44 2.01828 0 31 2.01828 1
gene 1 8 45 2.05354 0 32 2.05354 1
gene 1 9 42 2.42189 0 33 2.42189 1
gene 1 9 43 0.622915 0 34 0.622915 1
gene 1 9 44 -0.743272 0 35 -0.743272 1
gene 1 9 45 -0.774103 0 36 -0.774103 1
gene 1 10 42 4.27248 0 37 4.27248 1
gene 1 10 43 1.59232 0 38 1.59232 1
gene 1 10 44 -3.585 0 39 -3.585 1
gene 1 10 45 3.75445 0 40 3.75445 1
gene 1 11 42 1.33174 0 41 1.33174 1
gene 1 11 43 -1.8551 0 42 -1.8551 1
gene 1 11 44 2.96967 0 43 2.96967 1
gene 1 11 45 -0.179144 0 44 -0.179144 1
gene 1 12 42 0.00914919 0 45 0.00914919 1
gene 1 12 43 -0.0721986 0 46 -0.0721986 1
gene 1 12 44 -1.94621 0 47 -1.94621 1
gene 1 12 45 -0.383104 0 48 -0.383104 1
gene 1 13 42 1.5919 0 49 1.5919 1
gene 1 13 43 -0.918694 0 50 -0.918694 1
gene 1 13 44 -1.1659 0 51 -1.1659 1
gene 1 13 45 -0.955444 0 52 -0.955444 1
gene 1 14 42 2.11859 0 53 2.11859 1
gene 1 14 43 -1.78616 0 54 -1.78616 1
gene 1 14 44 3.50445 0 55 3.50445 1
gene 1 14 45 -0.670507 0 56 -0.670507 1
gene 1 15 42 0.951937 0 57 0.951937 1
gene 1 15 43 -0.891623 0 58 -0.891623 1
gene 1 15 44 0.178878 0 59 0.178878 1
gene 1 15 45 -3.04424 0 60 -3.04424 1
gene 1 16 42 -1.01413 0 61 -1.01413 1
gene 1 16 43 -0.505542 0 62 -0.505542 1
gene 1 16 44 1.22913 0 63 1.22913 1
gene 1 16 45 -0.43382 0 64 -0.43382 1
gene 1 17 42 1.42994 0 65 1.42994 1
gene 1 17 43 -0.935589 0 66 -0.935589 1
gene 1 17 44 -0.655707 0 67 -0.655707 1
gene 1 17 45 1.7322 0 68 1.7322 1
gene 1 18 42 -4.83025 0 69 -4.83025 1
gene 1 18 43 4.4309 0 70 4.4309 1
gene 1 18 44 5 0 71 5 1
gene 1 18 45 -3.208 0 72 -3.208 1
gene 1 19 42 -1.89833 0 73 -1.89833 1
gene 1 19 43 -1.86691 0 74 -1.86691 1
gene 1 19 44 2.70333 0 75 2.70333 1
gene 1 19 45 3.55453 0 76 3.55453 1
gene 1 20 42 1.32251 0 77 1.32251 1
gene 1 20 43 -0.107462 0 78 -0.107462 1
gene 1 20 44 -1.10468 0 79 -1.10468 1
gene 1 20 45 1.41299 0 80 1.41299 1
gene 1 21 42 -0.905613 0 81 -0.905613 1
gene 1 21 43 3.98761 0 82 3.98761 1
gene 1 21 44 4.19018 0 83 4.19018 1
gene 1 21 45 -5 0 84 -5 1
gene 1 22 42 -1.19937 0 85 -1.19937 1
gene 1 22 43 -0.452965 0 86 -0.452965 1
gene 1 22 44 -3.24862 0 87 -3.24862 1
gene 1 22 45 -0.945235 0 88 -0.945235 1
gene 1 23 42 1.27753 0 89 1.27753 1
gene 1 23 43 -2.88794 0 90 -2.88794 1
gene 1 23 44 -1.6964 0 91 -1.6964 1
gene 1 23 45 3.78428 0 92 3.78428 1
gene 1 24 42 0.0444787 0 93 0.0444787 1
gene 1 24 43 -3.72 0 94 -3.72 1
gene 1 24 44 2.43486 0 95 2.43486 1
gene 1 24 45 3.99567 0 96 3.99567 1
gene 1 25 42 -3.67718 0 97 -3.67718 1
gene 1 25 43 -1.20779 0 98 -1.20779 1
gene 1 25 44 4.36331 0 99 4.36331 1
gene 1 25 45 2.4633 0 100 2.4633 1
gene 1 26 42 -1.65898 0 101 -1.65898 1
gene 1 26 43 -3.78506 0 102 -3.78506 1
gene 1 26 44 0.315676 0 103 0.315676 1
gene 1 26 45 1.99233 0 104 1.99233 1
gene 1 27 42 1.16754 0 105 1.16754 1
gene 1 27 43 -4.90645 0 106 -4.90645 1
gene 1 27 44 1.91304 0 107 1.91304 1
gene 1 27 45 -2.07183 0 108 -2.07183 1
gene 1 28 42 -3.38417 0 109 -3.38417 1
gene 1 28 43 2.51423 0 110 2.51423 1
gene 1 28 44 4.32438 0 111 4.32438 1
gene 1 28 45 4.0505 0 112 4.0505 1
gene 1 29 42 1.4796 0 113 1.4796 1
gene 1 29 43 -0.761301 0 114 -0.761301 1
gene 1 29 44 -2.34775 0 115 -2.34775 1
gene 1 29 45 1.47323 0 116 1.47323 1
gene 1 30 42 0.923485 0 117 0.923485 1
gene 1 30 43 3.25037 0 118 3.25037 1
gene 1 30 44 -2.29928 0 119 -2.29928 1
gene 1 30 45 2.80995 0 120 2.80995 1
gene 1 31 42 -0.940734 0 121 -0.940734 1
gene 1 31 43 0.0348951 0 122 0.0348951 1
gene 1 31 44 1.00693 0 123 1.00693 1
gene 1 31 45 0.808083 0 124 0.808083 1
gene 1 32 42 -3.61398 0 125 -3.61398 1
gene 1 32 43 1.25137 0 126 1.25137 1
gene 1 32 44 -2.26548 0 127 -2.26548 1
gene 1 32 45 1.73277 0 128 1.73277 1
gene 1 33 42 -1.93165 0 129 -1.93165 1
gene 1 33 43 0.30267 0 130 0.30267 1
gene 1 33 44 3.29433 0 131 3.29433 1
gene 1 33 45 -1.47945 0 132 -1.47945 1
gene 1 34 42 -1.34637 0 133 -1.34637 1
gene 1 34 43 1.52027 0 134 1.52027 1
gene 1 34 44 -0.428945 0 135 -0.428945 1
gene 1 34 45 0.174109 0 136 0.174109 1
gene 1 35 42 1.11194 0 137 1.11194 1
gene 1 35 43 -0.311734 0 138 -0.311734 1
gene 1 35 44 -0.817734 0 139 -0.817734 1
gene 1 35 45 -0.148671 0 140 -0.148671 1
gene 1 36 42 1.71793 0 141 1.71793 1
gene 1 36 43 0.736232 0 142 0.736232 1
gene 1 36 44 1.30455 0 143 1.30455 1
gene 1 36 45 -0.221675 0 144 -0.221675 1
gene 1 37 42 0.55474 0 145 0.55474 1
gene 1 37 43 0.508054 0 146 0.508054 1
gene 1 37 44 -2.18018 0 147 -2.18018 1
gene 1 37 45 -1.76615 0 148 -1.76615 1
gene 1 38 42 0.0239844 0 149 0.0239844 1
gene 1 38 43 -0.149104 0 150 -0.149104 1
gene 1 38 44 1.11151 0 151 1.11151 1
gene 1 38 45 1.7325 0 152 1.7325 1
gene 1 39 42 0.748315 0 153 0.748315 1
gene 1 39 43 -0.660835 0 154 -0.660835 1
gene 1 39 44 1.48497 0 155 1.48497 1
gene 1 39 45 -0.697694 0 156 -0.697694 1
gene 1 40 42 0.760157 0 157 0.760157 1
gene 1 40 43 -0.0273957 0 158 -0.0273957 1
gene 1 40 44 -1.72649 0 159 -1.72649 1
gene 1 40 45 0.0271841 0 160 0.0271841 1
gene 1 41 42 2.88787 0 161 2.88787 1
gene 1 41 43 -0.259484 0 162 -0.259484 1
gene 1 41 44 0.878078 0 163 0.878078 1
gene 1 41 45 -1.28472 0 164 -1.28472 1
genomeend 1


