/* Organism #4 Fitness: -1121.440000 Time: 0 */
genomestart 4
trait 1 0.100000 0.000000 0.979661 0.000000 0.000000 0.000000 0.000000 0.768553 
node 1 1 1 1
node 2 1 1 1
node 3 1 1 1
node 4 1 1 1
node 5 1 1 1
node 6 1 1 1
node 7 1 1 1
node 8 1 1 1
node 9 1 1 1
node 10 1 1 1
node 11 1 1 1
node 12 1 1 1
node 13 1 1 1
node 14 1 1 1
node 15 1 1 1
node 16 1 1 1
node 17 1 1 1
node 18 1 1 1
node 19 1 1 1
node 20 1 1 1
node 21 1 1 1
node 22 1 1 1
node 23 1 1 1
node 24 1 1 1
node 25 1 1 1
node 26 1 1 1
node 27 1 1 1
node 28 1 1 1
node 29 1 1 1
node 30 1 1 1
node 31 1 1 1
node 32 1 1 1
node 33 1 1 1
node 34 1 1 1
node 35 1 1 1
node 36 1 1 1
node 37 1 1 1
node 38 1 1 1
node 39 1 1 1
node 40 1 1 1
node 41 1 1 3
node 42 1 0 2
node 43 1 0 2
node 44 1 0 2
node 45 1 0 2
gene 1 1 42 -1.74091 0 1 -1.74091 1
gene 1 1 43 -2.69776 0 2 -2.69776 1
gene 1 1 44 1.19349 0 3 1.19349 1
gene 1 1 45 -1.59951 0 4 -1.59951 1
gene 1 2 42 2.70579 0 5 2.70579 1
gene 1 2 43 0.109087 0 6 0.109087 1
gene 1 2 44 1.57689 0 7 1.57689 1
gene 1 2 45 3.03153 0 8 3.03153 1
gene 1 3 42 0.58768 0 9 0.58768 1
gene 1 3 43 1.30823 0 10 1.30823 1
gene 1 3 44 0.0470239 0 11 0.0470239 1
gene 1 3 45 -1.05528 0 12 -1.05528 1
gene 1 4 42 0.570784 0 13 0.570784 1
gene 1 4 43 -1.28095 0 14 -1.28095 1
gene 1 4 44 3.93287 0 15 3.93287 1
gene 1 4 45 -2.22362 0 16 -2.22362 1
gene 1 5 42 -1.80594 0 17 -1.80594 1
gene 1 5 43 -1.97195 0 18 -1.97195 1
gene 1 5 44 1.76243 0 19 1.76243 1
gene 1 5 45 2.32806 0 20 2.32806 1
gene 1 6 42 1.42697 0 21 1.42697 1
gene 1 6 43 -0.904086 0 22 -0.904086 1
gene 1 6 44 1.49202 0 23 1.49202 1
gene 1 6 45 0.0709133 0 24 0.0709133 1
gene 1 7 42 -0.657434 0 25 -0.657434 1
gene 1 7 43 -1.8272 0 26 -1.8272 1
gene 1 7 44 -5 0 27 -5 1
gene 1 7 45 -0.466585 0 28 -0.466585 1
gene 1 8 42 2.79163 0 29 2.79163 1
gene 1 8 43 -1.94373 0 30 -1.94373 1
gene 1 8 44 -1.33211 0 31 -1.33211 1
gene 1 8 45 -0.383498 0 32 -0.383498 1
gene 1 9 42 -0.969459 0 33 -0.969459 1
gene 1 9 43 0.330756 0 34 0.330756 1
gene 1 9 44 3.95909 0 35 3.95909 1
gene 1 9 45 -2.45576 0 36 -2.45576 1
gene 1 10 42 1.61015 0 37 1.61015 1
gene 1 10 43 -2.73284 0 38 -2.73284 1
gene 1 10 44 1.28616 0 39 1.28616 1
gene 1 10 45 1.1039 0 40 1.1039 1
gene 1 11 42 2.33773 0 41 2.33773 1
gene 1 11 43 -0.502153 0 42 -0.502153 1
gene 1 11 44 2.51771 0 43 2.51771 1
gene 1 11 45 4.18933 0 44 4.18933 1
gene 1 12 42 4.84212 0 45 4.84212 1
gene 1 12 43 -0.983054 0 46 -0.983054 1
gene 1 12 44 -0.553888 0 47 -0.553888 1
gene 1 12 45 0.571557 0 48 0.571557 1
gene 1 13 42 5 0 49 5 1
gene 1 13 43 0.878462 0 50 0.878462 1
gene 1 13 44 -1.47767 0 51 -1.47767 1
gene 1 13 45 -0.923952 0 52 -0.923952 1
gene 1 14 42 -0.0961175 0 53 -0.0961175 1
gene 1 14 43 -2.51964 0 54 -2.51964 1
gene 1 14 44 1.74526 0 55 1.74526 1
gene 1 14 45 -0.220761 0 56 -0.220761 1
gene 1 15 42 0.914981 0 57 0.914981 1
gene 1 15 43 0.188917 0 58 0.188917 1
gene 1 15 44 1.37414 0 59 1.37414 1
gene 1 15 45 0.55476 0 60 0.55476 1
gene 1 16 42 4.36836 0 61 4.36836 1
gene 1 16 43 2.78798 0 62 2.78798 1
gene 1 16 44 3.38257 0 63 3.38257 1
gene 1 16 45 -2.11337 0 64 -2.11337 1
gene 1 17 42 3.03535 0 65 3.03535 1
gene 1 17 43 0.270426 0 66 0.270426 1
gene 1 17 44 1.04934 0 67 1.04934 1
gene 1 17 45 -1.73492 0 68 -1.73492 1
gene 1 18 42 3.88597 0 69 3.88597 1
gene 1 18 43 -0.0628796 0 70 -0.0628796 1
gene 1 18 44 -0.114473 0 71 -0.114473 1
gene 1 18 45 1.03149 0 72 1.03149 1
gene 1 19 42 1.44299 0 73 1.44299 1
gene 1 19 43 0.122092 0 74 0.122092 1
gene 1 19 44 0.140318 0 75 0.140318 1
gene 1 19 45 2.53141 0 76 2.53141 1
gene 1 20 42 -1.3385 0 77 -1.3385 1
gene 1 20 43 -1.5705 0 78 -1.5705 1
gene 1 20 44 0.607792 0 79 0.607792 1
gene 1 20 45 1.05878 0 80 1.05878 1
gene 1 21 42 2.93976 0 81 2.93976 1
gene 1 21 43 1.90891 0 82 1.90891 1
gene 1 21 44 2.47693 0 83 2.47693 1
gene 1 21 45 -3.64241 0 84 -3.64241 1
gene 1 22 42 3.7672 0 85 3.7672 1
gene 1 22 43 2.1567 0 86 2.1567 1
gene 1 22 44 0.210293 0 87 0.210293 1
gene 1 22 45 -5 0 88 -5 1
gene 1 23 42 1.64707 0 89 1.64707 1
gene 1 23 43 1.10019 0 90 1.10019 1
gene 1 23 44 2.15384 0 91 2.15384 1
gene 1 23 45 1.94316 0 92 1.94316 1
gene 1 24 42 -1.21488 0 93 -1.21488 1
gene 1 24 43 -4.91743 0 94 -4.91743 1
gene 1 24 44 -2.09927 0 95 -2.09927 1
gene 1 24 45 5 0 96 5 1
gene 1 25 42 3.65305 0 97 3.65305 1
gene 1 25 43 -0.794603 0 98 -0.794603 1
gene 1 25 44 2.98558 0 99 2.98558 1
gene 1 25 45 1.59678 0 100 1.59678 1
gene 1 26 42 -3.7333 0 101 -3.7333 1
gene 1 26 43 -0.944136 0 102 -0.944136 1
gene 1 26 44 0.152176 0 103 0.152176 1
gene 1 26 45 2.00478 0 104 2.00478 1
gene 1 27 42 -0.809953 0 105 -0.809953 1
gene 1 27 43 2.64221 0 106 2.64221 1
gene 1 27 44 -0.647263 0 107 -0.647263 1
gene 1 27 45 -2.76226 0 108 -2.76226 1
gene 1 28 42 -0.204399 0 109 -0.204399 1
gene 1 28 43 1.16572 0 110 1.16572 1
gene 1 28 44 2.9454 0 111 2.9454 1
gene 1 28 45 2.11699 0 112 2.11699 1
gene 1 29 42 -0.910365 0 113 -0.910365 1
gene 1 29 43 3.16405 0 114 3.16405 1
gene 1 29 44 0.214805 0 115 0.214805 1
gene 1 29 45 0.548783 0 116 0.548783 1
gene 1 30 42 -0.503716 0 117 -0.503716 1
gene 1 30 43 -4.21504 0 118 -4.21504 1
gene 1 30 44 2.03047 0 119 2.03047 1
gene 1 30 45 2.4563 0 120 2.4563 1
gene 1 31 42 1.33156 0 121 1.33156 1
gene 1 31 43 -1.0994 0 122 -1.0994 1
gene 1 31 44 1.60622 0 123 1.60622 1
gene 1 31 45 1.19159 0 124 1.19159 1
gene 1 32 42 0.633081 0 125 0.633081 1
gene 1 32 43 -1.97327 0 126 -1.97327 1
gene 1 32 44 -1.89969 0 127 -1.89969 1
gene 1 32 45 -2.56771 0 128 -2.56771 1
gene 1 33 42 1.62088 0 129 1.62088 1
gene 1 33 43 -0.294788 0 130 -0.294788 1
gene 1 33 44 0.543247 0 131 0.543247 1
gene 1 33 45 1.28048 0 132 1.28048 1
gene 1 34 42 0.0142448 0 133 0.0142448 1
gene 1 34 43 -0.362299 0 134 -0.362299 1
gene 1 34 44 0.504475 0 135 0.504475 1
gene 1 34 45 -0.605232 0 136 -0.605232 1
gene 1 35 42 0.818435 0 137 0.818435 1
gene 1 35 43 1.09569 0 138 1.09569 1
gene 1 35 44 0.00133642 0 139 0.00133642 1
gene 1 35 45 0.533348 0 140 0.533348 1
gene 1 36 42 -0.72135 0 141 -0.72135 1
gene 1 36 43 0.842075 0 142 0.842075 1
gene 1 36 44 -1.03866 0 143 -1.03866 1
gene 1 36 45 0.392645 0 144 0.392645 1
gene 1 37 42 -0.92154 0 145 -0.92154 1
gene 1 37 43 -0.888152 0 146 -0.888152 1
gene 1 37 44 1.38756 0 147 1.38756 1
gene 1 37 45 0.465503 0 148 0.465503 1
gene 1 38 42 1.19854 0 149 1.19854 1
gene 1 38 43 -0.215522 0 150 -0.215522 1
gene 1 38 44 -0.633088 0 151 -0.633088 1
gene 1 38 45 -1.22907 0 152 -1.22907 1
gene 1 39 42 -0.23336 0 153 -0.23336 1
gene 1 39 43 0.467986 0 154 0.467986 1
gene 1 39 44 0.202382 0 155 0.202382 1
gene 1 39 45 -1.58648 0 156 -1.58648 1
gene 1 40 42 -1.08398 0 157 -1.08398 1
gene 1 40 43 0.476165 0 158 0.476165 1
gene 1 40 44 2.6349 0 159 2.6349 1
gene 1 40 45 0.12656 0 160 0.12656 1
gene 1 41 42 0.596787 0 161 0.596787 1
gene 1 41 43 0.684024 0 162 0.684024 1
gene 1 41 44 -0.196702 0 163 -0.196702 1
gene 1 41 45 -2.75496 0 164 -2.75496 1
genomeend 4


