/* Organism #14 Fitness: -1165.910000 Time: 0 */
genomestart 14
trait 1 0.100000 0.244658 0.000000 0.000000 0.522198 0.000000 0.691997 0.828070 
node 1 1 1 1
node 2 1 1 1
node 3 1 1 1
node 4 1 1 1
node 5 1 1 1
node 6 1 1 1
node 7 1 1 1
node 8 1 1 1
node 9 1 1 1
node 10 1 1 1
node 11 1 1 1
node 12 1 1 1
node 13 1 1 1
node 14 1 1 1
node 15 1 1 1
node 16 1 1 1
node 17 1 1 1
node 18 1 1 1
node 19 1 1 1
node 20 1 1 1
node 21 1 1 1
node 22 1 1 1
node 23 1 1 1
node 24 1 1 1
node 25 1 1 1
node 26 1 1 1
node 27 1 1 1
node 28 1 1 1
node 29 1 1 1
node 30 1 1 1
node 31 1 1 1
node 32 1 1 1
node 33 1 1 1
node 34 1 1 1
node 35 1 1 1
node 36 1 1 1
node 37 1 1 1
node 38 1 1 1
node 39 1 1 1
node 40 1 1 1
node 41 1 1 3
node 42 1 0 2
node 43 1 0 2
node 44 1 0 2
node 45 1 0 2
gene 1 1 42 0.646527 0 1 0.646527 1
gene 1 1 43 -2.40096 0 2 -2.40096 1
gene 1 1 44 1.37433 0 3 1.37433 1
gene 1 1 45 -2.61097 0 4 -2.61097 1
gene 1 2 42 1.49221 0 5 1.49221 1
gene 1 2 43 -3.45514 0 6 -3.45514 1
gene 1 2 44 2.15779 0 7 2.15779 1
gene 1 2 45 -1.33739 0 8 -1.33739 1
gene 1 3 42 -0.224677 0 9 -0.224677 1
gene 1 3 43 2.40858 0 10 2.40858 1
gene 1 3 44 1.51354 0 11 1.51354 1
gene 1 3 45 -1.89251 0 12 -1.89251 1
gene 1 4 42 -0.71304 0 13 -0.71304 1
gene 1 4 43 2.06707 0 14 2.06707 1
gene 1 4 44 0.515152 0 15 0.515152 1
gene 1 4 45 -3.76486 0 16 -3.76486 1
gene 1 5 42 1.04784 0 17 1.04784 1
gene 1 5 43 -3.1522 0 18 -3.1522 1
gene 1 5 44 1.9889 0 19 1.9889 1
gene 1 5 45 -1.49924 0 20 -1.49924 1
gene 1 6 42 4.88587 0 21 4.88587 1
gene 1 6 43 -4.12973 0 22 -4.12973 1
gene 1 6 44 1.68517 0 23 1.68517 1
gene 1 6 45 3.72676 0 24 3.72676 1
gene 1 7 42 -2.15974 0 25 -2.15974 1
gene 1 7 43 -4.14758 0 26 -4.14758 1
gene 1 7 44 1.79732 0 27 1.79732 1
gene 1 7 45 -0.668918 0 28 -0.668918 1
gene 1 8 42 1.10947 0 29 1.10947 1
gene 1 8 43 -1.11411 0 30 -1.11411 1
gene 1 8 44 1.04854 0 31 1.04854 1
gene 1 8 45 1.14486 0 32 1.14486 1
gene 1 9 42 -1.40524 0 33 -1.40524 1
gene 1 9 43 -3.94639 0 34 -3.94639 1
gene 1 9 44 -0.00611448 0 35 -0.00611448 1
gene 1 9 45 4.54887 0 36 4.54887 1
gene 1 10 42 4.51453 0 37 4.51453 1
gene 1 10 43 2.64849 0 38 2.64849 1
gene 1 10 44 -3.57143 0 39 -3.57143 1
gene 1 10 45 1.22062 0 40 1.22062 1
gene 1 11 42 1.32137 0 41 1.32137 1
gene 1 11 43 2.26052 0 42 2.26052 1
gene 1 11 44 2.24321 0 43 2.24321 1
gene 1 11 45 -0.692903 0 44 -0.692903 1
gene 1 12 42 0.590559 0 45 0.590559 1
gene 1 12 43 -1.31871 0 46 -1.31871 1
gene 1 12 44 0.0893428 0 47 0.0893428 1
gene 1 12 45 2.44602 0 48 2.44602 1
gene 1 13 42 2.74301 0 49 2.74301 1
gene 1 13 43 -2.6224 0 50 -2.6224 1
gene 1 13 44 3.19657 0 51 3.19657 1
gene 1 13 45 2.96897 0 52 2.96897 1
gene 1 14 42 1.53802 0 53 1.53802 1
gene 1 14 43 -1.07134 0 54 -1.07134 1
gene 1 14 44 -1.46691 0 55 -1.46691 1
gene 1 14 45 -2.00198 0 56 -2.00198 1
gene 1 15 42 0.620891 0 57 0.620891 1
gene 1 15 43 -4.19284 0 58 -4.19284 1
gene 1 15 44 1.62489 0 59 1.62489 1
gene 1 15 45 -0.632148 0 60 -0.632148 1
gene 1 16 42 1.68789 0 61 1.68789 1
gene 1 16 43 2.76184 0 62 2.76184 1
gene 1 16 44 3.21772 0 63 3.21772 1
gene 1 16 45 -1.55569 0 64 -1.55569 1
gene 1 17 42 1.86183 0 65 1.86183 1
gene 1 17 43 -1.80155 0 66 -1.80155 1
gene 1 17 44 1.65149 0 67 1.65149 1
gene 1 17 45 2.3467 0 68 2.3467 1
gene 1 18 42 2.7519 0 69 2.7519 1
gene 1 18 43 1.29595 0 70 1.29595 1
gene 1 18 44 -0.0399257 0 71 -0.0399257 1
gene 1 18 45 1.95078 0 72 1.95078 1
gene 1 19 42 -1.031 0 73 -1.031 1
gene 1 19 43 0.572486 0 74 0.572486 1
gene 1 19 44 -2.85375 0 75 -2.85375 1
gene 1 19 45 3.16228 0 76 3.16228 1
gene 1 20 42 1.03517 0 77 1.03517 1
gene 1 20 43 -0.81201 0 78 -0.81201 1
gene 1 20 44 0.271608 0 79 0.271608 1
gene 1 20 45 -5 0 80 -5 1
gene 1 21 42 -0.481475 0 81 -0.481475 1
gene 1 21 43 5 0 82 5 1
gene 1 21 44 3.84246 0 83 3.84246 1
gene 1 21 45 -5 0 84 -5 1
gene 1 22 42 -2.2932 0 85 -2.2932 1
gene 1 22 43 -4.20247 0 86 -4.20247 1
gene 1 22 44 -3.76305 0 87 -3.76305 1
gene 1 22 45 0.541936 0 88 0.541936 1
gene 1 23 42 -0.313565 0 89 -0.313565 1
gene 1 23 43 -3.88382 0 90 -3.88382 1
gene 1 23 44 -4.44236 0 91 -4.44236 1
gene 1 23 45 4.93537 0 92 4.93537 1
gene 1 24 42 0.89387 0 93 0.89387 1
gene 1 24 43 -4.02533 0 94 -4.02533 1
gene 1 24 44 -1.24298 0 95 -1.24298 1
gene 1 24 45 1.97968 0 96 1.97968 1
gene 1 25 42 -1.04138 0 97 -1.04138 1
gene 1 25 43 -4.2342 0 98 -4.2342 1
gene 1 25 44 1.24368 0 99 1.24368 1
gene 1 25 45 0.909366 0 100 0.909366 1
gene 1 26 42 -0.24702 0 101 -0.24702 1
gene 1 26 43 -3.46134 0 102 -3.46134 1
gene 1 26 44 -0.730829 0 103 -0.730829 1
gene 1 26 45 2.14366 0 104 2.14366 1
gene 1 27 42 -4.79959 0 105 -4.79959 1
gene 1 27 43 0.631702 0 106 0.631702 1
gene 1 27 44 2.98552 0 107 2.98552 1
gene 1 27 45 -0.367212 0 108 -0.367212 1
gene 1 28 42 -4.23656 0 109 -4.23656 1
gene 1 28 43 1.36708 0 110 1.36708 1
gene 1 28 44 -1.27852 0 111 -1.27852 1
gene 1 28 45 -2.52309 0 112 -2.52309 1
gene 1 29 42 -4.34301 0 113 -4.34301 1
gene 1 29 43 0.378409 0 114 0.378409 1
gene 1 29 44 -1.32015 0 115 -1.32015 1
gene 1 29 45 -0.806708 0 116 -0.806708 1
gene 1 30 42 -3.82262 0 117 -3.82262 1
gene 1 30 43 -0.815747 0 118 -0.815747 1
gene 1 30 44 -0.288101 0 119 -0.288101 1
gene 1 30 45 0.519313 0 120 0.519313 1
gene 1 31 42 -3.49177 0 121 -3.49177 1
gene 1 31 43 1.22944 0 122 1.22944 1
gene 1 31 44 0.819612 0 123 0.819612 1
gene 1 31 45 -1.67743 0 124 -1.67743 1
gene 1 32 42 0.672891 0 125 0.672891 1
gene 1 32 43 3.73575 0 126 3.73575 1
gene 1 32 44 -3.51099 0 127 -3.51099 1
gene 1 32 45 3.58195 0 128 3.58195 1
gene 1 33 42 -2.22777 0 129 -2.22777 1
gene 1 33 43 2.38813 0 130 2.38813 1
gene 1 33 44 -0.94485 0 131 -0.94485 1
gene 1 33 45 2.39506 0 132 2.39506 1
gene 1 34 42 0.704389 0 133 0.704389 1
gene 1 34 43 0.00623095 0 134 0.00623095 1
gene 1 34 44 -0.433 0 135 -0.433 1
gene 1 34 45 -0.85562 0 136 -0.85562 1
gene 1 35 42 -2.10675 0 137 -2.10675 1
gene 1 35 43 -0.194779 0 138 -0.194779 1
gene 1 35 44 -0.998517 0 139 -0.998517 1
gene 1 35 45 2.05663 0 140 2.05663 1
gene 1 36 42 -2.50651 0 141 -2.50651 1
gene 1 36 43 1.12503 0 142 1.12503 1
gene 1 36 44 -3.87942 0 143 -3.87942 1
gene 1 36 45 0.376068 0 144 0.376068 1
gene 1 37 42 0.071924 0 145 0.071924 1
gene 1 37 43 0.583141 0 146 0.583141 1
gene 1 37 44 0.379961 0 147 0.379961 1
gene 1 37 45 -0.360299 0 148 -0.360299 1
gene 1 38 42 0.673906 0 149 0.673906 1
gene 1 38 43 0.793538 0 150 0.793538 1
gene 1 38 44 -0.0741522 0 151 -0.0741522 1
gene 1 38 45 -0.652908 0 152 -0.652908 1
gene 1 39 42 1.38022 0 153 1.38022 1
gene 1 39 43 -0.454235 0 154 -0.454235 1
gene 1 39 44 -0.719917 0 155 -0.719917 1
gene 1 39 45 -0.959938 0 156 -0.959938 1
gene 1 40 42 0.866692 0 157 0.866692 1
gene 1 40 43 0.841415 0 158 0.841415 1
gene 1 40 44 1.45538 0 159 1.45538 1
gene 1 40 45 -0.720276 0 160 -0.720276 1
gene 1 41 42 1.30948 0 161 1.30948 1
gene 1 41 43 -1.41962 0 162 -1.41962 1
gene 1 41 44 1.24989 0 163 1.24989 1
gene 1 41 45 -3.63465 0 164 -3.63465 1
genomeend 14


